,LSI_1,LSI_2,LSI_3,LSI_4,LSI_5,LSI_6,LSI_7,LSI_8,LSI_9,LSI_10,LSI_11,LSI_12,LSI_13,LSI_14,LSI_15,LSI_16,LSI_17,LSI_18,LSI_19,LSI_20,LSI_21,LSI_22,LSI_23,LSI_24,LSI_25,LSI_26,LSI_27,LSI_28,LSI_29,LSI_30,LSI_31,LSI_32,LSI_33,LSI_34,LSI_35,LSI_36,LSI_37,LSI_38,LSI_39,LSI_40,LSI_41,LSI_42,LSI_43,LSI_44,LSI_45,LSI_46,LSI_47,LSI_48,LSI_49,LSI_50
AAACAGCCAAATATCC-1,1.44517691806672,-0.538337196051,-0.202647796983124,2.61860684528218,-0.0105471801664645,-0.0717608965665158,1.48756426656642,-0.0918180294600918,0.568298579517794,-0.375401778666959,0.371777973533862,-0.0947075420882917,0.192162354756157,0.357485823898145,0.135083613329579,0.29833336218565,0.0184307532392219,0.111751504482053,-0.0940006293665778,0.156969391523235,-0.231805015152369,0.0377244824237917,-0.449537197865734,0.0551590789018122,-0.34029486577254,0.362680220290091,0.0529534168961302,0.142460794645212,0.0768180520542298,0.281437034661275,0.220722128521896,-0.105393595189155,0.0380054769824742,0.0843755238302626,0.0406624939545695,0.135194501679866,-0.0475668907192278,0.097559067392708,-0.235423032235492,0.144126016136387,-0.0254051745023526,0.122597238597865,0.0150733864132283,-0.0830165570170687,0.11308651744598,0.195935767642325,0.167505500280133,0.0816033801410832,-0.151119582601777,0.0937754250836232
AAACAGCCAGGAACTG-1,-1.2049809785303,1.55897709803025,-0.132758869530916,-0.0246715199024305,0.0191412395293886,-1.03607797807266,-0.0422540023291365,0.370339981095577,1.41271611976359,-2.20851230257069,-2.31425782646849,-2.20688675780556,0.0418748239928148,-1.02807761102892,-0.722509507320758,-0.225513137953187,0.208535161680172,-0.668352460659209,-0.413603703025866,-0.0725204607117185,0.204903550299834,0.20966104541361,-0.504363542325372,0.228255883347638,-0.793810321861019,-0.189388875835438,-0.288128835214555,0.308532186119026,0.574163776672693,-0.241645313605627,0.250878927821577,0.784881883686257,0.280290192593621,-0.288829715637566,0.932346903975646,-0.501455582881132,0.724689545564747,0.442705804479207,-0.289350771921876,1.37192071466825,0.924714829448169,-0.027737712962297,-0.0648096137496719,-0.368897675017048,-0.212483675782341,1.17444504533017,0.433082495878164,-0.0544327199661916,-0.221725344799195,0.408927813350572
AAACAGCCAGGCTTCG-1,-1.25751027742235,1.54465481337337,-0.492733656741084,-0.0991935106747147,0.359827089244446,1.7382655849877,-0.0261657630113373,-0.242522626677625,-1.01656343431499,-0.117550135796852,-0.357369603292645,1.24810672207347,-0.162523263733512,1.29358766749259,0.409294464025887,1.24956001488761,0.204650100595285,-0.0567410414850356,0.427480194201723,0.0926330935516309,-0.41276280485698,0.553527716534664,0.163385286888228,0.28241604245502,-0.364261964067031,-0.384324747428042,0.669306682857129,-0.0947614722810621,-0.95925158926832,-0.347012188215624,0.233633633050933,0.312620072180937,0.18233401951848,0.556753151128937,-1.14067429254037,-0.40186812404268,0.630970686629227,1.17634015685021,0.295091786327445,-1.12739405386764,-0.989908449890335,-0.36243942325719,-2.0713202682004,-0.0279584478500064,-0.380174277917658,-0.761588689526278,-1.51119830589301,1.18120901932642,-1.8224790551873,0.188783562856774
AAACCAACACCTGCTC-1,0.89497892635605,-0.203370249350623,2.41865142034746,-0.231512016433335,1.44106008842459,0.126860267561981,0.235130492945221,-0.0260644367844504,0.671441837550339,-1.14946751394629,1.30829431252712,-0.766503300287859,0.171984942711887,1.66533003255753,1.36934004450794,-0.132428134977805,-0.584274360157788,0.377465562410344,0.704008898633218,-0.394876072699314,0.805719868408282,0.33345391829678,-0.443086412048284,0.0817492741674779,0.150409677063794,0.403860018504732,0.0633500957730406,-0.451820982749426,0.383613959123771,0.238082197289178,0.00389553811706202,0.162272840020339,-0.257548051632655,0.0641869292230206,-0.495200563259649,0.0728627767586231,-0.454228201401033,0.1923658184661,-0.376289127033232,0.257363488360617,0.24550799663261,0.162332144466032,-0.105335248125155,0.137114967417014,0.140498152971984,-0.225715336898792,0.0433796346116186,0.48529109160821,0.259510841761793,0.0668486796093459
AAACCAACAGATTCAT-1,0.632311370794822,-0.647297868236185,-0.277472824941585,2.72870288779252,-0.117132467788101,0.135693665623335,0.95200387826309,0.0214704512891805,-0.11590157562058,0.0756079803628354,-0.0537877345018265,0.278054605351219,-0.23482322297071,-0.273987459070076,-0.288616816916614,0.0170877751048261,0.0859079439865247,0.126023421842702,-0.294232000497512,0.24923427094675,-0.133219872758031,0.24086735289232,0.30023812973042,-0.000989253294368692,-0.0504234282835495,-0.0688277960023318,0.137251319248601,0.249702332359028,-0.0721650315516109,-0.206706564264978,-0.100007929514992,-0.0876458351319453,-0.109633769897609,0.140299241121801,0.0228728821748646,0.0815766370556544,0.206565422799046,0.0100664147855056,0.350728763978369,-0.645156294853097,-0.305863819829217,-0.119090187766485,-0.0949447272074448,0.204856121986947,-0.0429245865074866,0.186728385256612,-0.0348386480291555,-0.304884310957717,-0.0580440655056833,-0.0490942863022204
AAACCAACAGTTGCGT-1,0.313472299164959,-0.84505195904611,-0.498955410073003,-1.04663386793875,-0.140902437908812,0.0186296162122955,0.387085942622484,-0.143380547832475,-0.092487165166206,0.145936940841286,-0.131593193245309,-0.166727442590978,0.111994242580538,-0.2194035194697,0.0241557752779532,0.171731320606045,-0.19274339158846,-0.11255238304127,-0.0511688398993296,0.230518494231575,-0.424873224159502,0.184128627295235,-0.263474011550561,-0.0238528473239298,-0.233509908302839,0.363929498313064,0.0439955411540142,-0.175764069663199,0.499969155841759,0.0891432201335683,0.174160744589048,-0.049934083339658,-0.166031310398034,0.0697687312709721,-0.0718840606384211,0.0638780824391517,-0.0140127080286204,0.262092840226616,-0.323598763478319,0.0631589916720747,-0.191440739631103,0.241883696432248,-0.125133596205565,-0.235468673651785,-0.0901810419005271,0.147889489052717,0.0124572404934764,0.0433044429564058,-0.307356805262488,-0.0147872111572251
AAACCAACATAACGGG-1,1.40733151990532,-0.550044356530047,-0.13378610795013,0.454449050394297,0.254882160262111,-0.0541560203781514,-1.50698529041247,0.410036021167018,-0.0944478169320949,-0.268265166326816,0.418328775475333,0.0423849291440023,0.177003614363415,0.154570243280534,-0.372275658742543,0.337279943474947,0.182340571808731,0.271398299207962,0.0129446690041908,0.184624729373887,-0.428577737151176,-0.0983596958830557,-0.193347814003115,-0.231850119182883,-0.37616795599354,0.227523576557343,-0.073663974191956,0.275929533010025,0.172462162238806,0.15099320163273,0.149172543815278,0.0297675571567036,-0.0465527998303477,0.125016147179378,0.245384390795763,0.124781928861465,-0.141531427436563,-0.23498461521195,-0.0268395117931309,0.100153120089334,0.168641243904938,0.238537546695366,0.171596153296192,0.0943802711534717,0.128209027773546,-0.0628870877058262,-0.153678164977458,-0.0559829085759031,0.112239847534667,-0.0698484565718728
AAACCAACATAGACCC-1,1.1666424292849,1.09430636775548,-0.437950373471718,0.0352552077225373,0.327335932327202,0.947028035997566,-0.207699262976118,-0.0876922217657375,1.79644503139809,-0.0160057782334479,0.309639576311525,0.0950267504820448,0.42288268845514,1.28765901678033,-0.0672023371628927,0.220031646181057,-0.131313875751053,0.346298444562448,0.286033097813428,0.476535555137742,-0.644379878426086,0.181694587215432,0.333950539146372,-0.0227676906168548,-0.0987083191805507,0.387844814914863,0.222170248006147,0.197950938905654,0.340943541181683,0.252490482305032,0.363773557060949,0.175432258724378,0.348029498156385,-0.439482925623654,0.193758830804887,-0.920090124344969,-0.161280867285476,-0.232788277320938,-0.122751850582822,0.55548419832184,-0.125380998018629,0.117490175700958,0.322918837253658,-0.289599394953003,0.385961054704103,0.527773018566499,0.286823601252179,-0.106290334011258,0.0595729673760224,-0.0260914506720775
AAACCGCGTGAGGTAG-1,-1.99491556392753,-0.0804055815735532,4.95468999349168,-0.274874524836551,1.59681100864108,0.0691470081651234,0.151785897039742,-0.0371937531403887,0.733110705343382,0.872931182265949,-0.942902297299374,0.58242640132687,0.157051635243806,-0.507388248981962,-0.140865029685863,0.268981928586351,0.456437257789494,-0.244955683032893,-0.423963902896103,-0.243720149851967,-0.288496071462552,0.0570967303630676,-0.181233021895661,0.0491493914944467,-0.416559457016029,0.474349233289462,0.117104064954479,0.373991909519877,-0.238374303788364,0.255762444773973,-0.104781051003636,-0.61256960705299,-0.0334526507622099,0.317821772240699,-0.50564398841822,0.165402678400785,0.19504893798067,0.599459992472942,0.110297248966793,-0.0652601126233361,-0.146934968788415,-0.103117610749431,-0.336055407342889,0.0227195216915233,0.227166063073059,-0.246303282217403,-0.234889590112075,0.22121967817125,-0.112546235953006,0.0832777668265049
AAACGCGCATACCCGG-1,-2.29703885065816,0.680992019303135,-0.262787722475523,-0.730194419873453,-0.159277371504903,-0.777374484338829,1.52261750421886,0.816776106835871,-1.60222749221091,0.116837645775688,-0.348388448963096,0.0583929368925437,0.150240240677891,-1.09550054128669,-0.933289091875067,-0.0583031627166893,-0.512965790957618,-0.79268234802023,0.0269938388766365,-0.704421097616239,0.250867702161373,0.418193976110556,0.886417575360978,0.658681876883881,0.509185524198834,0.141688030503518,-0.17405114001851,-0.0811391153305017,1.08249477234263,-0.19610376674248,-0.165532792875323,0.661599293657308,-0.314834577936353,0.0184381821127625,0.211271708612521,-0.416840934758772,-0.0144052093515206,0.177218504710677,-0.158142647697437,0.26880384755144,-0.495418802013497,-1.15644032230258,0.507621808185506,0.195340102640595,-0.61339934984772,-0.229418254169321,-0.421082064670186,-0.114969506699589,0.538722360343092,0.447022278677056
AAAGCACCACCCACCT-1,1.12751976467676,-0.686725403010403,-0.200525425566352,2.18047208450833,0.170715000496508,-0.108256114005731,-0.44961791420302,0.248852414306842,0.331410998660088,-0.429270623035713,0.191211616918065,0.171258257994644,-0.225959210175254,0.10132400376266,-0.32261548299925,0.0525545279475673,0.0879996682382295,-0.135796772825025,-0.0212449623530052,0.0596120728187549,-0.137269131456735,0.134412437011184,0.229667326139921,0.00904369849911229,0.00635731808405634,-0.147354399934902,-0.214290178338354,-0.181973887884921,-0.121633378646693,-0.276340621332211,0.035663266227521,0.228591041520385,0.00971487587940934,0.164399995087851,-0.0182723881504422,-0.397224145723527,0.189350116892644,-0.0865286829314318,0.324720068074815,-0.438489625765921,0.320074464856542,-0.163639791225435,-0.48116178890171,0.363460262520924,-0.0884460385393942,-0.238000945177456,-0.244887781063338,-0.260340176946171,0.110210358511111,-0.164340278557323
AAAGCTTGTGTGTGGT-1,-1.53097216771929,1.70677928737166,-0.659490582116287,-0.076863532891821,0.715719253159379,2.4340968709483,-0.0938287004330499,-0.113889706082087,0.448575898604396,-0.270715295466467,-2.50599348884418,1.20748898263172,0.465095878996281,0.752076124103432,0.593699762806638,0.0365721763157303,0.23812906957222,-1.47414865312898,0.0615572413026971,0.106212069172469,0.726344163871231,-1.41376234896647,-0.202903641470525,-0.736960034051801,0.218224119086978,-0.0818141280549222,-0.565035156629215,0.656035907024102,0.608280552414473,0.499878272210901,0.648959502598175,1.20722705498644,-0.345252654816914,0.519907251181058,0.505827115025038,1.09770520205114,-0.455510932754803,0.130249598758745,0.845579358283247,-0.669118703810032,-0.138115614445727,-0.189851765797519,-0.0335572869467378,0.331885420479668,1.28125724058661,-0.870801044926965,0.478470826081394,0.738306632551242,0.851261823677314,-0.261736971885709
AAAGGACGTATTGTGG-1,1.63672369377198,-0.461500759419827,-0.181686256232414,2.5989997492473,-0.281061820547995,0.0834660390034853,1.76821549537236,0.0565141358489978,0.219388871008038,-0.262477217976194,0.283595779279986,-0.0255682041511655,0.100150824172599,0.25593812303503,0.0632655104404014,0.295541114480154,0.00810593647196196,-0.0047516069159752,-0.216099104559862,0.314038134862926,-0.65198716432665,0.172478465547913,-0.81302865896117,-0.00289480777028989,-0.712136854611336,0.239340423347456,0.323260826395689,0.461370634511482,0.612665264410393,0.337373465252274,0.66566670471337,-0.304299637750488,-0.0982299403353907,0.123396061636149,-0.0460143086469742,0.19609855767795,-0.407118938995358,0.151692910080354,-0.375398708180223,0.350502154747548,-0.0431864004852105,0.120639718985858,0.343548129342487,-0.419582890540946,0.0764083514596096,0.058806921213425,0.109910019902745,0.215199780517909,-0.191968484998081,0.289213437761298
AAAGGACGTCATCCTG-1,-1.39915289150803,1.43814124753886,-0.25229323588857,-0.0865478712203655,0.0127814162464359,0.985763544669188,0.240301424798155,0.0392072210052901,-0.624262217854736,-0.87848202559477,-2.92683580371362,-0.325079785564043,1.44513564218088,-1.16853874925292,-0.721340461083473,-0.993891264900745,-0.565445956668256,-2.30943765954534,0.304653676392546,-1.7354999057506,-0.886596380558396,-0.676106141698221,-1.94966019802006,-1.66834094392937,-3.9542573368771,3.94218468462845,-3.68514831202857,0.515016080252359,-6.97503438744151,5.35618736340365,0.836770827215019,-0.599203779684873,2.30705348734711,-5.72658832547664,4.51835392364528,-3.1631884053386,2.37643988236501,0.65814033191962,2.86099843342911,-2.02663864674757,-1.0269841836354,-0.940233311199787,2.54670822072272,3.65234830602256,3.5062327572372,-1.56654306698747,-4.79304572208936,1.34089690375583,5.83758656370932,4.39150617794719
AAAGGAGCACAAACTT-1,0.278834564845254,-0.82846530230256,-0.395212995216274,-0.0150460859177787,0.0597556119348121,-0.418296388655836,-2.51742000076511,-0.181300549473744,-0.0812726824910572,0.501711716162912,-0.318954624552017,-0.259458534344752,0.172157938972031,0.0213923849867878,0.18236710217842,-0.37541872077006,-0.0324227109941469,-0.0484837627339785,0.135892483052767,-0.286063239134331,0.185528046748909,-0.0368845346409627,-0.243622830414345,-0.0329134854934099,0.159224909992851,0.0267634574473978,-0.0464812121674757,-0.179737386183637,-0.0795994465073151,-0.123610603655527,-0.0707370510900541,0.0942721272554205,-0.00521271789535123,0.156527303840481,-0.0868484393087298,0.0385321427174039,-0.112297358017821,0.296977366716737,-0.181285007176521,0.0430471311317302,-0.076907288029218,0.255770701224934,0.225805499123472,-0.244105899833815,-0.0898672643730251,0.0547148393474831,0.107069610545445,0.0818804947188464,-0.0881489252847756,-0.207291504802557
AAAGGAGCATAGCTGC-1,-1.97581942393614,1.86650691475462,-0.789252098028644,-0.0780309555098635,0.666808822866472,2.05834735877398,-0.278556816668166,0.430457513073056,1.17482526671998,-0.576164852651312,-2.644421426516,1.37320925023511,0.627668893255223,0.30017125725182,-0.999115575955967,0.644712305184372,-1.14816196072769,-0.213809970913326,-0.342362828080371,-0.6989288319045,-0.543741538997209,-0.222053577680124,0.578872477553585,-0.431683068697065,0.0932823265464561,0.503699128686904,0.498969486638453,0.338596776912624,-0.981008199592929,0.295677055034086,0.488541622692,-1.206936223334,0.880373823875973,0.479927756088925,2.04663767695362,-0.556307438248726,0.808517617920163,0.859138497758381,-1.80066824479161,-1.27197276827118,-0.969698203264413,-1.55624811288056,1.42428507526888,-1.75059503393538,-1.20175606619705,-0.539049354750679,-0.786684233851408,-0.878483283313108,-2.37029083417511,2.18177610405454
AAAGGCTCACCGTTCC-1,2.0637007978325,-0.634845574737775,-0.374058909648083,-0.786912815940666,0.0306661408628586,-0.168783593697311,0.497329988414697,0.0583461387288347,0.68454911749542,-0.257995575046778,0.141756062655585,0.044360679592931,-0.109081658793337,0.0825576129738269,-0.0301742694203764,0.210909399875776,0.0594522517443668,0.108080952904925,-0.236470621610472,0.220613880448257,-0.364420963989089,0.16834839193051,-0.265471268305956,-0.00405790553630065,-0.543555255978163,0.173589158266916,-0.0108380416829755,0.187222762356987,0.0202105249665724,-0.0266222873089883,0.244032842171837,-0.285051735468399,0.106812705772449,-0.0637230632930231,0.0865567341796313,0.183362498882741,-0.285400717687984,-0.1714445729167,0.083613340464245,0.140639274781908,0.30466623950488,0.0274206413236494,-0.120855367846156,-0.100353619812926,0.0439222164796409,-0.0966641564154584,0.0441375153517559,-0.0520216281029607,0.0121988598474343,-0.145956266721827
AAAGGCTCACTTCACT-1,0.177402182395868,-0.235004394452909,3.47660058249239,-0.291464085591065,1.71151935858439,0.159925616272766,0.364960204893144,0.168990163478831,1.65706835360796,-0.826613655477883,0.781798555367166,-0.703071200458042,0.6671221065599,1.80719930311216,1.71633187896626,-0.236365893032323,-0.855572883335972,0.285636426407851,1.00658298928794,0.170509452262798,0.853511383007534,0.554995435654341,-0.737989400309985,0.481764768413859,0.226785202173679,0.511964488886765,-0.2100960717671,-0.850679528283845,0.0698014632887362,-0.0910913366650637,-0.377089488356025,-0.00706666409864666,0.0843282398279586,-0.0775454423444872,-0.678056806229689,-0.0311251393946898,-0.347628934345333,0.195920283837992,-0.484761044432606,-0.0332420518871769,-0.0327063444936861,-0.209584885309311,-0.23883136879534,0.201672837984719,0.0509683282033812,-0.0815124886745532,-0.133025851173555,0.482339601462297,0.384392141684293,0.310590513231169
AAAGGTTAGCAAGGGT-1,-0.927703878602514,1.39322106922566,-0.196881051308586,-0.11533978190011,0.240780905175964,-2.00952488554764,0.533669694539511,2.92379221307279,-0.461458766025828,1.24644226417679,0.222071746243263,0.917757580041067,0.824083510631675,1.25049419799392,0.123493104447123,0.0866322581259583,0.700566700888441,0.131375125414008,0.433678755601261,-0.0631787033874958,0.303463032494972,-0.630119432099562,-0.0451820195959205,0.201699591283483,-0.291806678155776,-0.36575631134659,-0.0584637423170601,0.199455002174051,-0.260486641341017,-0.321315625440969,-0.0909695837357299,0.293745576779399,-0.0888709179159878,0.680682653769397,0.00740427445621515,-0.0744793514299452,0.0171951017311342,0.114449535703561,0.0604008866855848,1.00562886687203,0.651500642463989,-0.242332782100636,0.221151195742056,0.0854705428937496,-0.339078706925283,-0.0614360833980105,-0.19657824986009,0.840411899152505,-0.523143318086334,1.77818957797481
AAAGGTTAGGGTGGAT-1,0.251918023440892,-0.880948428029408,-0.493145438224946,-0.948119467911982,-0.0642333383982623,0.0858579374179405,0.65970137792541,0.0498115498080908,0.136562209207356,-0.221020517803257,-0.0934310916563131,0.166584075871636,-0.108825118580893,-0.0113789896896595,-0.23820009439754,0.272674218395332,0.120924029994885,-0.056826811782706,-0.39680409632847,0.489841801439366,-0.416976524589116,-0.0559828440061799,-0.394543135038372,-0.0751224253676382,-0.559126098253913,0.391341418353828,-0.000191447593352231,0.216549050244649,0.273837299916617,-0.0789173569473839,-0.137593135547974,-0.196932693721964,-0.259176429142476,-0.0635139674757697,0.307409883741825,0.260965662222868,-0.435979040263014,-0.129501020013159,-0.0149788775819541,0.0838040379024093,0.260096634278607,0.286611224595813,-0.0538759935581904,-0.143921498654446,0.0384977045476324,-0.0735435690182239,0.196625884170675,0.0050639062829468,-0.358032609550447,-0.153186879595235
AAATCCGGTTAGCGTA-1,0.63415870236023,-0.645677555814369,-0.241426482951951,2.70166356027552,-0.184424517083412,0.0713824484049018,0.431168816556004,0.161154643571402,0.21125860450172,-0.197019388935034,0.320555381612307,0.388047782942157,-0.232121471120311,0.00490972199144989,-0.0862772105362335,-0.150170299036804,0.201764486687554,-0.0365731262766088,-0.0236184393869737,0.316559326321614,-0.000589592481513859,0.0118895778557139,0.302688841171235,0.100798491713744,0.185837334982069,-0.241616383063324,-0.0471533501619064,-0.19314268974684,-0.0114539435889375,0.0401685992707698,-0.21204732611456,0.230590465281661,-0.00932191131514292,0.263670440850846,-0.0672636899675935,-0.360954055188286,0.223661759221047,-0.0243194666237995,0.362609253074719,-0.445384369332597,0.142352821746372,0.0258190212023532,-0.38540336808139,0.314279447675885,-0.0204958434945916,-0.212267469175808,-0.318375560777557,-0.0655007042812204,0.0592633658380163,-0.250941200690703
AAATGCCTCCAGGAAA-1,0.655007383556677,1.16818541867017,-0.427076781827793,0.0380019094504737,0.507823611634656,0.666478142616669,-0.285125858659098,0.179627003876789,1.33875161107919,-0.81773498268366,-0.542600852192978,-0.353368414637394,0.525449834418975,0.605098124567524,-0.30612733050351,-0.174916196935842,-0.230804374322659,-0.437540310425723,-0.349830802124664,0.327799297219415,-0.613370385516211,-0.113316617567545,-0.107109906490263,0.181887587212867,-0.314520396156969,0.0170746310670588,-0.250983291666964,0.321074555601734,0.53605172917081,-0.475859074032774,0.852672074049373,-0.508635910128291,-0.00335813956433658,-0.04200049923909,-0.416586595713124,-0.424918247105708,-0.00253913637502944,0.228570766354103,-0.335196808213989,0.088739265401461,-0.0590670104059706,0.188121631912769,-0.677875626896021,0.529688925339666,-0.055831602143347,-0.703588810318338,0.0179171794742572,0.205458690262152,0.438348171461727,0.0503276724768157
AAATGCCTCGCTAAAC-1,-0.785168120393279,1.50413625258081,-0.360600908124407,-0.101635001433042,0.134059326435731,0.130211361503084,-0.235832937305555,-0.538637082764256,1.3470209401256,-1.97233634817717,-0.861433563921859,-1.35426109243589,0.177897487922313,-0.793439552552,-0.634727605444265,-0.454179025671071,0.176269141507129,-0.90249156946589,-0.596446593487434,-0.0683867155708025,-0.205571680158459,0.121640905124393,0.297414779732768,0.0221937151793458,-0.246180862390303,-0.105320753003216,-0.108314607033039,-0.379720502062461,0.210348706845347,0.111804865134989,-0.102814187144502,0.0861029249335007,0.939341225990827,-0.0620938839432642,0.165289633498917,-0.600711943163201,0.724388066465143,0.204980490099248,0.197024480544889,-0.0180569049781818,0.157836503208377,1.09629078357371,0.238170766912871,-0.308747583818859,0.65442686836116,-0.00903703420142252,0.383765819925998,-0.00743646459425435,-0.661085792712181,-0.0686160578679702
AACAAAGGTAATGGAA-1,-0.219240802607398,0.20605823938516,2.40604907230127,-0.254443997005459,-6.37484823613666,1.99753889699928,-0.895923807066422,2.22501033502585,1.65198784614736,-0.485768539197393,0.864638290902303,0.273401763934927,0.84769325985943,0.215907298689548,-0.0490724115851719,0.565499343173494,0.845256208981116,0.713202411388076,1.59405704642416,0.999629367539928,1.04515802220531,-1.01769359515197,-0.487049912686303,3.26152702293751,-1.27318601324482,1.8717844890794,-2.22751144907857,-0.16718209033838,-1.62418477206798,-0.0506534964128268,-0.214107323806452,-0.433665555919659,2.33313872450176,-1.87788619009268,-1.28127778735933,-0.324760126793425,1.4510833295848,2.06752514267412,1.82869086349466,0.807290495391843,0.921674299447794,-0.315528452008355,0.994923553505003,-1.75742277929641,-0.939535552152823,-1.10680878544375,0.0703724945940248,-0.38164471259108,-1.96349055838768,-1.55097024358072
AACAAGCCAGGTTCAC-1,-2.56798260877533,0.53235506466771,-0.605634017893544,0.174760585865253,-0.00355306768466781,0.933578687122682,-2.01592189767825,-0.639773869647619,-1.4671328321317,2.01676678258788,-0.346846224175512,0.293913257458591,-1.06297331572508,-0.883513222414002,-0.376080123930286,-0.147936364129834,-0.491905219110338,-0.936444790468745,0.287465632451537,-0.546551764631155,1.25566351550492,-0.627477351263949,1.47042804962051,0.241574393953219,1.903319590593,0.561989307050209,-0.0323129500911478,-0.631143905122807,0.450788047769627,0.656013487066019,-0.576573913730346,-0.236182151392418,-0.188920468913778,-1.19225139225431,-0.981815988292274,0.00859788080276416,0.220179575964501,0.856970590615985,-0.729673468672788,0.565433014386936,-0.500406952225772,-0.14005979943825,0.14792530763257,-0.844770404516397,-0.9178967208547,0.812464051588351,0.871553661160633,0.695146030488422,-0.0192262285920352,0.0254183630266857
AACAGATAGAGGCTAA-1,1.10568970521158,-0.721831437407614,-0.283185233794705,-0.363278311349673,0.226974233956281,-0.105082898062011,-0.676287253583401,0.0371337294306745,-0.0829363417676491,-0.356439576086295,0.531814547555949,-0.149361679155141,-0.142318175285945,0.518058752311556,0.0455756233169633,0.282654482661345,0.153657615577754,0.119093661834744,-0.0777326044366666,0.25642821183367,-0.0974023012461557,0.166570978896956,-0.260635340635695,-0.0709031375064983,-0.365340023492344,0.257190034560307,0.0493452561205456,0.106654112315651,0.173187721828407,0.125351270288004,0.0478306237333584,-0.158882875222251,-0.0925451867051002,0.0936496899875874,-0.347968660706031,0.0461720030096926,-0.146464672891364,0.0243974466959503,0.0384343256674064,0.299648499812056,-0.0565934729375387,0.182781469857459,0.052902534177566,-0.0944553400670327,0.250278067799573,0.0329727409098141,0.101092699958659,-0.107399329753438,-0.18048353719534,-0.0544468044657792
AACAGATAGGGTCCAC-1,0.860844610048531,-0.714669579362365,-0.242016987105364,-0.111612121753254,0.11249573342579,-0.0297261817591568,-1.2456850057658,0.0953767627406577,-0.417402560199269,-0.193045241747511,0.214171453935389,0.00753888316164299,-0.0447401415905329,0.0763494963159267,-0.228166527929162,0.130145126988763,-0.0288698959995134,0.238761145307971,-0.203127393844827,0.332054526405598,-0.147698786894087,0.252600167865652,-0.138544435262882,-0.137615256840092,-0.187157281303804,0.433665786552751,0.0605162532542495,0.164271292681249,0.250274474228453,0.142756576634889,0.218495624269777,-0.312843077104304,0.0375720002151962,-0.0214914466957632,0.0651198360468176,0.0127587043541767,-0.336631367375096,0.0576015551112584,-0.347821256183598,0.167636458237759,0.170691234996203,0.0306469980748226,-0.0144893745280689,0.100605073840079,0.0352944665247456,0.0283034902721638,-0.0171654273620831,0.168140181004972,0.315591211886839,-0.0870697590031646
AACAGGATCACTAGGT-1,0.288085929473935,-0.75661187774719,-0.332363034544708,-0.528628912974006,-0.0215521494675577,-0.267933557977147,-0.792244613926048,-0.0235301714903464,-0.586034215599309,0.561590769391668,-0.319477788636472,0.0786352140539995,-0.145843297131682,-0.267066072423192,-0.082881718268634,0.404599046450547,-0.243739999167894,0.33262326192816,-0.277711811756903,0.460696163453215,-0.488735123907381,0.166232595936773,-0.899767640841122,-0.315995348869833,-0.661315862580753,0.583440565377193,0.454593212658254,0.650273640248536,-0.118171205040991,0.201988657825731,0.424700715499678,-0.588127134777328,-0.496203206721135,0.246127500434259,0.22720985079815,0.404036780983069,-0.485343906132295,-0.164056679716631,-0.458087558887945,0.17735734640507,0.277240308887318,0.507999445762854,-0.110611771161893,-0.266349259370514,-0.113707448634753,-0.0065858378161767,0.572822268046891,0.363755548526093,-0.325928199404067,0.0383517338169533
AACAGGATCATCACTT-1,1.64046595506162,1.02611499189426,-0.496086664776067,0.0267150379301918,0.540919858307129,0.787368155283476,-0.438687185013064,0.0664963627035122,1.48888727165125,-1.14791358988411,0.121093712400798,-0.222630705472308,0.803907231020257,0.449597272368189,-0.383730341842911,0.0827123460339476,-0.0649095343079166,-0.704443528891454,-0.492296914831715,0.413572060888994,-0.945785861748761,-0.0308052517150869,0.21962777409794,0.0197257141959886,-0.170757696397357,-0.361424109035515,-0.199414677756494,0.113655733085794,0.0256078974851585,-0.330285363973691,0.276496683640838,0.10351241332833,-0.874981424946052,-0.35948407631395,0.0258661812150293,-0.582203244121959,0.248149304065754,0.212757002054555,0.00537023988547619,-0.23763917260951,-0.489665062831002,0.0495282912965985,0.407513601622935,0.209384956357691,0.0293369904492989,0.526600111418139,-0.796354237806255,-0.143407598549213,0.22334369572585,0.399175102887153
AACAGGATCTACCTGC-1,0.963630921357406,-0.574400958522067,-0.203926690265586,2.41891484731329,-0.0585589041038427,0.114444213452687,1.13716840943586,-0.0579851622015075,0.118009321609091,-0.517499785393371,0.498381783981085,-0.363805357779982,0.303283180757774,0.499440999786794,0.13373080704917,-0.0971539378136421,-0.285444860419931,0.148426275072668,0.215814611649559,0.0629827182122006,0.0249368396433004,-0.0113699052435933,-0.28405330950188,0.00805000320158118,-0.194032559848449,0.106785140027957,0.171598932885967,0.0546719799574839,0.0373624463490601,0.146369382570485,0.0956765524502122,-0.173899575378964,0.0644901274673562,-0.123207029135672,0.0714759505735593,0.116596230137487,-0.151905349914624,0.200923886262588,-0.328616325599828,0.516772856436317,0.0595568352729216,0.00305040570870299,0.161873561891778,-0.12455234427206,0.0343559469015818,0.220761759917491,0.0203330507908046,0.0426889620675827,-0.0339446420801804,0.135941986074328
AACATAGCATAAAGCA-1,-0.200556057481031,-0.879855220286103,-0.325234608593146,-0.133482424391335,0.10859340918915,-0.522767497348892,-2.21236112974269,-0.0375654969091698,-0.0807415302139614,0.734271777297013,-0.737050172900697,-0.0103147660416171,0.09886112871776,-0.348011179315835,0.387822087984151,-0.101340549674305,-0.131526086108531,-0.198372254067099,0.0710243458557969,-0.0114227685417059,-0.135479685678074,0.0725931884844802,-0.414540389436216,-0.0351394837731051,-0.219190376326727,0.256816017787992,-0.0628689369175568,-0.0700046488511693,0.00440034730012617,0.428545443942307,0.0832924389513009,-0.186209416720736,0.0647642411346028,-0.158525724574574,0.0225460416264362,0.651107603418931,-0.0188363099449268,0.152650837907157,0.0208664806166298,0.481325507443415,-0.268824869452308,0.100417393712743,0.330588508061968,-0.341948899027686,0.106134727199362,-0.0691339684203201,-0.108868037326194,-0.110755103072209,-0.135126297891905,0.20532980533296
AACATCATCCGTTATT-1,-0.349047755395257,1.51582305449444,-0.324929643280468,-0.0519434156595421,0.175236125799664,0.287108200746831,-0.122144499515534,0.0958039214883004,1.55375894827753,-0.0351578220320963,-1.4847993038999,-1.69487356422738,-0.434547608713398,-0.259736327235632,0.341006764657481,-1.54052117926237,-0.539144401819931,-0.206658509858482,0.336274677284343,1.0186992229513,0.474778458544993,-1.11971860214032,0.0839297341764248,0.246428317548871,0.184663143053289,-1.00829025934831,-1.19961653491815,-0.209945118542272,-1.03050863025084,0.676421181672342,1.00766161166594,0.82361052353559,-0.699767048187098,0.928730768527855,-0.286729907152262,-0.601069054772853,0.647545328323946,1.16781120591421,-4.12242708821342,-1.15347755798699,-0.594273578466997,-0.542543033119922,0.0287314710064055,0.366427449012704,0.899218557310204,1.81980038046186,1.10253166438415,2.81731493344331,1.32642265426111,-1.22966922479304
AACATCATCGAGGAAC-1,0.18794986329132,-0.847439233877409,-0.46840865471813,-0.845819164957292,-0.0570351854609649,0.154429700480075,1.12668531686423,-0.0521524516312301,-0.0385076919461373,-0.102574259351825,-0.210195536015628,-0.000118275294612617,0.0385427344296119,-0.149510603551491,0.0755482263492073,-0.350014425064839,0.103028641174249,-0.101647859499201,-0.043791819667155,-0.457636909989112,0.222075158815055,-0.220881888368227,0.293743207158986,0.138387885939828,0.55457420527636,-0.186034307553816,-0.0380685501113946,-0.327070479995631,-0.355859025622846,-0.0991315541898675,-0.328970326805078,0.276512746800004,0.264536701355551,-0.14713919461724,-0.133379517156558,-0.186817424444023,0.515616391516527,-0.142498603637989,0.146681259446502,-0.153059657547384,-0.22063280407031,0.0542147048815011,-0.00670910287833432,0.0911729710226445,-0.114980535350249,-0.0341069495995623,-0.043073527101825,-0.0664713723876431,0.226133071705209,0.0560034361936407
AACATCATCGGCTATG-1,-0.707922954608809,-0.0649344840505276,3.42378751558661,-0.0554489887245648,1.10934817656411,-0.0015765252728289,0.00698339181371057,-0.105679792295576,-1.11403996310596,1.77607436196831,-1.35837742007398,1.33020616506784,-0.521324353312619,-2.09759715374245,-2.79797688708709,-0.670157923272972,0.943306479441522,-0.49364211569404,-1.39456501172876,0.691804428356902,-1.94590420642091,-1.3497896026399,0.458958658289237,-0.02656633738713,-1.0712581139381,-0.162683553411687,-0.212535775014307,1.24816008382721,-0.380105122384142,-0.294701061465751,0.507007223640581,-0.00865786716031252,-0.148729728877351,-0.291415777859463,1.23052000522117,0.315342733592893,0.565641963301532,-0.0411643786165268,0.294387291553664,-0.0826023003164373,0.24645027510118,0.284710511605837,-0.319529371923473,0.363643579966921,0.558719736290493,-0.374383341189538,-0.657973260585209,-0.950353985961802,0.0873108604455624,0.238604447298827
AACCCGCAGTCACTAA-1,0.481979551035479,-0.791512577730045,-0.34413984906549,-0.12790128705624,0.152544646982459,-0.169009148527431,-1.48727690305799,0.233768160449645,-0.203246865574625,-0.0514814969039916,0.024382076982948,0.25495240004185,-0.0560138468990679,-0.064948895597341,-0.306925174374677,0.143969639667526,0.128095872397887,0.184978795268393,-0.289215472972358,0.55468640854195,-0.588444651000486,-0.0350149590214826,-0.315360896371646,-0.255080507034302,-0.592129615538861,0.258055020575335,-0.00447629472188867,0.306905017255733,0.363722206708818,0.203766305357061,-0.06134415776156,-0.290018539594499,0.164227004727007,0.159078232412144,-0.105789749545671,0.286844123002171,-0.145756119657176,-0.0712184536129066,-0.0818285853784601,-0.0423919307848726,-0.147055948666167,0.164221078699292,0.0227689127760357,0.0351196413592664,-0.0257730643980163,-0.0620518206117617,-0.10663044768541,-0.0929972527644183,-0.154666233154242,0.00501074575272072
AACCGGCTCCGTAAAC-1,0.194834761869747,1.30311767101458,-0.412258759790404,-0.0354933352502997,0.365845888283589,-0.139896114926594,-0.197342772014167,0.540218019916346,1.56365042005021,-1.89276754078795,-1.21582226659767,-0.994464635201224,0.19432590196158,0.407558385504429,-0.0465713120859237,-0.457108995189007,-0.161218245329686,-0.289967656921556,-0.180207315417684,-0.00220219922693122,-0.0348778984591406,-0.189753221426293,-0.574159365443523,-0.142779208087218,-0.353679608219637,0.0609379808361287,-0.362696416880176,0.243885840140089,-0.271630125148895,-0.293749901877342,0.181459341120911,-0.13507240836575,0.403029237552644,0.221218813914265,0.783180721156172,-1.04187689304983,-0.24769893290207,0.389426232543431,0.0436681020902276,-0.244254590866123,-0.86835993741154,0.117047746623312,-0.0599647594445104,-0.238575057192074,1.05057477112135,0.123148530318573,0.405797946477887,-0.27468671147487,-0.211656973164264,-0.317296437732483
AACCGGCTCGATCAGT-1,-0.57703630221351,1.56124578913399,-0.608432756307687,0.035101999266658,0.407332460446323,1.23272851198967,-0.302292152029135,-0.734361968851128,2.6665046489746,1.18067115434079,-0.11833926276329,0.789943551044792,-0.192043688039848,0.991939222013944,0.0834573881995095,0.168412798348744,0.147650962500848,0.24593596567482,-0.671462077978471,-1.4283818831241,0.148518492399008,-0.192787464007636,0.255524729471692,0.343868961645341,-1.14633205896329,-0.665591764244027,-0.175739766693692,0.534191142718958,-0.0216151337815975,0.280091581481195,0.447058569031893,-0.903500744333049,0.431981121757896,0.749443401341059,-0.118374834235483,-0.45479283983164,1.29878072876165,0.098797928689109,0.776721125237959,-0.446175832650716,0.285751006683136,-0.517112812351322,-0.56831237079373,0.0481448904565375,-1.1534280653636,-0.174940538477148,0.360016838925191,-0.195847123284562,-0.0354078774710951,0.0801114051873332
AACCTCCTCCCTCACG-1,-0.579013576088306,1.59524844351039,-0.290156791076685,-0.0698026114989501,0.21924742547937,-0.49595517490873,0.0646121765843808,0.579675937393805,2.34374512921408,-1.01310337208621,-1.7788469385823,-0.922042021650528,0.274229016288525,-0.10812591125672,-0.196435035311755,-0.0254240606678743,-0.252249649697399,-0.840420659023194,-0.0598263687310994,0.0719458749637922,-0.32935651415418,0.508150723630497,-0.00556970253828036,0.307274676175618,-0.147864056096172,0.0202552627379604,-0.489351918079844,-0.091259834305879,0.177894793949706,-0.525381795288285,0.784276451798535,-0.939051018160043,0.0671827948692735,-0.11235302443569,0.779298015299453,-0.402458903481602,-0.702985424313841,0.85172176342148,0.344968077563197,1.20632138615554,0.136412807449322,0.605687390893453,0.73983688066281,0.0724481270601623,-0.194393604455727,-0.00668630654743889,-0.796750367137735,-0.998883909134484,-0.214736808698901,1.64088826430907
AACCTTAAGGTCTTGG-1,0.946080157509527,-0.765748326262814,-0.414643979392335,-0.801890774706764,-0.0478456377354333,0.0212178237618005,1.08736584407521,-0.0898121891917924,0.184208566289974,-0.309999216120832,0.245393537908023,-0.0950561069491524,0.0847676858806222,0.0532183897805555,0.0109900968877329,-0.352973088508277,0.138983610345181,0.151536316729546,0.302710806784266,-0.19620912069811,0.119338363645983,0.207594867819104,0.369961970560232,0.0540489934803722,0.308537912176992,-0.386011812550807,-0.0267946253736276,0.0746993152547243,-0.212350147529132,-0.0688257602092999,-0.116901411632005,0.285863297141452,-0.00597969554859016,-0.154665028976082,-0.291581183560036,-0.174153020544824,0.0712906342815681,-0.0235560706710849,0.0132717669851594,-0.206870379985476,-0.0968025562119367,-0.277723692850955,0.126552017860924,0.10498282030463,0.0583786189480659,0.0921887910900338,-0.273391724262229,-0.085972493724304,0.192764493695491,-0.136431810074536
AACCTTGCAATAATCC-1,1.77136365536927,-0.632225281097167,-0.23085876220149,-0.499931104257023,0.0694361218397244,-0.0791840185762508,-0.343900352062859,0.00662628222775864,0.140254406524505,-0.252180040581559,0.411978486515858,-0.199731411689574,0.108338759763832,0.393287927577049,0.0226264812270343,0.152869564881586,-0.166857234435196,0.182901191123097,0.00104399524179452,0.327599437988335,-0.190863383596244,0.108941628370488,-0.352306197815062,0.126492216156114,-0.384905100855788,0.192823692786981,-0.0679044709382151,0.00663912847869498,0.132037579264269,0.0968274117398676,0.163185221262916,-0.231301354130029,-0.0751649105060561,-0.0616806373324771,-0.011758353163035,0.0417354895327024,-0.31207658301111,-0.033336224483096,-0.0419577508446653,-0.0353734904687091,0.131148521188374,0.126050619842498,0.00252057697396052,-0.0361100745512067,-0.131194255694283,0.161148729181512,0.0373679631592269,0.118461355825923,-0.100398312740075,-0.0232982093743419
AACCTTGCAGCCTGCA-1,-0.0520505524503469,1.07910145492859,-0.217321214025761,-0.0785702318471995,-0.00940331478721541,0.576279752737594,-0.237647504050332,-0.595656113819404,-0.235883959917953,-0.366003394571914,1.84762506787752,-0.412848020832859,-0.67782295323468,-0.178312187991045,0.0844761277407888,0.238816929600752,0.0229493264322372,0.567648931267786,0.108394692554925,0.422004097774245,-0.360097661888455,0.194250527370284,0.346311238055155,0.692178676328359,-0.448772016542977,-0.530954555486112,-0.0259235731808628,-0.555681907877858,-0.288132228678132,0.00414127712195327,-0.826929032041216,0.26159793460359,0.127285474362035,-0.101971670032087,0.779448623545498,-0.00564277307309849,-0.873432537094626,0.496862932321171,-0.307389747912498,0.212756625724112,-0.398989937299535,-0.550478699050094,-0.357482984117032,0.00220821638996606,-0.361238761380163,-0.152799850466656,-0.432143837318225,-1.05486194042701,1.28920525395794,0.386813084319571
AACCTTGCAGGACCTT-1,-2.66314258017869,0.736920696795598,0.963629602551609,1.4519017652437,-2.75662880458857,-2.8110452095618,0.691572988118856,-4.01544088594892,-0.611477067863056,-0.240164124994438,-1.41666562118056,1.97833340115606,0.787615097175969,1.11627525414005,0.353055062554601,0.483262462746576,0.571675713117009,-0.63560375105416,-0.740691337258714,-0.695157027610062,0.44207978803301,-0.680333893081111,-0.359278025896975,0.666728045155407,-1.03705582476897,-0.385801184227367,0.35650961256282,1.5580975586442,-0.204477949415532,-0.00645150305899411,-0.0412116470725961,0.399999827387556,-1.24573013715865,1.35608564744278,0.358197602447485,0.680804595399419,1.34437770503857,-0.575096935535534,1.81269089476926,-1.34933269733833,0.28425304544524,-0.550688929384573,0.115704569246732,0.733198929202333,0.514896735208514,-1.21110934713282,1.22603199928639,0.472205424015971,-1.22057808716932,0.531097711607658
AACGACAAGGACCGCT-1,-1.06803746888619,1.33445237457005,-0.239644752887506,-0.0593162368479665,0.209064391622617,0.427413593809346,0.0367506376351463,0.50337407474165,-1.78764083937771,-0.98559827299,0.11439858810991,0.116794361753269,0.261966392888186,-0.119676049232662,0.338796140564154,-0.323100260333831,0.303078177310298,0.0838808333540869,-0.416118269779602,-0.61207540674421,-0.203194933558735,0.963749455445884,1.00364923467087,1.12041011349419,-0.616525972152297,1.03720430694115,0.817105300162315,0.38066564689111,0.309599995252151,-0.221747425507348,0.534419197826292,0.738798690399655,0.297093305887435,0.568498305790697,-0.914687798564592,0.172189670291714,0.284617424040387,-0.388569510801638,0.976732461485486,-0.786283804697966,0.204337620202135,-0.717080442731714,1.80534323226612,-0.417985733638089,0.0776513933563153,0.609401059860965,-0.0746533177200836,-0.886669297315172,-0.96947727561986,-0.983855422657149
AACGCCCAGTTTGAGC-1,-0.780267679007741,-0.0976969711216672,3.89126895240451,-0.364927523786511,1.4781547929452,0.326704140986825,-0.0479441256912898,-0.0137036222861598,-0.181593713624994,0.351858120839774,-1.00123853396563,0.54602500573938,-0.460537636709746,-1.37199316070784,-0.810164270739151,-0.654820813140933,0.69457269517659,-0.182953404219673,-0.328372794837191,-0.103351962847461,-0.693358625602091,-0.621924807676102,0.235011543482331,-0.153586226285435,-0.244619078079713,-0.240550216155126,-0.108590766074921,-0.17463234799742,-0.0432407191664379,-0.405747269242033,0.269404567013431,-0.330868209412658,0.302235514854227,0.292762463566956,0.0965515245883308,-0.406412117052687,0.434407923228735,0.0022217194609886,0.891117088980027,0.0924187594944215,-0.01785077975059,-0.251632783616812,-0.224563629570657,-0.0914381232121834,0.456501960796544,0.0116446291235404,0.0614056237244699,-0.532742379302795,0.0650554884280886,-0.0836395344092047
AACGGTAAGCTGCACA-1,0.444695790857519,-0.824416575024442,-0.482462194620913,-1.15526756883817,-0.0642347895800042,0.00695147625068363,0.792790812288393,-0.0312314001943415,0.0602775354381619,-0.225260046488988,0.203487528660703,0.106361676914432,0.0462119655373988,0.121695249594591,-0.215901876997454,0.120991655283483,0.0368413301217829,0.203372527975163,-0.0858242743662691,0.285473156115753,-0.222040252067393,0.157277933725171,-0.337030061165197,-0.0545216386109752,-0.612616966192933,0.33015849093802,-0.0165706233664385,0.0326625269265343,0.507912070017996,-0.120296433591313,0.181524646413175,-0.170788010031671,0.121219456487559,-0.152982523575673,-0.000811540017044297,0.0291610949675358,-0.22431239341074,0.0151600087118952,-0.0965351615598314,-0.0810499922201074,0.114388604640339,-0.0126976695273464,0.232710137379175,-0.103365281138167,0.160021359398309,-0.00123100850083348,-0.0217111698704633,0.298776166195177,-0.0473979336818463,0.109996925851529
AACTAGTGTCGTAATG-1,0.24323316112606,-0.849285307431292,-0.406055686528042,-0.981462004991179,-0.0602159819089735,-0.0199944493016727,0.0907125735667574,0.00497652123498989,-0.0902937762074425,0.218163925068099,-0.378596050728622,0.170878191592636,-0.352395559607476,-0.0617808462089742,-0.221901441960395,0.155685825359309,-0.20141820182533,0.232665123949199,-0.586228336032749,0.293471859272739,-0.568724749427461,-0.00662389887071421,-0.560189021173042,0.13377361413671,-0.648015110789897,0.313948599914817,0.0644828748192679,0.199216496692215,0.728126934080091,0.292537496413583,0.317840347144881,-0.519992474227945,-0.23423906313908,0.0822519014682398,0.0146855165752787,0.2065574495877,-0.150286920570465,0.110844880377454,-0.218317060909621,0.0535336007945689,0.350581221510441,-0.158469824503822,0.0286683515791112,-0.428746677378621,-0.075051920357032,0.08869043920385,0.483064171545272,0.31052641535404,-0.38787528939684,0.276835431411488
AACTAGTGTGTTGCTT-1,0.106238696050236,-0.88383338169533,-0.523500881506551,-0.965785557131107,-0.0397008199835269,-0.151289269500746,-0.016028592977735,0.103742200040713,0.306659835675665,-0.0542659736943898,0.0089455383702024,0.0801378716003699,0.093230290230171,0.288913928250262,-0.281577756074345,0.209590834610605,0.232322172279849,0.074703551034027,-0.407354068984175,0.31358104407577,-0.324168505837329,0.162188775228648,-0.591623491263972,0.0575689843080994,-0.637162574261042,0.415645211228364,0.163113910534817,0.172867361105179,0.457371765208006,0.106240733298175,0.347347970007407,-0.151914311184278,-0.175417233788,0.0883198849910072,0.169523282249992,0.132192313024437,-0.515339864411238,-0.0407904327481134,0.0525804573132755,0.263568540101433,0.293838304293736,-0.127148247476693,0.0813658990804175,-0.023832861934223,-0.045334732022378,-0.0151236741961499,0.278173315913968,0.175168750805749,-0.100300547162479,-0.219844918061236
AACTCACAGCTAATTG-1,-0.013658803955716,-0.892134432440355,-0.437284893003228,-0.928296429592545,-0.0422294903901751,-0.0324734557565077,0.0395389754815911,-0.0309763204451479,-0.232142401986243,-0.246055361374521,-0.0210760085937249,0.128492999105481,-0.127214996822993,-0.0975185900603956,-0.155602819997716,0.444183688343783,-0.0709442939601594,0.350544536231461,-0.189030505394027,0.287847920531467,-0.333635438899558,-0.0118249654841425,-0.406718651514432,-0.0970238780495045,-0.640377487257591,0.198483778178648,0.0850984904315657,0.0840170996322194,0.323032030931082,0.173379620713116,0.174720602979111,-0.263409513218928,-0.101978967804803,0.044548848977328,-0.146623254520926,0.0823782452369853,-0.0686792349988899,0.00468543084289876,-0.0317935368294926,0.270232200057968,0.278452748167757,0.206802074541874,0.0743099474161957,-0.0815220602242324,0.0142105940556692,-0.182981333801545,0.176914179024509,0.206990009109207,-0.141218733834022,-0.0880625007065084
AACTCACAGGAAGCAC-1,-0.398050148851408,1.36027655453226,-0.066374773248389,0.0424657514327133,0.0942219724141349,-2.69974453374166,0.552926437027835,2.79980290002165,-0.52186313083732,2.6887987767279,2.00770509101774,0.961839258813973,0.13402072372618,1.24592182226845,-0.0889283911104052,0.0360353673062954,0.687521951652297,0.73779217661791,0.685098988573887,-1.0191486592061,0.402107412381265,-1.12494484551259,-0.0585951938644594,-0.241050286921519,0.0209933784163963,-1.06295096484846,-0.0915103948790605,0.691671656330487,-0.334307775459559,-0.385193717715422,0.446234046533664,0.270423193597716,-0.407727126131796,1.10423234713676,-0.102463994115095,0.280091155709685,1.15800698846571,0.290674494585938,1.12684685410228,0.328508329467045,-0.351508559843826,-0.957782742195725,0.851212562009276,0.123006900627174,-0.4033175406109,0.144272317690128,0.034481771483783,0.702901800304641,-0.765397275186888,-1.24869791831725
AACTCACAGGGCTAAA-1,1.10910914385846,1.00433763586095,-0.290365222218267,-0.0518694091944679,0.176397361855022,0.515539778630458,-0.104502849457351,-0.26299677451096,0.191186120132234,-0.373988076064836,1.21241804187886,-0.211648231340326,-0.0479399907220874,0.512900325912874,0.41941018512408,0.825344160246489,-0.284126905217952,-0.0408644227205529,-0.0850119733318597,0.168241522952523,-0.16239830719105,-0.209829726133363,-0.256264892913698,-0.264366986900996,0.146815321737753,-0.462149362306564,0.424529585470329,0.370596869244007,-0.214440046987805,0.217226459300656,-0.545411254973584,-0.248696085214919,0.743858347832694,0.153268857478328,0.565160456484418,-0.0249994911494052,0.255223791744959,0.494894610039978,0.363889757573753,-0.454558393845935,0.0814376182298814,-0.550986063423588,-0.210927652646624,-0.080675344244416,-0.424341001708573,0.0697785886561553,0.694080430492226,-0.260519849780663,-0.304628259922016,-0.604788034831359
AACTGTTCAAGACTCC-1,-0.78449389530088,1.40892754975111,-0.457232956672821,-0.0863855986134856,0.424011185678535,1.30128262971294,-0.00277733221271682,-0.496418103905191,-0.30980015114484,0.136160829948046,0.802315363628076,0.118602431349193,0.0806029594316423,0.88421619151728,-0.148415452430409,0.162596538022551,0.819064224299099,0.77080693587165,0.0758472128290861,0.573060702252506,0.0804112320297468,-1.14139673831617,-0.0727010046063278,-0.302173508884822,0.381807132336916,-0.199108530569769,0.0359627060937794,0.949268901642157,0.135975871665603,0.63989237477632,-0.0754878931714924,0.522642469606779,0.178018758053819,0.453512571770107,-1.76354671144188,-0.163072921678752,0.237588829212517,-0.211194477506051,0.694670427740501,-0.490003644235959,0.624903684152918,-0.633871759772898,0.470431064670607,-0.0929669115196054,0.954290083262978,0.385923242630151,-0.708558290178589,-1.08027897020519,-0.063365504532823,-0.410681678157678
AACTGTTCAGCGCTTG-1,-0.660385902324195,-0.131318244599743,3.38340198926053,-0.267293714698647,1.27772425474775,0.210417657452429,-0.0406909703697052,-0.111629211338443,-0.547614032836404,0.787210471993703,-0.562455999459835,0.788536174129966,-0.448870925600877,-1.69528222319125,-1.28228372165404,-0.122106449800801,0.752882448123551,-0.147804098286954,-0.799080961559009,0.487596729988552,-0.180804685785654,-0.505766950381812,0.671834430280703,-0.276800721651848,-0.296439785896054,-0.189284518820614,0.524756065295647,0.692337597326283,-0.195661097900544,0.085113426572566,0.424000454782359,0.290174501501224,0.28034524748061,-0.252675437080479,0.00406006237311377,-0.676351715856167,0.297676453451858,0.113044166961133,0.368559395377028,0.333842559071228,0.316451117105867,0.129282544698799,0.200249122001718,-0.146037258320707,0.092667336956318,0.282115121664576,0.401899775889671,-0.312030044399563,0.00484557276525924,-0.0846242136419629
AACTTAGTCACTTCAT-1,0.48988504686581,-0.623872365442979,-0.153275485822747,3.15166039352358,-0.316198876975362,0.123970293858294,1.49607342929393,-0.217061671137797,-0.0310190547291904,0.245285258512124,-0.565452818866657,0.338071161226414,-0.37194302561971,-0.224308356170818,-0.503961992131601,0.146371757313492,0.278511273312336,0.301340588993834,-0.187542563651029,0.449695037513591,-0.293303824319173,0.0497104908719981,-0.222190899694382,0.211687648870693,-0.0192815584918623,0.407240536346287,0.22286996212701,0.448129838911333,0.059877430597824,0.117794148388582,-0.158139633353198,1.92661697027218e-05,-0.217227062819567,0.133174492944273,0.0750631115518611,0.131764064672211,-0.0395262954226857,0.0805623243848289,0.311115023838531,-0.110954884552492,0.355817829900257,0.0272749451144212,-0.123769296082773,0.156893202733603,0.0130880434313394,0.119457386407864,0.173749259129714,-0.382483976785485,-0.206028309501102,-0.101566382130859
AACTTAGTCCATAATG-1,-0.0643363079037821,-0.179792168730558,2.98120205560918,-0.325755451056689,1.158000557932,0.428675221651408,0.387800465038971,-0.0511386048201642,0.840444250317157,-0.905065311329968,0.935025804578419,-1.17138830520911,0.854250367224045,1.52828553451218,1.49395518231519,-0.0469099825341126,-0.534878905012361,0.153393436680885,0.830673266234389,-0.295003602338978,0.739104225295123,0.335425133962794,-0.271480574098794,-0.0627560969823726,0.715138893194545,0.90427336094827,-0.424751000142212,-0.618791337158195,0.0856733374865156,-0.148321035194872,-0.304141450582465,-0.0882221989939866,0.0851542300346247,0.156398201331148,-0.064028820929073,0.305706573626807,0.0927180611902838,0.37932327972038,-0.376939753312484,0.182916004101141,-0.553964067777572,0.182927749695031,-0.0731375646827335,-0.193570861792342,-0.0889536310070911,-0.344741698327369,0.0605983386861681,0.135470343841358,-0.295372645068511,-0.0215878549499373
AACTTAGTCGCGCTAA-1,1.23134142173465,-0.719021017744989,-0.237606302061864,-0.0966757577672925,0.295549675419012,-0.254714905218046,-1.21855315703858,0.13348721488678,0.228943829511992,-0.148002740996246,0.320963492696713,0.0517549696198241,0.0455933694100923,0.265685703740943,0.0403776380623455,0.194765059608422,0.088790176614265,0.253519006319442,-0.184642928690765,0.300957061089242,-0.541938307629657,-0.0237912903425557,-0.357027651708761,-0.155697544945175,-0.462686667018552,0.422725151754497,0.163557420256758,0.307655563342203,0.265892712108937,-0.0759797496935745,0.286900259149179,-0.101666145318018,-0.160436269267338,0.0633824272369675,0.160448182343302,0.0976844463065473,-0.0655706174991194,-0.0532075041550937,-0.0667643397597791,0.0499978991600438,0.185665588146124,0.0630630594686965,0.0298486571986853,0.178235275478427,0.10171225067303,0.0594083855235021,0.129002261008326,-0.00911299196903313,-0.0541684185725896,-0.158914958085946
AAGAACAGTATTCGTC-1,0.245824789217799,-0.240842291629757,2.64254739623894,-0.16293032545418,1.4416715252841,0.103624639570625,0.13184349918421,0.107125834670179,0.347899183216372,-0.634312012007634,0.844056481789241,-0.396271240055196,0.0806272134960112,1.12074411251678,0.75919375493452,-0.000607979351482063,-0.402353265636656,-0.0522499968743366,0.146811700559973,0.0187683988428559,0.68651800437522,0.230589220705266,-0.239869952555069,0.183161478885561,-0.0610459777796358,0.594228825028539,0.0628079606569463,-0.336730507835158,0.196261130302556,0.239505292575132,-0.040011446379689,0.0400290423132373,-0.0451533977207487,-0.180284116262326,-0.263398507148511,0.266325195860142,-0.180119772270845,-0.147469916209444,-0.573381347023332,-0.129988040195228,-0.310217414536097,0.19824430670075,0.0673568821810476,-0.244929146042918,-0.189990371040569,-0.178824181885932,0.129732751762523,0.217329950424693,-0.0384047116309174,-0.0201098848936752
AAGAATCAGGCTACAT-1,-0.378400493579976,-0.896535465313253,-0.407521612960571,-1.12784335184078,-0.392625499583744,0.184947991011196,1.39499879750953,-0.332405815563686,-0.152946214123735,0.558001868334498,-0.424642441968365,-0.244806338129129,-0.0839893992233998,-0.629248169050304,-0.0924973151765284,-0.44421954707154,-0.327659356153234,-0.469976857978696,0.0805946847750011,-0.450956635728708,0.347929920084154,-0.238239917002311,0.739910860065597,-0.0253754113224033,0.478764037892902,-0.651976966581718,-0.0315614180557277,-0.148926293736417,-0.388931577302811,0.10949724076604,-0.264799611544002,-0.0323718679148593,-0.0819869282998927,-0.438775806658342,0.0280104917799633,0.0900406622950507,0.27372676147037,0.0946426083715681,0.141589937786767,-0.216769518857671,-0.215607800491498,-0.290725611810058,0.299865623127642,-0.129758093827455,0.0268504311293206,0.0444112982813795,-0.144133726626919,-0.205620015433353,-0.115205711744789,0.0959569634523389
AAGACATAGTAAGGGC-1,-1.61722579942205,1.59845977887474,-0.339896975425307,-0.00161393362356774,-0.193395144748287,0.0511809076606441,-0.247235088921161,-1.1501809548645,-0.413835473326506,1.10259812770712,2.24203207107892,-0.579081847523586,-0.701936084996136,-2.80880357008709,-1.38171316806703,-0.752011824361424,-0.468677585680749,0.696707926488491,1.21708921355764,0.396662685902185,0.384323537289094,-0.324003726125978,-0.25465624191843,-0.00238950960821361,0.697648993276616,-0.0635367260837863,-1.0346919663924,-1.47853377925096,-0.214258199170744,-1.47796006084589,0.981819731061466,-0.061668325818798,0.361379062565741,-1.92138376484338,0.423982142658039,-0.184142304290325,-1.11289120546569,0.200608867647864,0.847416587080963,1.06418838045317,2.06648709835838,1.0666174234778,-0.167104645453387,-0.392181542867999,-0.214767230688459,0.738393482016464,1.42578464168507,-0.388009263493466,-0.200933845871062,2.06465951315892
AAGACCAAGAGAGGAG-1,0.456570018658277,-0.659543507150841,-0.183508595938587,2.90962550378614,-0.146108202080817,0.141606157697643,0.780257051351777,-0.0742713499072034,-0.194913542823775,-0.255703962277351,0.090007951164462,0.0793418754601405,-0.0929453227837686,-0.101987780555087,-0.281363757383519,-0.180208552578992,-0.155089408921064,0.00227134092347278,-0.0194729911822796,0.163764163536627,0.010121391955818,-0.0172713851913385,0.354646998554846,-0.211109772197669,-0.00420400879009269,-0.225464002208374,-0.337820319703857,0.0896014328342053,-0.24727069159006,-0.0502601083008458,-0.284434379603222,0.00180363431553871,-0.143623062105773,0.0279959051476789,-0.0389817595137162,-0.108131707637892,0.162864607545872,-0.105156238506512,0.519475621403101,-0.0423717142827689,0.0766966380369533,-0.214477309998432,-0.336616359022703,0.351391615263913,-0.256529199958506,-0.19287853965032,-0.403317373093981,-0.158581795843253,0.211460088707853,-0.0928621475808734
AAGCAAGTCGTTTCGC-1,-1.39029151794688,1.39428484823218,-0.422824064385945,-0.0599793363669376,0.459899659449373,1.50937917781213,0.0388940133338875,0.204384188857374,-2.14517586264664,-0.557414284503868,0.794593620279757,0.476841381574481,0.199560550472414,0.668287013862612,-0.882252167402052,0.39909968177008,-0.408288303809655,0.999446928843629,0.548551037742178,-0.22114849640374,-0.140333681774595,-0.613263013988098,0.745495406599803,-0.199757995960194,0.229598027378358,-0.126624488597702,0.852467073988025,-0.914536611586545,-0.461300844252775,-0.274926302277046,0.664882053003229,-0.15403126932246,0.228183139135412,-0.903023090327473,-0.350971179042335,-0.329255650269125,-1.20974923979817,-0.14861512637267,1.52102912610756,-0.487488830872977,0.194114939987365,0.36112330032787,0.0470178559072479,-0.312187928207174,0.0910955508874101,0.499299622044361,-0.688869065831698,-0.463908411059093,0.0751452431741063,0.501694618807697
AAGCCTCCACAATGCC-1,0.840695234077584,-0.765815036393651,-0.348219435662142,-0.734265595554334,0.0844632599001428,0.125728011269709,0.782685986137056,0.0765249872760263,0.0164376995412357,-0.421891559856219,0.346992435606996,-0.0394362816294788,-0.226114823500547,0.11211231361767,0.0367328053766263,0.134023623713487,-0.0113238806505634,0.123375056464275,-0.0617014929947814,0.12959454127509,0.0224733784250143,0.0768824534794294,-0.0281547231003589,-0.0647146272424598,0.12852718521862,-0.0166077637844539,0.0304288819138023,0.148148938250919,-0.260242852363216,-0.234713499130625,-0.136089468416825,0.00501796092476352,-0.0703461478591703,0.153656461409195,0.0807841140726882,-0.0553994526647979,0.0818900352548545,-0.0388864437904877,0.308099137864024,-0.208356728936883,0.0002791199222851,0.0630126932840204,-0.0383857723806254,0.123454197857487,0.0668780205435412,-0.064015692404629,-0.118966917217916,-0.0123699883606204,0.129123398292714,-0.140262325868579
AAGCCTCCACACTAAT-1,-0.0959070347836064,-0.888384158186694,-0.410321187988081,0.589943481029833,-0.0372123557395836,-0.433960679928229,-2.2807372410302,-0.0771443665536079,-0.105880027203769,0.884671641005347,-0.993273219540863,0.0799504587418113,-0.0821127110755019,-0.407253991933727,0.426206999573709,-0.652538109630656,-0.205298483758643,-0.618885305651854,0.253121297379112,-0.636559331378481,0.914558455810013,-0.00785012521177375,0.231906331523652,0.174175774537342,0.925106263449665,-0.0944693599077248,-0.359712470546547,-0.700728419875237,-0.269925579434062,-0.163504588573597,-0.267916207950937,0.391861704251199,0.305655001871122,-0.396881879657704,-0.156157169227417,-0.292120066859583,0.21768483379465,0.0137482635226863,-0.267463300640081,-0.0660199302241938,-0.44254121829163,-0.195624174866319,0.0942975138987763,-0.111974292842996,-0.0828981240325516,0.162422071975655,-0.128363023417651,0.0268275969203546,-0.136335169451401,-0.103366518614595
AAGCCTCCAGACAAAC-1,0.902990758983798,-0.695307003749366,-0.29477225269455,0.172166055922495,0.0608659972454923,-0.226650873087168,-1.65272505745403,0.0451174150519834,-0.0865362247975337,0.0274343849496065,-0.100376563163309,-0.170086489950713,-0.0547136674028632,-0.0394170225055062,0.0691771575501929,-0.111743627659588,-0.294407886233634,-0.139341724909804,-0.0176582677598186,-0.0984917126343688,0.303623831539587,0.019827163037527,0.0643365670784517,-0.2057332625373,0.36179944141583,0.0399564837666995,-0.0385456243722121,-0.121848792626934,-0.158237966895637,-0.137690922312893,0.0317233828020123,0.291011272873391,-0.0527903747002613,-0.138630823150968,-0.212415002208888,0.17619286244377,-0.101532933478897,0.0207252028142386,-0.0851369737302238,0.0180154696521949,-0.226686876074133,0.227960258679994,0.197697692656001,-0.162622434472309,-0.171975048108544,-0.205562910469228,-0.0272605015425208,0.104039909099239,-0.172157802301542,-0.0264517402917956
AAGCCTTAGGAATAAC-1,-0.425021712245417,1.19177376085455,-0.151292886797118,-0.0698048249497905,0.0551720514482967,-1.47758546358631,0.168830437592504,1.44929234888377,-0.736090032332066,-0.692530292616284,1.04733881833865,-0.476401632433428,0.494648318045451,-0.0408853284712669,-0.146473179485825,0.0129434301178566,-0.144725194537485,0.147204183794791,-0.800723272695808,0.563801145272312,-0.963735027270284,0.444681755431639,0.920865612563069,-0.223292358903503,-0.00880910371296253,0.380132593288076,-0.193526887723927,-0.13190522308837,0.478713814748001,-0.352151982475993,-0.609299525569659,-0.743864132507471,0.126263019635023,0.246682142985503,-0.801364111766855,-0.499894931055191,-0.596412196031337,-0.715414383212477,-0.593670498379604,0.0289787605941677,-0.637553410981916,-0.0819481972223766,0.562424989710816,-0.895094883462935,0.513329798668288,-0.515657830533493,0.481923673862236,0.0210955752079685,-0.10515693204409,0.187495977981839
AAGCCTTAGGCTAAGA-1,-2.9195419691742,1.78513487087857,-0.444230273274057,-0.172276376018042,0.141592138738087,2.82851597071342,0.0850875361876284,0.22644228007858,-3.84315846059894,0.683915389813355,-13.516886643303,1.45855642679865,-0.0491353655346506,2.74956709069422,14.5795717771559,-2.40494972701063,15.3624929336716,24.8531460464846,-5.54099848728074,5.22618217663995,8.22618049266957,12.9776392378247,2.32182166480188,4.98284851130731,1.18540845088363,-0.855864863796261,2.81544031950336,3.95838740773403,9.51017469119429,-3.55699193568124,1.48767009831829,1.39621588733839,-3.51909277849876,-4.90378130605881,4.64024181117361,-7.70992806483311,-0.914471258079721,-0.503269694178041,-0.10315513115204,1.29139731054946,-2.21578822150726,-3.52186426947845,0.361891576840293,2.25028809689145,-2.80782644286202,-0.282474710237698,-3.51186810627899,1.58207776200207,0.130263136974766,1.98883624797435
AAGCGAATCATGCCTC-1,-0.839248228145591,1.40954695073365,-0.223818333012927,-0.130366666339384,0.28962868251488,-1.35206525317493,0.429483671490137,2.20311851042385,0.155944686787338,0.166687406359533,-0.510529659844944,-0.381615568750095,0.0828301589734352,0.467011214350006,-0.812137442363854,-0.431694353509682,0.542585753032551,0.321008781381345,-0.157318162633951,-0.461163575782238,0.301230878736377,-0.202414086482059,0.667900308008514,0.547867430107077,-1.01525369505888,-0.180137825492083,0.71366957348338,0.0166097511010926,-0.384659127515106,-0.458506020391245,-0.709814564266393,-0.0526164809944421,0.410813707929118,0.407145584294086,-0.911885876552942,1.18587753053759,-0.267887844489963,0.142306923864815,-0.0745337019933555,0.695008525783876,-0.431616900373352,-0.96231309911522,-0.565507137211502,0.320213622892316,0.171434895005361,0.170253632464888,1.61881690715942,1.14418497030457,-0.311176115530462,-0.00544320267476614
AAGCGAGGTATCTGGA-1,-0.430516814630438,-0.0743277766356261,3.13281807159931,-0.179007505959595,1.17194576740418,0.0964001602098859,0.0116130540431082,0.193031579574825,-0.532150783999256,0.299903706581777,-0.184312959928043,0.34637243145702,-0.246317132557774,-1.11565308739515,-0.989264135441228,0.0567698762604206,0.259137552213114,0.0437572925400077,-1.14378087816938,0.966685709494649,-0.878332829807556,-0.0398821263789773,0.141663895174755,0.118415683906478,-0.325174120354776,-0.0659414070249361,0.23290610338857,1.31267739553738,-0.297864760325313,-0.132750240285387,0.655981810901374,-0.0260415068875272,0.0256222452501315,-0.465324700924805,1.01009730256194,0.22130336011759,0.131167303380111,-0.370869323419352,0.327294872183955,-0.171544556612559,-0.0350708142655983,0.0148248406326981,-0.696192420086287,-0.347218743468887,0.0774733306554155,0.13542141569656,0.321612496721198,-0.497289748713275,-0.435954423304165,0.0477460638067244
AAGCGAGGTCGACTCC-1,1.18996016616475,-0.691064864525361,-0.302011840395921,-0.00545607073108172,0.138580241983897,0.000470876135372913,-0.768466192280687,0.0625212116267135,-0.226120348353426,-0.313040587302915,0.0506572075195336,-0.0994111218237329,-0.00429728781614419,-0.000238609655182328,0.043211078202197,-0.108537730334699,0.078229153091437,0.0304102195652151,-0.0333810805966989,-0.236386527107204,0.0368686760105066,-0.0477703495379278,0.310261895968156,-0.0334198748330862,0.387147599624606,-0.244554093063716,0.107504696462632,0.0654261826198443,-0.20588060931123,-0.290226681825137,-0.179212296540921,0.0141166497924281,-0.131933590206748,0.103439145448165,0.326704534437291,-0.245160920679085,0.137180248743484,0.0212959047502904,0.191261701879534,-0.299905177348235,0.0648942515910651,0.0645130309149829,0.0182673106439172,-0.026948135459929,-0.194328638203095,-0.185334757307096,-0.0398454757635656,-0.00636179120147434,0.0205065120601795,0.0379377211731182
AAGCGAGGTTACCGGG-1,-0.54493121806854,-0.140575740560078,3.41960478435614,-0.191521144292147,1.34351688145937,0.26199450687457,-0.0353630762245847,-0.0508033317986623,-0.223410610008284,0.360648793618063,-0.390767602442077,0.611032744210818,-0.22480395925581,-0.852818754942808,-0.84099769014619,-0.432201135778802,0.229931397127216,-0.516620056663414,-0.481684153542897,0.291261399769776,-0.497497649477107,-0.166679011611843,0.435431928492318,0.0956557697196759,-0.0993622674800111,-0.556383764785067,0.25799158032586,0.355258969943393,-0.0614611782162288,-0.135605710683241,0.243347135585369,0.127631222526968,-0.0973168421794255,0.128362658452042,-0.0406013968102347,-0.431643502046098,-0.236875603910053,-0.49413997952417,0.202458313938116,-0.179358168309299,0.277150742436836,-0.0544597029645956,0.270677861441853,-0.0139210757530747,0.070040340186697,0.0515046025858381,0.173580661799383,-0.585829390766436,-0.398493637048263,0.00774555395451785
AAGCGAGGTTGCACGG-1,-1.60876870048852,1.87009246917857,-0.809234324536016,-0.152977792089786,0.811816311073791,2.32034342213095,-0.387974395468725,0.07309239336289,2.02810963149748,-0.0155800735831323,-1.59452925097921,1.19515020233754,0.137875311091029,1.20923830336857,-0.289701104342185,0.276521742693933,-0.32623083581066,-0.532627063310231,-0.141998908317061,-0.622544049822375,-0.219716661268178,-1.06950838912422,0.103040831896907,-0.0640502506743545,0.179832857039476,0.36017805800408,0.42353875846101,-0.11432365049054,-0.247471600248665,-0.380030949447845,0.0530798525732175,0.365351440169488,-0.128554788594936,0.171521459480047,-0.377312618115666,-0.0324757123406423,0.282877892051383,-0.317019628124451,0.192405572097868,-1.09953183554599,0.286482049354655,0.0498475134076984,-0.40072412204647,-1.05220104938705,0.178822217195887,-1.03373475307131,0.0281584050059968,0.363899608116432,-1.01275773061168,0.0735651830282779
AAGCGCTGTATTGCAG-1,0.433765946087501,-0.793716918684427,-0.264466057014842,-0.279471611788179,0.0466194690397171,-0.0472142684241767,-1.11773170812724,-0.0441126979111524,-0.438269375731575,0.0247245507168195,0.148424115974859,-0.151684731719707,-0.117328167571418,-0.0496704581877329,-0.144378985409154,0.235080346697038,-0.03613371088938,-0.0149364581222779,-0.0172547679221174,0.252681895939308,-0.149131585203275,0.0063582282460262,-0.356649631543841,-0.0400272726207908,-0.191578717214363,0.161880831144195,0.251048901909161,-0.0181484428890291,-0.112630872242264,0.160893692824488,0.0811180633245286,0.109715618332634,-0.274461546302592,0.0596879080802776,0.190090207802655,0.0604161508359801,-0.0472107244493586,0.135346425076875,-0.0789992589488017,0.136895519419587,0.0149703932674804,-0.0739460963230968,0.120843171180881,-0.0556193706442893,0.327966675734466,-0.0084156713790857,0.0607159377862535,0.284148663663682,-0.21702250387093,0.010631531021998
AAGCGTTTCATTGTCT-1,-1.0465099842343,-0.0229021713495984,3.84431121703182,-0.13794780627519,0.92160644047396,0.275750333415485,0.280540351156206,-0.684266159782544,-0.919781764882467,2.17117465693989,-1.63891089776912,1.09031852409058,-1.18053259377453,-2.92984520854239,-2.09179222282289,0.20072341400328,0.71507425638207,-0.799550282448008,-1.64984702814879,1.31927581103384,-1.39637258151152,-0.382965164264842,0.604252507243827,-0.244720232267044,-0.0723921228858641,-0.0172388097903431,0.637605591120642,1.38926444056888,0.300399775997719,-0.744132942295116,0.750220405921499,0.492646426241236,0.796779803962594,0.133892954600245,1.35045787066751,-0.431536157330928,-0.436912766509192,-1.12682480133144,0.215131255968644,0.697305029309585,-0.259771378084538,0.0944539862003608,0.0323299909774385,0.174949045245143,0.0883084942853338,-0.212470621970841,0.206310993680013,0.420732156814675,0.762112007998031,-0.738520256048951
AAGCGTTTCCTGATTT-1,-0.790827563397545,-0.190235141324152,3.43439368974823,-0.0333457818500883,1.66226796883873,0.231508849883551,-0.578280622092853,-0.0287985647887804,-0.588430293760519,0.822588625571752,-1.32065960632243,0.707155376280708,-0.0815965847077089,-1.25877527825576,-0.23974542277066,-0.0680986205905038,-0.021032365243511,-0.652980189284545,-0.10741928949585,-0.26908371348022,-0.105308763620308,-0.389039105402969,0.22927416240053,0.253668786843814,0.107481740846445,-1.28854209929931,-0.287232390659204,0.617417471033334,0.0126626944511334,-0.393928341301162,-0.311494588520523,0.637599770184385,0.505400486963248,-0.554156875726755,0.593370011620148,0.0147944561994995,0.0333271986322103,0.309508412560412,0.643699511187723,-0.656145701756897,0.39868777059653,-0.0938345337898098,-0.229288976712178,0.02428217842451,-0.250248487901232,-0.237733235791069,-0.264697424620442,-0.969318554888299,0.468411834423383,0.128171821309815
AAGCGTTTCGCACACA-1,-1.86826264524196,1.44183933760571,0.316845475923559,-0.0646572994022655,-1.52366588134128,-2.32584006657209,-0.109283579116826,-3.58184398192725,-0.419179291184075,-0.650152396678365,0.961817861337423,-0.664916039108148,-0.501320000279225,-2.69965664858893,0.459543395147152,-1.30755253116056,0.812787518598896,0.456099526253412,0.161456115567851,-0.919571031875714,1.02122679230682,1.94999581775007,0.131025886700165,0.855011457478989,-0.652691235615553,-1.32716393952408,-1.42933261848342,-0.186195149222605,-0.0465424478386306,1.32259601860107,-0.146006269487234,-1.68491685794644,-0.560908790192838,0.289593811284338,3.54005609341006,2.70578370138044,-1.12732067585942,0.198725242267806,-0.543421174378217,2.73358304821404,1.07491589136682,-1.18663246886609,0.460177568021651,1.52234383532231,0.137820690171759,-2.31893875314419,-0.784364173297239,0.197289832402112,2.59420895129,0.0408386525350952
AAGCTAGAGATGGACA-1,-0.812400642928499,-0.836408533813166,-0.248772183396007,-0.748766056574462,-0.385603439776555,-0.0681919588048307,-0.627171302337709,-0.184472040644299,-1.05906179581711,1.50732123272061,-1.12008795603596,0.581754793117709,-0.633633335268548,-1.24411014665989,-0.334434166837571,0.431325696875276,-0.460864358819842,0.148260564207847,-0.408130524617054,0.759857971098509,-0.798119278134559,0.359396577824006,-0.743102870173744,0.301799693655481,-0.690953395399706,0.512357427143447,-0.147353092411221,0.293185662723447,0.30102615711633,0.16806286877351,0.401346036200511,-0.569005538188492,-0.659643228464855,0.36086082083494,0.32469531384047,-0.0471041153858991,-0.682738943301469,-0.232703185276551,-0.637980780237371,-0.194705996309852,0.463020384415038,-0.255907914810585,0.269283647749786,-0.446045847845685,0.0961231605970605,0.606678956703209,0.223560321081224,0.858562422937745,-0.307967717112386,0.691083101809296
AAGCTATGTTACTTGC-1,0.267288402399022,-0.80039854626081,-0.380330640763697,0.183833596888844,0.0862282921412038,-0.191886237656116,-1.91166365429721,0.0824133954886533,-0.297064714681003,0.0442471260806752,-0.326744949811871,0.00638233343950939,-0.146825466947914,0.04154048270009,0.289594986277332,-0.157928165020576,-0.204202736998846,-0.170355280332201,0.388817685970569,-0.152408253063542,0.248451798453078,-0.132452477075594,0.280789868225778,0.0422604513240154,0.087029315081295,-0.117888220199258,-0.0770566351714124,-0.335279801533793,-0.362893768099459,-0.148543458442973,-0.0183344996298391,0.0545190920777924,-0.0043774562437812,-0.096087138807523,-0.0955434458891699,0.200753146411568,0.0399331330327381,-0.00092466174954083,-0.0137903480267337,-0.160025685871563,-0.118138241159656,0.111090660935123,0.245519218129335,0.066031287255814,-0.115853483795681,-0.0235436952238899,-0.0750531634053011,0.129677418743199,0.136733926827334,-0.0437201061419019
AAGCTATGTTTAACCC-1,-0.662414927813644,-0.17421517955177,3.49423973411897,-0.155933704833544,1.70959382867733,0.238163470522836,0.567594265167532,-0.245282550141529,-0.128540569761575,0.330462231506742,0.463629850482384,0.0861422885386746,-0.3619094016829,0.557955569540952,0.762375005553382,0.173863536752948,-0.266933918315177,0.162555685561047,0.555897028513903,-0.0816731949023639,0.581967488973164,0.231223467329203,-0.523957045986306,0.253577871811851,0.307372363492043,0.495357565087149,0.0839012490024318,-0.0458496959905718,0.315728896776512,-0.0349903024757097,0.0693869612722322,0.0595727942911593,-0.307543663681522,-0.489802134866349,-0.0738524983566248,0.377064309900309,-0.713644805063755,-0.201252984872033,-0.0341227142154496,-0.169459989846201,0.238409553784983,0.134485513983361,0.0721271222733452,0.0890678450429722,0.22373082397456,-0.503801488917214,-0.5765569534749,0.577562662716365,0.551252127910289,-0.123105973052032
AAGGATCCAGTCTAGC-1,0.351069998812354,-0.827245942701488,-0.465036494709527,-1.01322529889394,-0.0183157829290959,-0.0394233985665133,0.0783830170381144,0.0495092991502762,-0.146062052748209,0.0321191540053311,-0.210154344390992,0.159816641237327,-0.12662717580003,-0.209043680884112,-0.0849690185386701,0.400452979661655,-0.138213182798268,-0.00250171742411914,-0.281678211383544,0.369440412059528,-0.596526409392007,0.060424656130182,-0.411536088600873,0.00208378587295478,-0.546005766766154,0.343906968697514,-0.0361991811125569,0.201308055845166,0.38489041911602,-0.164607638728397,0.153645629423216,-0.398960030744446,-0.010278425204175,0.0620096706340277,0.13053868477587,0.18952319080973,-0.1346770953043,-0.0542067761521856,0.0058721583718284,0.164851506882035,0.401481357431801,0.072942895419812,-0.123329046214008,-0.119488767084649,-0.0509801684188695,-0.164076117547254,0.385235180702672,0.0362761740698644,-0.0320931703723427,-0.2234567280771
AAGGATGTCTCATCAT-1,1.24832960729323,-0.702838253505812,-0.363415536329956,-0.707714174017973,0.061111614399887,0.0276465910663493,0.152473948153689,0.0282168808829168,0.121896304056982,-0.493958763239855,0.368508928255554,0.0434158691347569,0.0983410654903275,0.404361664134775,-0.153495009771907,0.296341348353775,0.0210570546243999,0.264558044817848,-0.129314321757335,0.172664462731282,-0.582980865391721,0.0936267819505444,-0.355807915953127,-0.0448432610577543,-0.285502249038568,0.408307572353975,-0.00916190174827882,0.246073267866502,0.125086006618945,0.124616636208041,0.269765830973347,-0.171061504342706,-0.176146532045845,0.045443701982361,0.0315914560221581,-0.0733186005140867,-0.0313648526041715,0.0642161710728413,0.0230293737437278,0.14174992164846,0.0720049823231215,0.00205283526021165,0.235879038051615,-0.0135060641541428,-0.181415128867729,0.200929358213783,0.0401362190025543,-0.0841627297603564,-0.196904750197736,-0.0899855343717899
AAGGATTAGTAGCGCC-1,-1.19302690680245,1.52263737966573,-0.528378792809207,-0.0307123843486013,0.480686612679911,1.14075453043638,-0.193543555020523,-0.242252804328787,0.955694341017236,-0.183623867273169,-0.374091286605838,0.20647730697086,0.19300132622816,0.320310750644572,-0.246661305575558,-0.23599499193947,-0.142166206569784,-1.16433472119343,0.30181568680137,-0.304819975613503,-0.651342645262616,-0.0402313730057497,0.787009177036521,0.0505938404578683,-0.252611487429429,0.227829598723253,0.0610191492616325,0.572313974130832,-0.15607146919353,-0.215216189775725,-0.0534687423124419,0.982874508917629,0.249168033975928,-0.89025253494217,-0.593498802972572,-0.271195655719194,0.0572127371083913,0.680556919120831,-0.179585241035675,0.200017462566904,0.667706328583871,-0.440496661811286,-0.57479327897162,0.834307384148519,-0.0195387465034148,0.230883155380208,-0.157025605772919,0.973613940037336,0.222876340119269,0.50697548412184
AAGGCCCTCTTGATGA-1,-1.11378349300782,1.39932907831286,-0.350718815250087,0.0479075688326978,-0.12982157427,0.778725364158463,-0.311203949933036,-1.50007784908458,0.416770385474411,2.29539029281571,2.74635654413282,0.856269711278896,-0.384817954629342,-0.958700331341793,0.109099257636293,0.429389648761683,-0.285342281697849,0.216802165730264,0.141381123419205,-0.130141892983676,0.208669592298799,-1.34601163677021,-0.316119064681906,0.985297718152752,0.0956109774812004,0.0399940656648261,0.0339784066708405,-0.967556181526547,-0.140051754085631,0.248134328827266,-0.366684002110706,-0.29237039361025,-0.382024442301148,-0.693902085913198,-0.421729622801521,1.12977954240576,-0.494188672272904,-1.09293760587357,0.532965285724105,0.968204410893036,-0.141085423040982,-0.299613385465926,-0.255508115563424,-0.263332950946442,-0.738327780831022,0.611218374398178,-0.527626766290143,-1.8634011918553,1.43557857587252,-0.179525480742501
AAGGTATAGTAGCGGG-1,-0.0586689889271851,-0.907381731164366,-0.332792411069753,0.969928030400082,0.0682170788483397,-0.302061984268519,-0.852716359974229,0.0475917754047487,0.420153607517022,0.481571612748695,-0.765302666746719,0.276326684048077,-0.143296790143475,-0.498205666174645,-0.05437321120527,-0.156351543330846,0.153830831909139,-0.181799563052587,-0.146781137131814,-0.115992963892783,0.0428317412745845,0.00215157217936234,0.264444837616119,0.0146124514116732,0.163502994030823,-0.186975459101403,-0.177105309887133,-0.17743244935541,-0.212086688027718,0.0485876387141923,-0.343415632438856,0.162013194200062,-0.0880484923898272,0.258740478979216,-0.0579211138015777,-0.262947429269869,0.306401796948791,-0.0251386316402174,0.212367166044527,-0.463255249120919,0.189171299039432,-0.0902851489075718,-0.310590417690927,0.0440884824454851,-0.0159977340364451,0.0901257536180475,-0.291148857918073,-0.0812954571988941,-0.188352740263026,0.119418987698995
AAGGTCAAGAATGACG-1,0.609011346952104,-0.807089696721154,-0.465594747069873,-0.991813253044239,-0.0449828338390339,-0.0465692679712032,0.446486453013296,0.101160946798973,0.103659079867067,-0.0869965686760197,0.00186154083440209,0.421983725744056,-0.00523767274458362,-0.0779982495405349,-0.457600209400921,0.271922533947546,-0.0724095610986702,-0.0178705094006107,-0.0977153315249158,0.202295708451493,-0.515122658408211,-0.0242350563682704,-0.398343189114632,0.0377397280269253,-0.457036973143068,0.521830324484404,0.232310438530228,0.148094391715242,0.0865623995087912,-0.118046895743472,0.307212084043795,-0.190988854639942,-0.325380771335619,0.0281026708395558,-0.0806414830009444,0.16068507929349,-0.187130235938207,-0.0939635028575621,-0.294251169909219,-0.0837122737631403,0.222131550235028,0.0456839245929819,0.0112339988632913,0.0328558482271673,0.180480400223315,0.430143835024054,-0.0141763890203626,0.103317064926601,-0.180325953833681,0.167152192271581
AAGGTCAAGCACAGAA-1,0.237887109314028,-0.892610993241146,-0.504088115225001,-0.946894431992269,-0.181922187598165,0.0801351869702207,1.5408495596191,-0.0876407655579292,0.314419495763573,0.198960438445154,-0.462582817261133,0.0288977407607474,-0.0616941891639487,-0.222236859285884,-0.0411785100384639,-0.379323830798802,0.0200626501478945,-0.111709881915583,0.214935258659452,-0.694854843700289,0.347344904822214,-0.293502387383345,0.596167719766783,-0.124188701561459,0.662872720884137,-0.201557166918398,-0.179957528603373,-0.388197455773554,-0.297476563750399,-0.178178476679458,-0.258417642496191,0.226789459522721,0.0511632986164014,-0.128724711107431,0.188371861757175,-0.40919293503015,0.306926943926741,-0.186868969613408,0.327987560831984,-0.46045941894891,-0.132303399793087,-0.129586443038182,0.0368477314654784,0.229659120920121,-0.18927930075863,-0.143717963388129,-0.265618652950949,-0.172230236652259,0.0742585574591919,0.0794267476809023
AAGGTCAAGGTCCGTA-1,-0.552679350495958,1.35039060040127,-0.474902610647183,0.0143088517282034,0.506442581200349,1.64639395703138,-0.206118194727772,-0.190321211651735,0.911468397266284,0.475264845578941,-0.0729044167180535,1.10013431302227,0.11031038905826,0.91453201752447,0.210335629414736,0.838554778204057,-0.434712657534614,-0.166292076116165,-0.0611161881626315,-0.803751537868196,0.194101421339181,-0.375225080261774,-0.181603794566051,-0.0676397373380971,-0.282669964289532,0.200387747064605,-0.0478222018245502,0.132726386444209,-0.335650091729734,0.49593789289316,0.911115191657834,-0.927885499258698,0.0777878206593996,0.103081344146881,0.397363813757292,-0.629461044860028,0.262214811269098,-1.23607287096885,0.420568706707201,0.553086814716867,0.195004533926782,-0.355001615415572,-0.203476634386313,-0.0203393534924402,-0.275446599284362,0.167001862330852,0.312502146424845,0.629735014374879,0.622264706954948,-0.362933591552348
AAGTAGCCACGGTTTA-1,-0.861078024226621,1.3904480201603,-0.198879398340086,-0.0292936032579622,-0.0750566715002766,-0.581424331425444,-0.0336983006237453,-0.33458520300791,-0.144700350386806,-0.374044355171852,0.58520250443059,-0.777991987817907,-0.400578156151657,-0.716094594358229,-0.245707415469148,-0.10650127186193,0.222997058034117,-0.0156419010385773,0.588114958122975,0.542082425841067,-0.190093375238583,0.172713038174951,-0.264841210443148,-0.0952324727859626,-0.0482671239599167,0.652374500355902,-0.0771289394814524,0.0169802532925171,-0.0999737288201663,-0.47955230299496,0.0202468790622614,-0.0535202092319562,0.190332056642259,0.0845941138484617,0.383630170593985,-0.193514536682587,-0.144192564526262,-0.484938630477169,-0.653458121158163,-0.0269072390364712,0.093183942771402,0.9041059115006,-0.310748940852844,0.522822659278224,0.0611077677341871,-0.199377756618871,0.253321592667812,-0.60230643389524,0.689361191740324,-0.48431345112311
AAGTAGCCAGTTTGGC-1,0.419913858128717,-0.778253734699775,-0.302648519427538,-0.47719272197877,0.0631376884550393,-0.0809562552943491,-0.917289002319862,-0.0851952781857077,-0.363537602522532,0.0623425189816372,-0.176458870293968,-0.0409079883002396,-0.0445153099719359,0.0405324585298355,-0.276377246428189,0.252781357820003,-0.0912525233730823,0.210200277658435,-0.0744051692033687,0.472828756790406,-0.606011858794246,0.337956424956897,-0.386213473632264,-0.118331386269006,-0.616108859865668,0.340114415295993,0.116173716186022,0.465494029289141,0.141910602477904,0.0282075972579792,0.272370215566539,-0.345527124628883,-0.0561118972583522,0.226297336325419,0.0166273709415295,0.05771264592568,-0.410508826999926,0.140827046538776,-0.0953964092189077,0.205922473820035,0.120382496975171,0.165256394716733,-0.154900374029152,-0.168839871453627,-0.157330230610093,-0.115715929260412,0.408959362347495,0.0145316369258371,-0.104726928359131,0.0927145336633969
AAGTGTTGTGCTCCGT-1,0.0169290662312794,-0.810343157967437,-0.321218134550797,-0.027801963086331,0.127518382671953,-0.191716061512695,-2.18970799274645,0.108203395307883,-0.635192602541613,-0.0373236237144997,0.118119561783945,-0.0196135143313147,-0.00768347882554452,0.141036056028844,0.0819522186787405,-0.0939735916090494,-0.00705377841671276,0.0504603058715977,0.071376030177807,0.00491440760252444,-0.176243065916761,0.122695495287699,-0.144270818154731,0.0456307450715282,-0.0276104994128617,0.406542299145753,0.0881044298283796,-0.0565598867141452,-0.223780998420363,0.12451835976606,0.241126522094665,-0.11102940881408,-0.315844447066128,0.302410791579825,0.039577874292805,0.189798833983237,-0.259098340094208,0.0331727716538984,-0.105943428113218,0.0304166145029595,-0.0405152479916631,0.230256005366856,0.030785994698751,-0.0496785010643331,0.00806349116925284,-0.00467657221424373,0.0515063947050553,0.117205051872323,-0.147608326041726,-0.0651864116382625
AAGTGTTGTTGAGGTC-1,-2.32926253167095,1.34410529102135,1.05634847755281,-0.0648537601010099,-2.59668296147663,-4.21802147730081,-0.358422532236056,-4.25163604340148,0.659491172224186,-1.92290653007879,-0.709105433050909,0.898711224671438,0.320423816481058,1.57883096225511,0.634961955041511,-0.463223993556561,1.02426954691786,-0.827529318633692,-0.403297962140679,-2.08290471382106,-0.151698038025284,-1.07896126991828,-0.885453521040831,-0.71507629389093,0.556926043873759,-0.126925493747881,0.407481852208884,1.4764058449745,-0.213326650928512,-0.516241568748975,0.85110533159917,-0.78094609072133,0.178643210523309,2.4272721418385,0.787424989434633,-0.352613911938976,1.45392081494373,-0.196513892268723,1.6478787033085,1.20209697250885,0.354420585272581,0.599354028583476,1.05736775252697,0.229545220323251,0.670882628808211,0.291960235460644,-0.390937022932385,0.0161464368457999,-0.0980727989994571,0.348700620740816
AAGTGTTGTTTCGCCA-1,1.38779172091252,-0.656233450042428,-0.278865459008087,-0.0806570485652117,0.154137286060736,-0.214506658638867,-1.45810190035263,0.0449742481056467,-0.0587541340739601,-0.0560971142338369,0.0533137202124363,-0.25433452071622,0.00964611536001905,0.249610053705383,0.291696010444555,0.0822270936602947,0.143409935886908,0.167427567020067,0.187558215815023,0.0289106008320767,0.0509675959897773,0.041432144802648,-0.272509287785764,0.11464895116094,0.140463040512709,0.266362280602888,0.0465990549275153,0.0405489981042883,-0.0286959988816869,0.121638772899297,0.126800841955222,0.00266518812105708,-0.091133355415387,0.0399810292667518,-0.0516262847548973,0.106128037822214,-0.218107168970887,-0.0428636258045618,-0.148360836685132,0.341493019639416,-0.0939692296253519,0.144184974448557,-0.0607974717526708,-0.23539080706676,-0.0499433406275653,0.118494503066353,0.0150465826577725,0.00564479163098681,-0.0194550444144824,-0.0460575228037209
AAGTGTTGTTTGCAGA-1,-0.905517617622416,1.29698478201165,-0.377833256035498,-0.0312536792784089,0.300951734936326,0.811731531575368,-0.220279818241728,0.306112569182194,-0.909729258288984,-1.24594369427779,0.543854211911995,-0.656555092439658,-0.255935074249887,0.310883007596224,-0.479726525172326,-0.542014960495658,0.0233411989049721,0.225336842402382,-0.353841544221345,0.454281372952529,-0.258304449853787,-0.496741476283336,-0.465414128127619,-0.189119299824411,-0.187643576704887,-0.161769816215713,0.0174867654141328,0.960941911935359,0.522117427830769,-0.699438779547986,0.372779596335484,-1.05575534991252,-0.499327214146308,-0.280133469502629,0.289575718302106,-0.287697950398649,-0.249601617139342,-1.04445320737521,-0.203431716625187,-0.241469699183202,-0.596847927026942,1.2566803718143,-0.135943477797064,0.117493505109078,0.736692562429973,1.20903760839398,-0.22578646186674,-0.0321925979674754,-0.332051928769032,0.259126869114376
AAGTTACGTAGCTAGC-1,1.42428891155025,-0.673861554742178,-0.367766052401371,-0.423640258352596,0.177550528596995,-0.0199484241455087,-0.439115101896453,0.236778445468579,-0.00522184999215376,-0.573770503601662,0.515112789926723,0.0205753738409805,-0.0625742619960542,0.241285801469655,-0.0062075258197993,0.401925414182756,0.0564363476034642,0.164429097944947,-0.232026434224804,0.391447308476692,-0.279652364338874,0.0110384594314484,-0.226106943667504,-0.115206503111864,-0.520963695271983,0.019930634854336,0.102683118025962,0.209398958711216,0.177369253689117,0.0469436566623992,0.204299192396604,-0.179063811852169,-0.0759122713161921,0.117860526748104,-0.0697415179837747,0.150615458983517,-0.172862613565666,-0.0162059476379893,0.0801788012356772,0.0545717593064283,0.201852932646392,-0.0398088880609835,0.0178746012813057,-0.144594865344628,0.129403834428961,-0.211030460242454,0.225114790707387,-0.0980007429933568,0.188909829843446,0.00281839692055764
AAGTTAGCACTAAGAA-1,0.279653004862593,-0.835816847806234,-0.389238446645285,-0.826455791532499,-0.160298142993715,0.0618491951336115,1.03871395774547,-0.289984715727377,-0.226075813506803,0.118941726708266,0.169325428713658,-0.115653994795659,-0.0771688667624515,-0.204136736180849,0.0384714794631154,-0.288020118617805,0.0808084452005197,-0.0436147478354079,0.259229005136418,-0.19995434221807,0.140947460434613,0.0211291524275361,0.231904042672332,-0.0374031376564966,0.337101870849511,-0.200514184180797,-0.1122899648012,-0.35686721815915,-0.281283820069028,0.0368797302390389,-0.313122307727673,0.160842441717803,0.414521761359719,-0.193543077289043,-0.0366046349155277,-0.046698791597917,0.110631869634751,0.0977719389889277,0.0820242394517047,0.188553393418261,-0.137732307913708,-0.175320527956757,0.00167921396214408,-0.0371868160995908,0.0146996784396603,-0.120777898371985,-0.242915972371458,-0.00530617293555581,0.0263417031120576,-0.087893979244323
AAGTTTGTCAAGGACA-1,0.238082984719461,-0.813067365842803,-0.297778348234086,-0.147816981394364,0.166074819835738,-0.121393898230923,-1.61009067541331,0.196936688870249,-0.258544757711411,-0.0983293662421915,0.280602429196967,0.172227273865262,-0.0788342350533869,0.125144192119128,0.0188018541504253,0.0387147728085078,-0.0452312873143782,0.0495892621656337,-0.0591999454833641,0.324373235964608,-0.0915412460460687,0.184100757296617,-0.274536353247872,0.09734557877705,-0.288557929011255,0.0439172015851887,0.218780976666882,0.437843282746804,0.121934348826623,0.232637354790716,0.342277799250882,-0.0409915969534655,-0.120949254600516,0.105506111479772,0.106855623281938,0.162064417509557,-0.346249149026799,0.13263922928354,-0.179721676116025,0.18583539045984,0.204076486849044,0.412479353295531,0.177786319231666,-0.260966654392703,0.163208436521036,-0.0335039722870079,0.128687292921449,0.317407116522806,0.00597422976697088,-0.241079995008375
AAGTTTGTCCAATTAG-1,0.00593739166814747,-0.865563924454031,-0.378307189418683,-0.974550557569124,-0.321167434960766,0.237194639357493,1.16614831578755,-0.15521815307201,-0.126373980844884,0.112289929108955,0.166633565487341,-0.162260948653004,0.136570737974195,-0.186481121273402,0.0880572996103126,-0.152923750664918,0.177063757156629,-0.00144081153855245,0.249352782104457,-0.331869715787654,0.190118568810501,-0.144763484281492,0.664407430327247,0.00374786729555539,0.366292927560612,-0.252581224603178,-0.127301938364105,-0.0597752465404574,-0.0990068828162015,-0.128490582132789,-0.135131070959615,0.181041493959713,-0.0683439099713085,-0.0932270595115001,-0.00482559437061302,0.0666638535318989,0.104347978634534,-0.0911816737890692,0.244906738107234,-0.135725142141237,0.139012563290847,-0.22010384051952,0.00703527436859941,0.0270639437514924,-0.157488251569293,0.0303823121263201,-0.033071646202075,-0.469004878436252,-0.0381789767823628,-0.138503422667
AAGTTTGTCTAAGTGC-1,0.649150701498231,-0.686979800233753,-0.273145306379479,2.66892681486561,-0.10467093217374,0.00537985917505085,0.417660287176368,0.0193794085088096,0.0635900235547568,-0.124116393225646,-0.203958791074242,0.300808396224942,-0.222835121783244,0.00666182819196024,-0.198717003143494,-0.0249945574361174,0.127505252855085,-0.22565234474848,-0.0154980857133998,-0.00798184809300236,0.0483768690447529,-0.168419811384849,0.246403222088359,0.0859679129019884,0.152816775015155,-0.236333743471683,-0.354083052769527,0.0182386674672147,-0.194615531773497,-0.25338495921954,-0.389183374861736,0.254370858266093,0.186080889807102,0.127285950263681,-0.0140938718007396,-0.398341892730251,0.368849270526356,0.135420624360375,0.184857559801173,-0.353111184224567,0.024243273547812,-0.203742225034912,-0.599771054921683,0.397930281934372,-0.162421189878275,-0.0810325524821605,-0.270939611807237,-0.0230841393350521,-0.0531008851700636,0.0720970599924624
AATAGAGGTATTCGTC-1,0.134332531062145,-0.8471917210214,-0.459803704011833,-1.0051147225565,-0.120316532410867,-0.0088497639432515,-0.272517799848246,0.045118012560761,-0.203852627098148,-0.0086570755923775,-0.217572259973331,-0.0337733340025455,-0.28394378266156,-0.113077354088176,-0.134580074751832,0.142264034418111,0.0846852119146671,-0.251936563663631,-0.19822320473738,0.252023656581126,-0.393471701150953,0.00572330796381946,-0.589686400912539,-0.408877524168857,-0.459336919380353,0.206543402602309,0.0606756945025466,0.243216514130348,0.271079892516942,0.0549639456154683,0.254541934548904,-0.178126085146082,-0.0470677368648316,0.0469142217175317,-0.150038837879478,0.523552100643183,-0.281320106756899,-0.0312420041935094,-0.0901906127063145,0.215551068874327,0.347910104921104,0.049477107201495,0.182654850064817,-0.110926562993882,0.0139061106780197,0.262286556095314,0.347472305811446,0.367483311009935,-0.197277967805569,-0.0324825502001647
AATAGAGGTGAGGTAG-1,-0.0695199818784055,1.48966123104442,-0.533888063156904,0.0567173613114582,0.531584448133013,1.17924762544338,-0.308269210628893,-0.237151223813986,1.54591515228715,-0.409025799946608,-0.942911242911305,0.489337511203114,-0.0642043519886951,0.0432954251274267,-0.0347810444215606,-0.427144458941279,-0.263802086034347,-0.368388392224346,0.136274164470076,0.0703871968415404,-0.986424800020261,-0.38998546815219,-0.0256038907610581,0.670683119153797,0.557223475184514,-0.729718822361364,-0.77868507263328,0.711143046691218,-0.843244694806547,-0.829421213421958,-0.691099571637962,-1.1668155840963,0.0501001129481358,0.0604564995016615,-0.718597873225331,0.161627274506675,0.278542299570649,-1.07467186506437,-0.999633016355039,-1.21809703759736,-1.41245754127555,0.00935189409353307,0.00149432547747476,0.111310366945348,0.564296236950104,-0.31618002660837,-1.00995850598349,-0.0406154409139518,0.635038844824124,0.551947863298388
AATCAGGAGCGAAGTA-1,0.0865079161020959,-0.825801426326639,-0.382874236864688,-0.771790733436909,-0.126903140031834,0.117175200554657,0.754038513888025,-0.0509461637437538,-0.194991409091684,-0.15308067014687,0.0284935368712015,0.0480816013108211,-0.0396031819065315,0.0263204416763274,-0.00480063862911732,-0.277945471764632,-0.0419291832277753,0.0532880955991928,0.0666188191800107,-0.237702080929517,0.331161422449577,0.1016227156772,0.148311868233234,-0.186210516760218,0.270814874148038,-0.359506665743916,-0.0180439431405056,0.0923549141543402,-0.436525553080997,0.0524826292719978,-0.130365798698292,0.0244327224132432,0.166254576548525,-0.217508975876337,0.133500407780834,-0.0970676696463345,0.0440979158408285,-0.0324938163905656,-0.0152591207180556,0.113171593578405,0.0434054627402662,-0.26524737047114,-0.116315823194971,-0.417129293892925,-0.167361831656332,-0.101925481152254,-0.178776040068668,-0.29219840556329,0.258106653912317,0.176359150700547
AATCATCCAATCCTGA-1,-0.412723851836543,0.309570642113798,-0.333505766501662,0.425529134237147,0.0319923795891798,0.886663268814117,0.708908791164723,-0.124666974137819,-0.637831145450765,0.68257571979572,-0.242740252080403,0.112655832418652,-0.518639435579733,0.232481152056382,0.59220011336669,-0.550893803987724,0.0810179070268944,-0.259341329965827,0.575597071075895,-0.577409056665187,-0.285991209282593,-0.205734645842331,0.892357132032909,-0.36549220050345,0.579505967606964,0.113857368562688,0.260429702153085,-0.958579373567756,-0.675286328262409,0.802045881252963,-0.754669919598378,0.679122353093612,0.745878537097412,-0.442508893748459,-0.137402621114822,-0.348698648244821,-0.380412275962731,0.0195190014696362,-0.309361645767533,-0.420761057536273,0.0397999965317239,-0.219601658484008,-0.231546022007502,0.28003992539489,0.862133789201261,0.126348930646872,-0.509120050583732,-0.605522900294199,-0.305060384302402,-0.219961334053623
AATCATGTCATTACTC-1,-0.0325875243700586,-0.889605228685575,-0.368912018815637,-0.954758420106731,-0.268596481924089,0.239643890518168,1.62994056604484,-0.180914252527029,0.040228627252836,-0.0093423865809129,-0.164369841694785,-0.0466676612054779,-0.0484387008487433,-0.235405024327033,-0.0349001355494448,-0.415232328040172,-0.158160587117396,-0.302076109621943,0.4151867970597,-0.587090534051338,0.497644020946401,0.0109898225865347,0.285089775566997,0.164699723725271,0.416655900518354,-0.524546626713926,0.0526238648575083,-0.190920108617962,-0.244534509438774,-0.165823760861383,-0.304941081433676,0.209581172717663,0.210775160784367,-0.0651436670764643,-0.0761455137189587,-0.278334147215795,0.514780947327302,-0.0077902953920658,0.201897250632412,-0.464365065091633,-0.101554185969911,-0.107566676010765,-0.255118574786773,-0.120454286040742,-0.0687727373723299,0.0204248707832056,-0.165484567704624,-0.339754893220823,0.169480501779767,-0.0200472924762368
AATCCATCACCTCAGG-1,0.455948091945791,-0.265025556827564,2.79415145904522,-0.220149531406546,1.35081952013585,0.145476732748257,0.339919533909503,0.173519039488182,1.4223590203758,-0.742198198426394,0.881057733008918,-0.944822977455733,0.355467134128172,1.36496021459808,1.24253011363834,0.221254881734585,-0.597311572643179,0.200853453338692,0.578563971773667,0.0465145081310638,0.658753750646864,0.179546641349826,-0.330124488123992,0.100862529967351,-0.0668163280272411,0.518396986015608,-0.208946496560985,-0.721917656494813,0.00421462411604604,-0.0756201790687764,-0.281099971372171,-0.00941449563153057,-0.0349976291318613,0.00246614864593331,-0.283593936768638,0.287344720840812,-0.1555377910163,0.22784460092646,-0.690448960402879,-0.156279181854809,-0.225507473021282,-0.0449811988960107,-0.23472253335129,0.3795546633208,-0.17317433150278,-0.246695799795756,-0.0213693333610132,0.0228759638565817,0.287075841392627,0.10726636676798
AATCCCTGTTAGCCAA-1,-0.00848628320743755,-0.987597607007852,-0.48850936168429,-0.96217305811077,-0.248782462922962,0.00742437841300293,1.42479322338612,-0.103586097446508,0.663770374368699,0.444364436648161,-0.605368601369713,0.206627456723802,0.0423123027645016,-0.30115273673988,-0.0840586015712788,-0.305104417106638,-0.0974370749296753,-0.158321027122548,0.192340828748817,-0.490163857083956,0.413606041110732,-0.172437335495831,0.446391109083805,-0.0242844115861274,0.650564369248057,-0.527690963625403,-0.244952658542366,-0.172850267296018,-0.208845870485676,-0.17485146138676,-0.476870594138474,0.301690740818916,0.106547476891701,0.146693179860298,0.0984841629905413,-0.159475558091058,0.313784748869071,0.108104933762046,-0.0530671188529969,-0.483528288758909,0.091036145117548,-0.373573215813938,-0.311537827880621,0.248740393007295,0.174907679358723,0.148696424054685,-0.366126388254725,-0.233472363184043,0.200866787016511,0.0653495977177993
AATCCTAAGATGGAGC-1,-0.263305614973247,1.16442959635464,-0.334690124594837,0.0258141184266209,0.385144516424106,1.50923434684947,0.129694005149283,0.0960924313492652,-2.51255966378265,-1.39505724752933,0.250750081399896,0.313463838650467,0.385840424601449,-0.634129881751779,-1.18297685831528,-0.668678902662277,-0.22783621798941,-0.784032063786324,0.262509374154369,0.525589719325477,0.253810857665183,-0.175061136672429,0.428282519861452,-0.344016782543004,1.40604784511545,-0.01502891639899,0.303362564054947,-0.393730148581388,-0.703184679215294,-0.780893503273815,-0.468718630870448,0.363774807324509,-0.294973353796633,0.750022336932319,1.09069259448278,-0.110717526558757,-0.252214298221807,-1.87447336386666,0.990216693394145,-0.460651870675593,-0.805947398342884,0.207530716888351,0.24843442885489,-0.621707484269967,-0.0957374827937848,-1.24032553690296,0.358946833335697,-1.20707907257399,-0.197298347308325,-0.92145918196265
AATCCTAAGCGGGCAA-1,-0.498644026873029,1.39934012856451,-0.47458772484341,-0.0587177855407969,0.520786071644022,1.25570770596173,0.0486757672989776,-0.27050805208148,0.125339694595365,-0.351266908732292,1.27229861491309,0.826449104186055,0.0712573758519695,0.806270790318562,-0.176856517470154,1.1687655966165,-0.039516973465745,0.240383592842806,0.429698957383268,0.146982688099829,0.381344015648823,-0.77393398635377,0.430170182804784,0.444023639079444,0.317759121879403,-0.771090854507669,-0.0617322187526448,0.501088354302267,-0.376530616254723,-0.443002250925451,0.186433174908654,0.100015868058301,-0.230858167763177,-0.505212093334432,-0.303459922391192,-0.896797943290818,0.542932779744475,-0.582581754160903,0.321797222861221,-0.105557631971257,-0.836315915367551,-0.159597544028663,0.454394691417467,0.486862761636736,0.528109702465463,-0.428051844446341,0.2816284894899,0.287164216773265,0.00960328533959805,0.067443739656493
