,CC_1,CC_2,CC_3,CC_4,CC_5,CC_6,CC_7,CC_8,CC_9,CC_10,CC_11,CC_12,CC_13,CC_14,CC_15,CC_16,CC_17,CC_18,CC_19,CC_20
AAACAGCCAAATATCC-1_1,0.0146040398894684,0.0281539765051238,0.0644468143717362,0.0177306446627281,0.00592488390825018,0.0031742763222642,0.0418325018006368,0.00648095427961984,0.00973628404719689,0.00287418725255161,0.000949081746236456,0.0252713267071712,0.000832812058916903,0.0237446966402221,0.0278409319134553,0.0253404347574084,0.0120522106577218,0.0307753220751506,0.0001545398719391,0.00325560805439149
AAACAGCCAGGAACTG-1_1,-0.0246296286554044,-0.00442017940041449,-0.00368319256490976,0.00677481359228597,-0.0182359736281751,-0.0300573002470778,0.000132426032109627,0.0168104209579216,0.0286403932021584,-0.0125888009403858,0.0207349158229892,-0.000512123018029975,-0.00215564196856859,0.00641061391955755,0.00764028653944825,-0.0110035408174487,-0.0182230186640076,-0.00376007125311205,0.0135351386070741,0.00240366258418932
AAACAGCCAGGCTTCG-1_1,-0.0270382050643945,0.00981783347734198,-0.00380529043180629,-0.00521593703274186,0.0322698823838295,0.0250942271060404,-0.0166485462872823,-0.00636773955289907,-0.020148789669331,0.00638917975217608,-0.00587482270632112,-0.0146083816954211,-0.00295098404734857,0.000250372472104446,0.0082218796066231,-0.0125343791669434,0.000285015205318545,0.0031253758242304,-0.0225427360115017,0.00391974190016047
AAACCAACACCTGCTC-1_1,0.00477849862841662,-0.0442283371048719,0.0158307153633524,-0.0028052290304828,0.00113834850987923,0.00871466494743629,-0.00844379165922767,0.00717752748942257,0.0102523261106628,-0.00435005342978456,0.00300520186715186,0.0235021194819625,0.0189605211739166,-0.0215494109214701,-0.0294908694615178,-0.040833468715614,-0.00465333767617305,-0.0140803093973175,0.0175731751267964,-0.0133836050940571
AAACCAACAGATTCAT-1_1,0.0155843201761358,0.0260222473501738,0.0436018298516549,0.0109276888091595,-0.00320523873829742,0.00807040977193146,-0.014612030004595,-0.00807231201569016,0.02648991461963,-0.00123139328344147,-0.00776486025425315,0.0154160910233807,0.0188517144513926,0.00454537155345971,0.0145215006659553,-0.020106924713972,0.0170863145395648,-0.0105404276416275,-0.00679634034563181,0.00427519711931998
AAACCAACAGTTGCGT-1_1,0.0166454970685542,0.00143378701020942,-0.0115705915860576,0.00943705094554395,-0.0039775103218008,-0.00136468257313378,0.0197690585950375,-0.00877263032837331,0.00678480316532862,0.0125492605887588,-0.000672586004217564,-0.022580703183485,0.0178028254672395,-0.00276794479874099,0.00482820379153322,0.00708880441217357,-0.0266385336392902,0.0180902866772637,-0.0164167022967618,0.012765132158953
AAACCAACATAACGGG-1_1,0.0124506676049103,0.00861774595779142,-0.00189030064173598,-0.0407946445775904,-0.010826480094304,-0.0122551911868151,0.00275184211503497,-0.00152083479509608,0.0124235737930629,0.0167552172835787,-0.0251470466767776,0.0653962850482776,-0.0136453828339728,0.0648161403954389,0.019819597619669,-0.0487332084304194,-0.019810976403466,-0.054751018961105,0.00772862968644269,-0.0138155379260262
AAACCAACATAGACCC-1_1,-0.0272854454040731,0.0121525185788294,-0.00357296918303844,0.0113605574250568,0.0347497072748498,0.00196393948089461,0.00701285498116732,-0.00300809010041342,0.0123761013761548,0.0330545974382693,-0.00123540290094847,-0.0319743266216863,-0.0325385098842535,0.0413466346607582,-0.0417805532716843,0.0134003842641544,-0.00125418368041993,0.0167688775768709,0.0202576450557044,-0.0193565756746903
AAACCGCGTGAGGTAG-1_1,0.00442666763330731,-0.0735310781180866,0.0234626689025934,-0.00371586161764706,0.00577035516096931,0.024818938132587,0.0100190028114678,0.0037162074677365,-0.0044374353140459,0.00410544070232893,-0.0152098746730365,0.00936300587465387,0.00828489760100321,0.0185804161261744,-0.0238796445371316,-0.00665769514105032,-0.00679132260075042,0.00351855325745539,0.00311410317631539,-0.0273145376138362
AAACGCGCATACCCGG-1_1,-0.0143553510502135,0.00304893142292294,0.00304571912580401,0.00860089856634287,-0.0312213009813815,-0.00498342118053339,-0.0210706205815481,-0.00997318093147428,-0.00117288609757936,-0.0066103419654393,0.0103448876178883,0.0201564245872694,0.0271558043180129,-0.0125750620099998,0.0369380219953597,0.0202079162611721,-0.0142468044331946,-0.00874389875702794,-0.0339757756798862,-0.00941813668788386
AAACGTACAAATACCT-1_1,0.0126129814207846,0.0142715744507305,0.0291410202099526,-0.00478215300514521,0.00328410739816028,-0.00154901218626076,-0.0478495369357797,-0.0317055084268899,-0.0108164868541097,-0.00115332665245686,0.0385883327290927,0.00544549680764793,0.00495622703699936,-0.0396608444745747,0.000837443242598354,0.0105476699119787,0.0191191069964018,-0.0297617731847505,-0.0235167305195279,0.0252726920373539
AAAGCACCACCCACCT-1_1,0.0106955383269365,0.00407342518210003,0.0189007684562165,-0.0139450492033964,0.00580757390769836,-0.00432310135055323,-0.016244352633091,-0.01911665642046,-0.00388992059020463,-0.00579322037563338,0.0609434881409472,0.0222265364698216,-0.0215508478012456,0.0045052789425315,0.0366012973934767,-0.027604162067977,-0.00270958910957788,0.0353425578497387,0.0108237949138686,0.00567475855809972
AAAGCTTGTGTGTGGT-1_1,-0.0287823663138883,0.0139371079213561,-0.00632610389968247,-0.00143052211993746,0.0214906187551636,0.00573691795351001,-0.0138419307815007,0.0159007169981073,0.00664560152994008,0.0472333812833239,-0.0186750695333665,0.00593835661149453,-0.0162364345061826,0.00514590641792221,-0.0125467928659166,0.00580111045914359,0.0125171047217458,-0.00665618580008717,-0.0125322487370912,-0.0141381188515221
AAAGGACGTATTGTGG-1_1,0.0108338124847085,0.0276504730468805,0.0575174398299258,0.0204361442532223,0.017189897515844,0.000417419227973399,0.0624983580718223,0.0220499889889414,0.00377471376176006,0.0219984537002148,-0.018654003309622,-0.0190259060241506,0.00940080499004974,0.0055750078254511,0.0362501324800846,-0.0130658196667527,-0.0162674752547891,0.0113088437220251,0.0214681098126759,0.00525904216645351
AAAGGACGTCATCCTG-1_1,-0.0241756779903911,0.00634400225589651,-0.00658138446033028,0.00261571016371091,-0.00642230707383281,0.0168461592740424,-0.00459690460156211,-0.00429831236422124,-0.021586029579062,-0.00669573756977399,-0.0116012613194715,-0.0145361695818292,0.00566296184038099,0.0267134943863164,-0.00977184708274185,-0.0165688700843008,0.00722523003837393,0.0103195441564533,-0.0316375286359374,-0.00632962366114864
AAAGGACGTTCACCAT-1_1,0.00310064696116687,-0.0649029003317003,0.017581408369758,-0.00200629711271198,-0.00189386838268253,0.0294208241738105,-0.0107052954537061,0.00874931039266085,0.0118073160664199,-0.00178322657795822,-0.00166136593081094,-0.00244324712860859,-0.0165133334943219,0.00669959105364624,-0.0134846471296199,-0.00549695300504489,0.00755420695384877,-0.000732160497219778,-0.00404412695442109,0.000696099682770921
AAAGGAGCACAAACTT-1_1,0.0177753535399184,0.00945684213127405,-0.0152796691267254,-0.0375860339925814,-0.0141292258928838,0.00164954753764816,0.0114516772285104,0.0174985310333989,-0.00013622475827251,0.00579129086767791,0.0100748666055723,-0.0426534245027673,0.0349515875930362,0.012103025734014,-0.00712633484854992,0.0543623007801356,-0.0270348047177721,0.00096509513974762,-0.000897317625353137,0.00791811678220618
AAAGGAGCATAGCTGC-1_1,-0.026072658923877,0.0120046377360717,-0.011752138239367,-0.00477571961067903,0.0108515906577311,0.0281712329354977,-0.00571731357619259,0.00333929875015079,-0.0194262209489744,-0.0156102473888597,-0.0259829845739545,0.00949392670189853,-0.0156725833906798,0.000282699784442288,-0.0158373342827112,-0.00634251655608823,-0.00472409407639933,0.0222329484373606,-0.00387670633913466,0.00490929929051438
AAAGGCTCACCGTTCC-1_1,0.014396174274231,0.00516273547028372,-0.0171799008389283,0.00443491967760308,0.00163534456179754,-0.0142410285980672,0.0221986686851591,0.00224575761776727,0.00963293925369376,0.019898129657509,0.0026815921410971,-0.0200025780330194,0.00102556533621753,0.0208824405911083,-0.0318292933958019,0.000332860826428358,-0.028173170056764,-0.0202220350064125,0.00018644982577283,0.00701332268498488
AAAGGCTCACTTCACT-1_1,0.00340442423526396,-0.0672292292996046,0.0179487061743904,0.00282060734395502,0.000871667136916684,0.019054788303063,0.000165129927307451,0.00665992411785476,0.0107688702792402,-0.0110628937375126,0.00379425106766249,0.0224708793743643,0.000400735112723939,0.0153377166662384,-0.044501917300154,-0.0163583542948135,-0.0218335933511873,0.01656211473353,0.0334386470994836,-0.011116584573654
AAAGGTTAGCAAGGGT-1_1,-0.0165894472631593,0.00436622112546033,0.000495726735376959,0.00874769966344259,-0.0594040586897729,-0.000390057443736905,0.00912996876296548,-0.0151641527332091,-0.0132539051997698,0.0250669802819612,-0.00382763918381388,-0.00296645987597932,-0.0120523726222719,-0.0116596397033432,-0.00447110776175868,-0.00203758106107415,-0.012356636926044,0.0126575816018634,0.00153701047543748,0.00721303419631292
AAAGGTTAGGGTGGAT-1_1,0.0223257307734519,0.000682109222054537,-0.0206273147628956,-0.012452335103093,0.00294756535904266,-0.00644845647947926,0.0174398289136473,0.00431761632480132,0.00229083256703004,-0.00212355584548799,0.00552402993338143,-0.036688421477466,0.00582422152375189,0.00332485741057104,-0.0104456520349757,0.0167409841924069,-0.0662811754781253,-0.0190006557146939,-0.00384178472149541,-0.0123826424553319
AAATCCGGTTAGCGTA-1_1,0.0175103954308494,0.0240989606545019,0.0462270707980145,0.0166816699441461,-0.00752953295084507,-8.3464441718072e-05,-0.0347766100660187,-0.0277683913249032,0.0132590697065381,0.00965909061097354,-0.0260099139588668,-0.0297969179819747,0.0194120226161757,-0.0153752004930249,-0.0145442232734479,-0.0234390845356743,0.0120725957346728,-0.029295493605717,0.00826039038447277,-0.0296554992221522
AAATGCCTCCAGGAAA-1_1,-0.0288514973834556,0.0101625797141141,-0.00290464227207572,0.00226087931579274,0.00127390739993736,0.00233341884349931,0.012321989185016,-0.00928416895435848,-0.0167027465221061,-0.0193321452703305,0.0258254279388842,-0.00808945242245032,-0.0172383173552173,0.0491157232219324,-0.00557566096764816,-0.00703546037091774,-0.00217382396190384,-0.00418347642177745,-0.0133849653803114,-0.00293574479463055
AAATGCCTCGCTAAAC-1_1,-0.0209076383296216,0.00521338757427137,-0.00484775128051307,0.00369677835438025,-0.0152645461078398,0.00258613998999555,-0.00927038288103138,0.00861339962864069,0.015129651758026,-0.0252310939135561,-0.0248177977014165,0.00847673785101819,0.0225604622588942,-0.00616069669498699,-0.000150857312796792,0.0162560230890845,-0.00738168721482891,0.00888563933287137,0.0238717794068573,0.00927113133525579
AACAAAGGTAATGGAA-1_1,0.00140378366697315,-0.0286266597364555,0.00844231345922089,0.00477644064702192,0.0287160716495148,-0.120830490616232,-0.000481823984676817,-0.0391940972123378,-0.0891929767869104,-0.00877308408168486,-0.0478695717205436,0.0176278253406254,-4.52172292080158e-05,-0.0040248759061596,-0.0151139517584605,0.0157124555600314,0.0197202921870523,0.00874130505015195,0.0213562537451064,-0.00186608352714285
AACAAGCCAGGTTCAC-1_1,-0.017337262711215,0.0178660284671733,-0.019858419396644,-0.0212263255450092,0.012774444196621,0.0264784659134113,-0.0214549358818239,0.00728603078952866,0.00112272492510873,0.0253281766280586,-0.00782316156037826,0.0177116818911898,0.0158643548675408,8.73240327666241e-05,-0.0017673622393364,0.0334429967884753,0.0160392882503335,0.00850780888219882,0.0333741562076481,0.00129459416815293
AACAGATAGAGGCTAA-1_1,0.0195170095984359,0.0067562214308484,-0.013147330836246,0.00621537946181865,0.0214187731440757,0.000774895208585827,0.0293964891483543,0.0158276167128701,0.00105280184515188,-0.00958319954177876,0.029823485792255,-0.0024770903751003,-0.0166928538959647,-0.0132281068940983,-0.0231107487866059,-0.0203840922235024,-0.0076054802313009,0.0359164031078647,-0.00855015134982461,-0.00846812119251514
AACAGATAGGGTCCAC-1_1,0.0211658048654523,0.0025911135867113,-0.00790533367994577,-0.0342931249302501,-0.00662528621184635,0.0138680958906512,0.0035816846599092,-0.026754734599144,-0.00206141167557135,-0.00859945461164511,-0.0016174145946198,0.0166304178594684,0.0196000186179886,-0.0125296395855319,0.00224709989042095,0.0208230110761695,-0.0104252865023081,0.0189265650519543,-0.00434468547553551,0.00820078044959896
AACAGCAAGGAAGCTA-1_1,0.016833648298069,0.034145736787974,0.0545061513261869,0.0262962154183606,0.00356509543465853,0.00786994059463017,0.042264537807105,0.0118444224252207,0.0141663223142563,0.0033011594589078,-0.0146162471223975,-0.0420541252789839,0.0250433382890587,0.00469996464853041,0.000570178485289927,-0.00420065763359742,0.00269518201223031,0.0144950180667198,0.0243119788124676,-0.0202724984474582
AACAGGATCACTAGGT-1_1,0.0142615275789584,-0.00583434007738362,-0.0137210532343746,0.000321599605431443,0.0137417649397916,-0.0040611096120983,0.0198079881037295,-0.00941527930288636,-0.00604669549973104,-0.0126566072266865,0.0478954495885746,0.0106703147604648,-0.00659232728057177,0.00712862664072598,0.000468598920090461,-0.0274398408598964,-0.0358246424293377,0.0150107397253928,-0.00782637903254908,-0.0115544072215779
AACAGGATCATCACTT-1_1,-0.0245741972345622,0.0125646040491086,-0.0105582627482628,0.00151619293983472,0.00190990585409473,0.0173495123037312,-0.0111474570675761,-0.00740784253881735,-0.00775847255681268,-0.0179505598062721,-0.0189271002066719,-0.0204817439777029,-0.0246568758051473,0.0377741308187957,-0.00925813303335917,-0.0141262756811443,0.0101079963650374,-0.0171177262896209,-0.0118131051266313,-0.0246450716280028
AACAGGATCTACCTGC-1_1,0.00782433301579823,0.0279659162163066,0.0551131596975251,0.0211519488454113,0.0129055931472479,0.00713709121984497,0.0342392995446784,0.0105508460601674,0.0147681391214189,-0.00508755060618905,-0.00969994473176744,-0.0026375125191006,-0.0252620396066156,-0.0168156519924714,0.00623996651993985,0.00417923060818126,-0.00759976975441993,0.0146438521793781,0.00207299335365599,0.00505346397507773
AACATAGCATAAAGCA-1_1,0.0200636802649152,0.00902646069319336,-0.00967676290269994,-0.0441223299857701,-0.00315434669552342,-0.007627791346833,0.0190755223554264,0.00136276789349825,-0.0128867569883343,0.0115373889925854,-0.0101820168484966,0.0303295946615509,-0.0613930559235349,-0.00127808783122706,0.00519799600277592,-0.00665169002237903,-0.0496102883436468,-0.0673683613977296,-0.00222854516522473,-0.00982612677085522
AACATCATCCGTTATT-1_1,-0.0219225461493304,0.00612197491854317,-0.00341751525586288,-0.00983108749481382,-0.0112182444475214,0.0191028967491333,-0.00581499058982525,-0.0094473734725205,-0.000770798112192601,-0.0181466448197477,-0.0117341489209951,-0.000765713290887602,-0.0182682837880406,0.0478735813156007,-0.0264421497549512,0.0069390638409608,0.00991077019609682,0.00925868486566299,0.0243170747824029,0.0104345182148507
AACATCATCGAGGAAC-1_1,0.0206766381524305,0.000583828804399822,-0.0176680074423698,0.0259515620445957,-0.000859081346742435,0.00934087194779627,-0.0124161323152293,0.00169195649672099,0.00122445665189862,0.0102333113134225,-0.0081097642386216,-0.0244588615244761,-0.0312051403375198,0.00194835957059382,0.0198428700119945,-0.0273471866690789,-0.0178136117967642,0.00417265048916766,-0.0028638546814125,-0.00665978160636272
AACATCATCGGCTATG-1_1,0.00286424137677477,-0.0724697954147867,0.0282777038548765,-0.0173922459496039,0.000733599490986534,0.0196881281932367,-0.0237551052969279,-0.008812407323795,0.00909614900266392,0.0227027447286388,-0.00109459661079979,-0.0216050735157101,-0.0111015746332464,0.0249843980011315,0.0438945739939985,0.0556713161201742,-0.0122061226156347,-0.00754433170554524,-0.0364319247858953,0.00685980242111422
AACCCGCAGTAACAGG-1_1,-0.0107894173236493,-0.000651119022878685,0.00330349627113126,0.00777359706266341,-0.0388337793529254,-0.0124751822036962,0.00384439784283708,0.00773123682206735,-0.0218738467519701,0.00205312461746805,-0.0369657922193464,-0.00452864828009547,-0.00727800540568361,0.0139399916207939,-0.0126414026302723,-0.0128914483304332,0.0147684401232567,-0.00278786980911108,0.0124692808316977,0.00602086487125954
AACCCGCAGTCACTAA-1_1,0.0223327300782069,0.00653701777856717,-0.00276942946729293,-0.0338241272565865,7.28017358884538e-05,0.0121054384816731,0.0214643865467743,-0.0324942917131666,0.00523013653022411,-0.0244121914078101,-0.029557117182092,-0.0137576333397846,-0.0578372014349809,0.00106685471083045,0.0378648886590298,-0.039858610142082,-0.00642140302986208,-0.0104431790031029,0.0078881241121852,0.01308155573324
AACCGGCTCCGTAAAC-1_1,-0.0218057263450394,0.00713807761519801,-0.00499007310085148,-0.00200287949443506,-0.0164063323931455,0.0113465829816758,0.00425166903839505,-0.00896637286750433,-0.0174811623784683,-0.0487043581253044,0.000567623203017774,-0.00788512321012213,-0.00225121439163565,0.0269334796170095,0.00662644044712199,-0.0288677494895888,-0.00237973021937784,-0.00270247056253797,-0.00278522432488162,0.0164064677005548
AACCGGCTCGATCAGT-1_1,-0.0273387834016826,0.0131855417350141,-0.00271645869638286,0.00395054076458022,0.0240672205834973,0.00878187131034259,-0.00765966464503511,-0.0106382656466299,0.02996325454731,0.0179476597301148,-0.0103592540880782,-0.0192422786326618,-0.0388023584458907,0.034212530010082,0.000101797144681274,0.0174182651611249,0.0124245256482413,-0.00236850551438779,0.0133502026259672,-0.00706993608088999
AACCGGCTCGTTAGCG-1_1,0.0196398087702034,0.00166630025050048,-0.0156554410998872,0.0293207716760427,-0.00433332473202637,-0.00317583190605963,-0.0220417776439183,0.0200652490459243,0.0026967295780038,0.00376645177592258,-0.0126032765382609,0.00340482288906052,0.00435457438497748,0.0270121555298913,-0.029330781100919,0.00739916907056899,-0.039464413811991,0.00493598253687747,-0.0124743310042674,0.00973077129424814
AACCTCCTCCCTCACG-1_1,-0.0277452113287252,0.00389734973854196,-0.000584154847970666,0.0107261419042321,-0.0119333418643063,-0.0263201266113098,0.00340475768552262,-0.00236006368986538,0.00447814832567965,-0.0166334854792108,0.0174758002017127,-0.017540296648565,-0.0103626803764555,0.0206289969659857,-0.0130793037737507,-0.0128971916923625,-0.0138632890066386,0.0202494314732901,-0.00137067532097463,-0.00343058552582395
AACCTTAAGGTCTTGG-1_1,0.0218961159195917,0.00763347305394281,-0.0159077790933987,0.0259992870396389,0.00611928329228845,-0.00712294170437041,-0.00973058994895527,-0.0118739326425177,0.0176363493619348,0.000136819076951737,0.0122107295282224,-0.00808026332354852,0.00118342644829341,-0.00117195634328243,-0.0170989295958386,0.00361956741756974,-0.0278552117462984,-0.0117674024391752,0.00669552493553576,-0.0161273009294504
AACCTTGCAATAATCC-1_1,0.0181215837831815,0.00189357991208664,-0.0140207981568376,-0.0187588712926905,-0.00188913955322035,-0.00739454191000461,0.0288230665543977,-0.0251753590972333,0.000475601138320958,0.00146723981725121,0.00375405474455165,-0.0083151989863292,-0.0026525567933726,0.000414935103989982,0.0139245679513279,0.00688389929490494,0.0156378533574195,0.00865293239065197,0.0237610610907008,-0.0134372102420987
AACCTTGCAGCCTGCA-1_1,-0.0253781513826784,0.00595987145726023,-0.00538181405781288,0.000589177976610325,0.025538795562904,-0.000920146868682147,0.00413592992787618,0.0143952359122135,-0.0223147598393658,-0.0124214105752218,0.0385591419414248,-0.0063331504210289,0.00586601392881501,0.00781272609834828,0.0217470788697961,-0.0267749333840996,-0.0182911170863486,0.000736107495658572,-0.0192747141901736,-0.0171852484785828
AACGACAAGGACCGCT-1_1,-0.0214532373989008,0.00228678766784148,-0.00282345098135605,0.0010883265086994,0.00185926457384757,-0.00356487006519189,0.00423121201508298,-0.00876120105615176,0.00134163351803377,-0.00351325283409139,0.0231938690555311,0.00759474198723148,0.0133634116736857,-0.00640524902804301,-0.0214439776953119,0.00687196963845026,-0.022923813119471,0.00052890817660866,0.0177565414412312,0.00741796293570381
AACGCCCAGTTTGAGC-1_1,0.00315439622079332,-0.0632761104787073,0.0204488778197878,-0.0116815861816133,0.00227148892902201,0.00811010178924878,-0.0100837888570523,-0.0173311815090941,-0.0208399575803093,0.00165086922662637,-0.0146481448897071,-0.0397501013702842,-0.0245172706648839,0.0200323580178519,0.0532790665702586,0.0567204966220938,0.0159498850948748,0.00500221141982589,-0.032934852165706,0.0158152086825083
AACGGTAAGCTGCACA-1_1,0.0157251727229862,-0.00677940707579981,-0.0102973657692055,-0.0011278171742743,0.00364126313523628,0.0112207333373058,0.0245080370756654,0.00577220436419079,-0.00547593872400571,-0.00256259711499741,0.0170440645788259,0.02196410061247,0.00380777070245649,0.0123280185615115,0.00547735131808264,0.00691639225135543,-0.0175666304291146,-0.0319833477421759,0.00325764847921436,-0.00880418444883864
AACTAGTGTAACCAGC-1_1,-0.0243948012352013,0.0125516163582562,-0.00400307223284522,0.0102587251925741,0.00357249907315745,0.0136828982729109,-0.00530651145454779,-0.0065510776638912,0.0112877686260576,0.00314653226476633,-0.035898502840276,0.0139198099985417,-0.0188224352524273,-0.00383554027042509,-0.0279336804475787,0.00185519137312826,0.000956841401583518,0.0109625567428854,0.00545408253830255,0.0317622204044225
AACTAGTGTCGTAATG-1_1,0.0196289900141434,3.92896709918104e-05,-0.0197178294028728,-0.0158620067698042,-0.00964093872161233,-0.00745350228017122,0.0318831661963974,-0.0471224903577565,0.0192818952576872,0.00546045764614697,0.0194407615760809,0.0251441861053865,-0.0173251742097397,-0.00565867196811478,0.0112879037335696,-0.00328615368769777,0.0160762644061971,-0.0353199098539499,0.0113816353815187,0.0326706228835963
AACTAGTGTGTTGCTT-1_1,0.0188889471997229,-0.000739533831624499,-0.02180009998243,0.0100507661457067,0.000833884270410938,-0.0204083827186643,0.0122776351959885,0.00296329652375736,0.0164289737915452,0.0157154471526003,-0.00703453964918018,-0.00515880507890172,-0.00622741807828981,-0.0198418469043293,-0.00204101858512664,-0.0549194019775259,-0.039997729813991,-0.00498044360057868,-0.0269201470400563,0.00540471084557925
AACTCACAGCACTAAC-1_1,-0.0162466664590926,0.000519828725543504,-0.00366911194164209,-0.00102847176103544,-0.0725658330257527,-0.00676382581562411,0.0252275183392273,0.0129837863789599,-0.020175064997953,0.0182303033472999,0.0101657452212483,0.00135495809625373,-0.00455513527575263,-0.0236100581169055,-0.000363738608793097,0.00207839738061835,-0.0248857979003689,-0.0356268013248238,-0.00958287343132349,-0.0207558401650171
AACTCACAGCTAATTG-1_1,0.0168010958633499,-0.000600468838218826,-0.016717213427646,0.00651067602846327,0.012269102214735,-0.0117880673425406,0.0436126674950309,-0.00209873242878157,-0.00753969627927448,-0.0114459151970519,0.0140256929161057,-0.0371095646802471,-0.0415391026175782,-0.00992651859041303,-0.0102411211520547,0.0231904797499521,0.00687951829154018,-0.00535705179606585,-0.0469799305973051,-0.00232262308398048
AACTCACAGGAAGCAC-1_1,-0.0156146435069201,0.001095706503139,0.00136198861359597,-0.000487310808454769,-0.0761852352081135,-0.0148077054065929,0.0141848457953929,0.00707695642844303,-0.0234485185370291,0.065136529331956,0.0185255285447161,-0.0156671581858863,-0.0157733869025728,-0.0112700075154226,-0.0107301070076591,0.0101830729285944,0.00863091327968144,-0.00555332577605107,0.012920057254638,-0.0121145013353317
AACTCACAGGGCTAAA-1_1,-0.0271690369827538,0.00757984091814335,-0.00843138073838641,-0.00119220665432451,0.00696746773760385,0.00712700387331663,-0.0141665710593642,-0.0134716835461203,0.00901527654431503,-0.0278242876215945,-0.0424763332143916,0.000251615385049351,-0.0262830211805343,0.0136113014702283,-0.00316342930354533,-0.00248300941775027,0.00692076158401874,0.00152554350235393,0.00605905033943648,0.0135390941676388
AACTGTTCAAGACTCC-1_1,-0.0237506082182376,0.0117707287346972,-0.00542850665974051,-0.00493160516647046,0.0323608834473825,-4.80472809374583e-05,-0.0163865275758427,0.0132544573137361,0.00495968468645727,0.0280900690831631,0.00909548134102192,0.00918976420817904,-3.27164041744359e-05,0.00340167468514799,-0.0372928440350975,0.0208727490218671,0.00711296174677221,-0.000110784459586765,0.0159450141636136,-0.0196395689306394
AACTGTTCAGCGCTTG-1_1,0.00664349236981051,-0.0634921826702104,0.0162814179784695,-0.00899690391372277,0.00743658361764958,0.017620347946239,-0.00102958968208732,0.0160148672855554,-0.011747629902757,0.0306249349651512,-0.0154504642810599,-0.0060596524187369,-0.00559807942120213,-0.000366576853688059,0.0225326998067242,0.0138872141129884,0.0105631142322977,-0.0167503730401192,-0.0151318110069076,0.011886472792041
AACTTAGTCCATAATG-1_1,0.0042761273567912,-0.059421808891864,0.01889284370355,0.00532353068087627,0.00106242046440473,0.0139188755977479,-0.0144224768306581,0.0189664148661051,0.014491405231621,-0.020339147984633,-0.0128709299777362,0.0226042169152405,0.00597347946355156,-0.0122534417219834,-0.0428974589287651,-0.0238758376908929,0.0095343493924388,0.0218728029234319,0.0271613620713034,-0.0195832044890209
AACTTAGTCGCGCTAA-1_1,0.0252270370514697,0.0074509974947962,-0.0130036498561845,-0.0278569084961365,-0.016456641747967,0.018134284044574,0.03104283460271,-0.0485652211037508,0.0123879702383851,-0.00680864123806339,-0.00133339667105507,0.0423217969009845,-0.0438543850277505,0.0257807007020997,0.0391876576919857,0.0124606997078959,0.00940994340854336,-0.0418473870640891,0.0142214520884694,-0.00758253504360605
AAGAACAGTATTCGTC-1_1,0.00374952517082733,-0.0588978499937728,0.0188027331116902,-0.00908154417324162,-0.00277238106395239,0.0222100418360387,-0.00732385092155941,0.0214832567190495,0.0059045225605166,-0.0182741445151012,-0.00653096618819632,0.0231725233428414,0.0152067239953035,-0.0131073730969752,-0.00900931413771058,-0.0307127447488536,0.00546365201333732,0.00346781643570379,0.000640729584312617,-0.00818536631183844
AAGAATCAGGCTACAT-1_1,0.0169929907865128,0.000762725271677472,-0.0191992987470135,0.0237711299127592,0.00147321853767235,0.00661272331317822,-0.0444135804383913,-0.0093182128357827,9.11296210493405e-05,0.00880149687037121,0.0273948493648347,0.0179216364766677,0.00196418407560652,0.0108503413964199,-0.0232079081698212,3.20788038158266e-05,-0.0305452430625138,-0.0111569355069434,0.0193881066148524,-0.0327690742957733
AAGACATAGTAAGGGC-1_1,-0.0235652890055117,0.0125518121574953,-0.00844759701111794,-0.0120909863691856,0.00212112297849917,-0.00567529168047024,-0.0178852480948602,0.0278185931082212,0.0275293832907191,-0.0135988726188374,-0.0309225863721841,0.0234381052748774,0.0290719059662004,-0.0261193308590239,0.00659469182699956,0.0132836684638772,-0.000132251082575302,-0.0141824742654227,0.0464451047949832,0.0292836570314494
AAGACCAAGAGAGGAG-1_1,0.0164743891148068,0.0234335804819586,0.0495552796183996,0.0137672652863248,0.010557086189743,0.00518350990986828,-0.0176822846369244,-0.0196425061109993,0.00329053426236469,0.0132442107390902,0.0144583792681573,-0.0154920233391081,0.0143436811493888,0.000148893985221861,0.0101674663478446,-0.0289714449055889,0.0107728189669791,-0.00380890829642386,0.0105934350168173,0.00496042203385383
AAGACCAAGTTGTCTT-1_1,-0.0265286551242012,0.0132433572315679,-0.00924512413469385,-0.00255037942793917,-0.00392271252582312,0.0109445236321533,-0.00730547308970052,-0.00100696673391376,-0.00450400813920553,-0.00142768057433401,-0.0118053607671672,-0.00991562575052209,-0.00136871067986201,0.017085167551605,-0.0168483872237175,0.0119153789266881,0.0100535614335695,0.0143978431315535,0.000343239138297255,0.00156042050911223
AAGCAAGTCATTGCAA-1_1,0.0192937759263999,0.00510091964445479,-0.010179691056019,0.0211840227287824,0.00635286985129521,-0.0157514658309317,0.0225504997051342,-0.0105022420478434,0.0361660256805217,0.0187754105732772,0.00512159331234541,0.0112408557654741,0.0288235382874345,0.038988436695741,-0.0409723771715001,0.0164372309149903,-0.00605272932211444,-0.0173200464059389,-0.0410428602675499,0.0265726227230234
AAGCAAGTCGTTTCGC-1_1,-0.0206326989729112,0.00977462120948304,-0.0048435281004059,-0.00307197455832243,-0.00172861026691187,0.0210935696020489,-0.00476870554897784,-0.029581287694262,-0.0297405812932646,-0.0548771416234574,-0.00773403327459225,-0.00963593158070264,0.0228910691877164,0.00521446900263243,0.0163856010839066,-0.0183927221214317,0.0126698429047267,-0.0175272647397263,-0.0260891037636294,-0.0236338562524724
AAGCCTCCACAATGCC-1_1,0.0199375668322362,0.00460268341371603,-0.0222210361717058,0.0280472619399433,-0.00239820766367069,0.00553364279097567,0.00276359616591376,-0.0172398632024393,-0.000592871390332493,0.0137631529551858,-0.00751785558424682,0.0196356367942765,-0.000371160793314574,-0.00329567465498678,-0.00290278550629189,0.0106955380820366,-0.00357300670737574,-0.00739072315551027,-0.00373476637369662,0.028148720073736
AAGCCTCCACACTAAT-1_1,0.0161093474832463,0.00827836498723477,-0.0043108931973986,-0.0421294988602534,0.0120910665723997,-0.00648244512240538,0.00816026838486419,0.0432705721833538,-0.0351000728476902,-0.0171734807080136,0.0240567628167718,0.00667577461884014,-0.0231852975249399,0.00283765784645496,0.0181001648895868,0.0115374924136056,-0.00546821766982692,0.0402882956563093,0.0358140970268501,-0.0276701914122118
AAGCCTCCAGACAAAC-1_1,0.0186819539144903,0.00765707915780057,-0.00525433158294543,-0.0234594808552067,-0.000310034821295519,0.00840960191588123,-0.00518404416388577,0.00124298752483267,-0.015217743016171,-0.0206744656896871,-0.00523108458037205,-0.010515740775751,-0.0199210927929426,-0.0145520851861646,-0.0344950856980215,0.0185229651731661,0.00483102437756086,0.0235131851584687,-0.0237386453662395,-0.00575991347913208
AAGCCTTAGGAATAAC-1_1,-0.0247786144013055,0.00886434645637023,0.000816597621952495,0.000132359923344496,-0.0618126039100221,0.00482470033675495,0.000423361431913688,-0.00108481483987252,0.0077485569768875,-0.00384373451802971,0.00353928504577991,0.00438228831858381,0.00277727794771551,-0.00979176949890057,-0.022966881589535,0.0244016686033071,0.0114023651307007,0.0178945890239237,0.0123811379175111,0.0222734477221347
AAGCCTTAGGCTAAGA-1_1,-0.0254775739399976,0.0148539088905989,-0.000248679295343426,0.00345457990039622,0.028039781596341,0.0205543062667644,0.00222264365292269,-0.0208521055765508,0.0106351579698732,0.0196030398415483,-0.00312415630806143,-0.0121338327101513,-0.0112595082620478,0.00675499496372824,-0.0215565255305223,-0.00036374447173452,0.0085150227626854,0.027538309063588,-0.00661450736419,-0.00825527011618592
AAGCGAATCATGCCTC-1_1,-0.0200255395136902,0.00202370661545645,-0.000976678411216806,-0.00504395135153612,-0.0338519676210341,0.00452637669305941,0.0132430189562248,0.00354499441372419,-0.0120140273080918,-0.000578407021226181,0.011261180385504,-0.0289472022827887,-0.0127342853380145,0.00858319902808401,0.00126446958434493,-0.0291461818142414,-0.0090777710790277,0.0111474376431209,-0.0213782784150687,-0.00258466910544467
AAGCGAGGTATCTGGA-1_1,0.00635899161175974,-0.0601050311907366,0.0128509524343327,-0.00777101197945217,-0.0032751866843634,0.0178707301723026,-0.00136649445941911,-0.000190735569970665,0.0114780362102196,0.0058478017429899,-0.0266954741648845,-0.0004815142982247,-0.0027519021364264,-0.00117428727548213,0.0237482563163506,0.0213214563190633,0.00025688675467089,-0.0164877108784079,-0.0174411434304895,-0.0042574385453561
AAGCGAGGTCGACTCC-1_1,0.0199354048726225,0.0084976584426903,-0.00527574389616405,-0.0242118343210577,-0.00795664201102375,0.00931795381577367,-0.0281852991263332,-0.0303281573303321,0.00783991511981216,-0.0133281722035673,0.000303462864163235,-0.00537362292808499,0.00901924441377844,-0.0375374220145835,-0.00612770676353608,-0.0224523311611642,-0.0304630223377638,0.0294006499649407,0.0325722562599305,-0.0121918655782259
AAGCGAGGTTACCGGG-1_1,0.0040016528454234,-0.0635318754679686,0.0113535254556573,-0.00334007926315998,-0.00260851742066226,0.0204162381568254,0.0002939864144701,0.0123420204970395,0.00713055270006193,0.00325214316610308,0.0109882914883359,-0.000499540172668667,0.00369854541585976,-0.0256504325059777,0.00659343868340553,0.0200508111339168,0.0225058662117248,-0.0179015680416646,-0.00337560708682239,-0.0131944484688245
AAGCGAGGTTGCACGG-1_1,-0.0230640750239184,0.0119699781119872,-0.00977969937376029,0.00597136635986687,0.0199129080607715,0.0346579603685087,-0.00327780820990379,0.0269365816022481,-0.00728362051844813,0.0300006824209336,-0.0411788490252173,-0.00809704691635308,-0.0203385981521645,-0.00948268325709901,-0.0198954960046222,0.000513545752583807,0.00948115362772883,0.00384402453147445,0.0167375305526315,0.00176062876272452
AAGCGCTGTATTGCAG-1_1,0.0172284800688472,-0.00291569487966583,-0.00527237584977875,-0.0108254005139668,0.00726673436574615,0.00956006076488985,0.00364637906298915,-0.00663164360262998,-0.00178932256816837,0.00435007919185769,0.00415956331968964,0.0228805286164852,-0.017769213135221,-0.0363537308077081,0.0139715549855879,-0.00334854757745722,-0.0246289347526404,0.0159101024157917,-0.00379708718948314,0.0205804177633941
AAGCGTTTCATTGTCT-1_1,0.00310125084370921,-0.0734455742959148,0.0234647629700476,-0.00492177342886113,-0.000352276025326222,0.0160030867237584,-0.000214420410914066,0.00814313603074761,0.0114313674054372,0.00165109826333361,0.0126571364776277,-0.0230238951091638,0.00285379180304733,0.0137848626834813,0.0430952334783163,0.0471626604696059,0.00113111638301066,0.00431438476933536,-0.0232049392129039,-0.00902634828223872
AAGCGTTTCCTGATTT-1_1,0.00334797207963597,-0.055338047426694,0.0167020608233808,-0.0129957329686302,0.00849171391461565,0.0077782532249948,-0.00370240725951296,-0.0152252629508214,0.012103772021865,0.0222477363386323,0.0166925882960401,-0.0286310653650978,-0.00752318444953958,0.00777006137823396,0.0239916201654273,0.032672049948894,-0.00639738941681909,-0.00746198498842489,-0.0299531004951822,0.0391349692707592
AAGCGTTTCGCACACA-1_1,-0.0150377169552307,0.00348212792642864,-0.00966998503080269,-0.0141260612534267,-0.0031835815337508,-0.0420160117405107,-0.0175349551401738,0.0482473093225649,0.0665881452352624,-0.0132918964745125,-0.0448353854673042,-0.00361499238625466,-0.00963978706803961,-0.0184310734186638,0.00841695520791958,-0.00739091311573644,0.0333160645071658,0.00209731301759027,-0.025404887005385,0.0226517405684027
AAGCTAGAGATGGACA-1_1,0.0221856233817344,0.00947422143051571,-0.0111889407520156,-0.0114433988631432,-0.0109418381353438,0.0050915324512291,0.0187738158560411,-0.0423612031006448,0.0170252885890963,0.021221788457714,0.000745692924515269,0.0384280603880066,-0.0166460654602861,0.0143672582078078,0.0043664114873547,0.0405959164480493,-0.0431691615796951,0.0153632753722297,0.000580429411663751,-0.0240420323813737
AAGCTATGTTACTTGC-1_1,0.0200765459103135,0.00470434491846448,-0.00153414038270177,-0.0258136546705799,-4.98408508403613e-05,0.010436946490936,-0.0217439469488286,-0.00890443228929332,-0.0231966313354699,-0.0203419993734221,-0.0023383540526156,0.0153939395123166,0.00880718751044283,-0.026684793870718,-0.00636478046156839,-0.0190338025963636,-0.0126830307950892,0.00386831701043823,-0.0222255828725666,0.00570263350200211
AAGCTATGTTTAACCC-1_1,0.00386140870899126,-0.0737949407563258,0.0288365886781576,-0.0038591893909511,0.00941232004758801,0.0214433570376155,-0.00182591981879546,0.00821781191993221,0.0123101892070366,0.0133115502737426,-0.00312586397559385,0.00484004829642049,-0.00295842760341757,0.0207964555962869,-0.00768732926509102,0.00292200462474804,0.0154983972408983,0.00971610176693917,0.020856934297968,-0.0276176033839988
AAGCTCCCAGCAATAA-1_1,0.00328125627843837,-0.0613710029180199,0.0203578655741429,0.00611516993138547,0.00590370307215632,0.0176731964101834,0.0146776733571662,0.00778791680572302,0.000337629019931145,-0.00240291741618523,0.00794495616553206,-0.00241644839005377,0.00227127972880693,-0.0261143426874249,0.00363417186183092,0.0215230085608292,0.00943772302028001,-0.015900402683481,-0.00308216383268592,0.00610666770205938
AAGCTTGGTCGCAATA-1_1,0.0177235193342437,0.00415348023336659,-0.00815208798682161,0.0108992275298397,0.00315996832189748,-0.00831141063071295,0.0205901594015019,0.000210833953766881,0.00972033550189011,0.00770809556618534,0.00635647341630791,-0.00992300890031737,0.0251099992272589,0.0207688173389752,-0.0108915382449549,0.000775704799071848,-0.0275080460473299,-0.0115794935771323,-0.0188271366799201,-0.00757224423688926
AAGGATCCAGTCTAGC-1_1,0.0172657904531923,0.00236025337171644,-0.0239262928173496,-0.00735636048060654,-0.0373053821890411,0.0237805268035434,0.020241168539473,-0.0224761300640236,-0.0289681783914367,-0.0921489762297752,-0.0602835035966508,-0.0124257393367586,-0.0245963211933241,0.058590320226207,0.0682656597706582,-0.0178911322919013,0.04239544490289,-0.0019568061097904,-0.0692081840137778,-0.0373516992417241
AAGGATGTCTCATCAT-1_1,0.015820771162444,-0.00730345635455826,-0.0208854028189193,0.0218716123094104,0.0100581244956004,-0.000646840647694943,0.000521436384480747,0.00710456530278528,-0.00136203476665341,-0.000742262386938772,0.00132318825275431,-0.0230799636900566,-0.00330035395272203,0.0382536169598787,0.00370274970513608,-0.00342098700194015,-0.00837786015419717,0.00130506945095055,-0.00822044903715261,0.0193777928672925
AAGGATTAGTAGCGCC-1_1,-0.0267325665076491,0.0110759872617127,-0.0104396946350027,-0.00805180657486606,0.00604988882735222,0.0151304971693881,-0.00519172870605013,-0.0135659597696053,-0.0050847304273364,0.0132991293349127,-0.00896821106860337,0.0231331174487403,0.0275980818258894,-0.00564289798921947,0.0148050812514353,-0.0068283779864116,-0.0172185984759,0.0162036986447856,0.00376094261784891,0.00400673198061114
AAGGCCCTCTTGATGA-1_1,-0.0253717910793606,0.00669831961814138,-0.0107369523168761,0.00242847547169963,0.0125989929009917,-0.0162294932983862,-0.0126546323331292,0.0201458439904801,0.0224855122050784,0.0183526551248968,-0.0146506629880096,-0.0114949868519126,-0.0296240348384056,0.00555817283142266,0.0150279591316902,0.00545863880563744,0.016714469461316,0.00569493324913672,-0.00262740551983774,-0.00403252389921085
AAGGTATAGTAGCGGG-1_1,0.0227379600924793,0.0141119819851222,0.0124012202857633,-0.00888757615804823,-0.0101781579813249,0.00909885435740357,-0.0313697827615305,-0.0273896559303371,-0.0162582796160589,-0.00578678510398503,0.0473231993654084,-0.0018332389692486,-0.0356409924311553,-0.00424866864457374,-0.0275463128655147,0.0325840361017823,-0.00532751891448344,0.0448716281530883,-0.0034980954287711,0.0329402765075628
AAGGTCAAGAATGACG-1_1,0.0168462241711704,-0.00136340343019571,-0.0136652088880075,0.00243435624778606,0.00074592169503478,0.00301188117098284,0.0235456139145297,-0.00971712816625587,-0.00277605581370361,-0.0107224447297974,-0.0243861893347785,-0.0192672700742319,0.00535049654873506,-0.02322816574117,0.0229553608682909,0.0105887159818539,-0.00469204090402777,-0.0199479503682987,-0.0256820094955944,0.0358558623968841
AAGGTCAAGCACAGAA-1_1,0.0150389649075423,0.00449412693877697,-0.0192061163383073,0.0201865817960225,0.00812495549400935,-0.00435248070092591,-0.00332473680699357,-0.00318384787681702,0.00651906723818807,-0.00996801746632298,0.0598684671078856,-0.00587117036145212,-0.0185495487088718,0.0272042966970098,0.0215077378784003,0.0114846537337501,0.0107032821093529,-0.0125633852096349,0.0124098919277469,-0.00612323119227499
AAGGTCAAGGTCCGTA-1_1,-0.0208910684342403,0.00853400537176976,-0.00853428589281425,-0.00147576206829716,0.0164661302276761,3.85728011816022e-05,0.00236785634846673,0.00548458315423725,0.018944615605137,0.0520313487797978,-0.00410238118866204,0.00298988489065343,-0.00650820616340997,0.0101126420432047,-0.0256884150323403,-0.0104777148528164,0.0165831678711208,0.0281166182217151,0.00792242368266408,0.0230177661505291
AAGTAGCCACGGTTTA-1_1,-0.0255615652766447,0.00348852624397848,-0.00865957848574994,0.00200778314882175,-0.00743232424301761,-0.0327184473167289,0.00534976958790928,0.0200657326790169,0.041983332746285,0.0118857235102147,-0.00464317827421641,0.00731924145406334,0.00984183457858273,-0.0173119015099013,0.00932048241413654,-0.00825511787593194,-0.0200342724361747,-0.0133114578977808,-0.00514957493996294,0.0194395275352106
AAGTAGCCAGTTTGGC-1_1,0.0173653722878313,0.00128419287660704,-0.0218546427116361,-0.0195316789282079,0.00371979521443868,0.010381719440427,0.0309921886864063,0.0117884220181545,-0.0277790516152994,-0.00147229254580955,0.00909505065808151,-0.00275947744730121,-0.0210051685220024,-0.0377069977098753,0.0186097364408088,-0.021090456265693,0.0129337936747497,0.0018204061856338,-0.0274612417313868,-0.0385750249180717
AAGTGTTGTGAGACTC-1_1,-0.0210507788919372,0.00920309170646294,-0.00416348426142142,-0.000246648928508352,0.00281158216420817,0.027342830917464,-0.0112662475381518,-0.00477031226392703,0.000130235139581664,0.0090054365550208,-0.0155729897849844,0.0154218066723724,0.0305819415497083,-0.0099383592741804,-0.027310919295004,0.020679534461667,-0.00411560493156519,-0.000324163858661751,0.0137249559145803,0.00301462283991403
AAGTGTTGTGCTCCGT-1_1,0.0189279739232633,0.000118330723499412,-0.00977441838881849,-0.0339881421557378,-0.00968836306742252,-0.0102396072993225,-0.0128125104081369,0.00845881871110415,0.019333169489885,0.0253093761089946,-0.0126282062033929,-0.0160973816561774,0.0110535876473246,-0.00490999158961839,0.0277921607122861,0.0136476396340946,-0.0353510932770793,0.0280072704105552,0.00633751510265401,-0.0189261471905051
AAGTGTTGTTGAGGTC-1_1,-0.0132203067441466,-0.00976038962807156,-0.00100088411125164,0.00315101576878201,-0.0126768499544045,-0.0812450702836534,-0.0141130516445927,0.0269777508115552,0.0832126193573141,-0.0138656940477342,-0.00596050498855868,0.0108736667507845,-0.0146940709756169,-0.0150652559760525,-0.00262897953793284,-0.0263251244210471,0.0138111490716531,0.0347242323043309,-0.0350177328554009,-0.0243283636900995
AAGTGTTGTTTCGCCA-1_1,0.0185155923349727,0.00107994750715028,-0.00564833404565475,-0.0225291942799346,0.00358117612972937,0.00385433612098665,0.00915161692151374,-0.0115017656955144,-0.000197410068407554,0.00275860706229847,-0.00956336549562265,-0.00506453788199305,-0.00202197067019354,-0.0088301225452602,-0.00642518951761504,-0.0260287554636221,0.00793804796911501,-0.0152931580592769,0.0096302129572839,-0.00223920803142933
AAGTGTTGTTTGCAGA-1_1,-0.0200911245218649,0.00382797558803274,-0.00685183831333603,-0.011092322801832,0.00558852924817392,0.014716215944383,-0.0010990810384787,-0.0146574275340376,-0.0122634640753002,-0.0514102009772887,-0.0097879726324314,-0.0083361130746356,-0.0159688967138724,0.0386179145408425,0.0152912809786853,-0.0387629260958294,0.00517669918311047,-0.00868125101133733,-0.0377333896422854,-0.0242632020980162
AAGTTACGTAGCTAGC-1_1,0.015929474222734,0.00278450184647564,-0.0129377941362362,0.00113800557680642,0.0101628405880172,-0.00640472928599988,0.0185276217350319,-0.0263626159204117,0.016592405103051,-0.00986997867018177,0.0150966608182636,0.0100734221353897,0.00525996975123012,0.00810731433866599,-0.0201306360369953,-0.00503938990604891,-0.0197496400988536,0.0248619431881298,-0.0048434380137401,0.0147549396592629
AAGTTAGCACTAAGAA-1_1,0.0198844169984674,0.000193769852560797,-0.0186514978351868,0.0350605350270046,-0.00098714543407209,-0.00238550531839844,-0.0111598893529029,0.00949482722765,0.0180455673930306,-0.00947316856786551,0.00491282723148052,0.00221446373276227,-0.00735773980423274,0.00308481895180406,-0.0150939540709571,0.0139311187696391,0.0145238246231438,0.00340043627527123,-0.0133942638085332,-0.0322887040510775
AAGTTTGTCAAGGACA-1_1,0.0174756882461334,0.00377518305989879,-0.00470366054849295,-0.0410509556573646,-0.00464881008035679,-0.00253990496891019,0.0199628854188918,-0.00727539679742812,-0.00342347027436298,-0.00686833237481325,0.0112338325100874,-0.00953286735120128,0.00733096384008701,-0.0178942960895684,-0.00942445917886229,-0.00855457800308847,-0.0120581645256606,0.0271813026970925,-0.022890740761996,-0.0335151084880115
AAGTTTGTCCAATTAG-1_1,0.0195331204895267,0.00327113375347845,-0.012930472039561,0.0244920810294021,-0.00912508611357088,0.009234506718728,-0.0400135465059322,-0.0108959857165105,-0.0105788980814701,0.00248534074072376,-0.00762019568442924,0.0016767608173036,0.0116349759073188,0.0092261961853801,0.00866731281104811,-0.0307758700229077,-0.0144599020969876,0.0387082210190035,0.024945757422886,-0.00200582576421219
AAGTTTGTCTAAGTGC-1_1,0.0151424881983756,0.0277910461396162,0.0562798631722516,-0.00233640881371854,0.000271641400761837,-0.00308337185068456,-0.0276932912809663,-0.0345444321327957,0.00271032435000981,0.00186479150642674,0.0369827603795709,-0.0450968735555599,0.00346177285897077,-5.54488055740502e-05,-0.00934734199899345,-0.0187138998333859,0.0304727024514061,-0.0538609206139251,-0.00972330765598731,-0.015910547520963
AATACCGGTTCCATTA-1_1,0.0195114110536117,0.0204356702958308,0.023097443052977,0.00773279941542008,-0.0110121097455644,0.0190961809825819,-0.0532709986015667,-0.0342838615075106,0.0130854421082951,-0.0257664574775364,0.0135688896277906,-0.00641266885476995,-0.0165076192945125,-0.03866416441322,-0.0522392284115086,0.0232802585731382,0.0218490408394795,-0.0140286629888469,-0.0146163971155578,0.0445049120039269
AATAGAGGTATTCGTC-1_1,0.0172618607420284,0.000120291920326841,-0.0180877080241223,0.00178848245815686,0.00935676460294846,-0.00638013919147271,0.0215323639332048,0.0156630940349934,0.0022810957861837,-0.0085060104137896,0.0110747618746575,-0.0164873481606736,0.0272129736206567,0.00413191349108856,-0.0215354978984491,0.00540435721405131,0.0045729129865889,-0.011233131939926,-0.0207687115637079,0.000771182183688135
AATAGAGGTGAGGTAG-1_1,-0.0255269069406697,0.0144639598772252,-0.00659931851876357,-0.00240200752888393,0.00968418034031552,0.0229358960253778,-0.00849616853096287,0.00153945255346304,-0.0177622807753594,0.00154495188054157,-0.0130919233122348,-0.0135470796601122,-0.0290143104039963,0.0212218504613763,-0.0107456678288709,-0.000269657398579933,-0.00121408523447725,0.00867711407239296,-0.0094733985332041,-0.0053446511012569
AATCAGGAGCGAAGTA-1_1,0.0248303354273274,0.00536778318786296,-0.0238457345852044,0.0345556108825842,-0.0119060319638429,0.00270827390689976,-0.0179025168072603,0.00476258189560193,-0.00661226736827649,-0.00362923333494929,-0.0144593340871741,-0.0252558015760514,-0.0285481901499713,0.0154910125703697,0.0341111187698383,-0.0218300146002686,-0.00116608009039791,-0.00362341128566752,-0.0220921260533644,-0.0205564618249472
AATCATCCAATCCTGA-1_1,-0.0142985799574995,0.0144682231818148,0.0008391155269079,0.00487172226370837,0.0195072925127514,0.00295757353571437,-0.00788873859452709,-0.0299582099605067,0.00552664642781665,0.0154964142332386,0.0102170922327408,0.0133649686751844,-0.00181491862405734,0.0290500510726086,-0.0252021554684743,0.0248058083186914,0.0135068968359748,0.0354733939674778,-0.016151772554453,-0.0136495130746317
AATCATGTCATTACTC-1_1,0.0226459084745923,0.00056570520700237,-0.0164898376851863,0.0228899321855758,0.00259878158941053,-0.0119835533583031,-0.0208430738177852,-0.00185266527288826,-0.00724059475805783,0.00206405738391759,0.0036641210417752,0.028762043783307,0.0241156500350858,0.0174676360642439,-0.000219520321179647,-0.00723319521534649,0.0160462363252398,0.0169493170837328,0.0122983066046778,-0.00226112965452135
AATCCATCACCTCAGG-1_1,0.00564536527149807,-0.0628702238692711,0.0164729731539058,-0.00214860791109689,0.00965610985694727,0.0245011673274516,0.00538914334603685,0.0075142838159955,0.00744707269927979,-0.00851783222273248,-0.00440323658515925,-0.0027132104159325,-0.00741830569716933,-0.0139146028792694,-0.0470183314032974,-0.0300730719164678,0.0106007554961685,0.0117766381920942,0.00546345560263715,-0.00632135153901394
AATCCCTGTGCAATAT-1_1,0.0217438122694269,-0.000298010441493756,-0.0142062912492852,0.0171230387039353,-0.0133296613285148,0.0229004878039383,-0.032103910177635,0.00485139408024387,-0.0219456455256265,-0.0261289770861881,-0.0108799369395419,-0.0140026271161693,-0.014049009799205,-0.0098549955676905,0.0011335252560358,0.00668199103310834,0.0164907419150378,0.0312813018454659,0.00850485973678212,-0.0404259646725925
AATCCCTGTTAGCCAA-1_1,0.0212874691731232,0.00152640220604858,-0.0118207912284596,0.0406892995959604,-0.00753293968132371,-0.00102475476201344,-0.0388618663726251,0.00313514279958168,-0.0100649934054573,0.0226297810635341,0.022555715915332,-0.0166760456545602,0.000157505338999578,0.0159375402619907,0.0123697456252337,0.00106917546693782,-0.0314173488347103,0.0276266874379626,0.0124651585184582,0.00361105235696223
AATCCTAAGATGGAGC-1_1,-0.0233768237907487,0.0134131347756747,-0.00406847415983268,-0.0082405262449397,0.0274349009401123,0.0235257381612858,-0.0113156986884166,-0.0131926063818101,-0.00297931837570854,-0.0251395951268347,-0.00975019152125013,-0.0039700872475449,0.0181293161974167,-0.0163765518903321,0.0352560663090986,-0.00329444959198719,-0.0354690950535456,-0.0203255526498701,-0.00140712159261806,-0.0257250299076532
AATCCTAAGCGGGCAA-1_1,-0.0253320765247859,0.00676970770357987,-0.00538216803636146,-0.00270378766224948,0.0231025945161984,0.0174936625179993,-0.00521582107655214,0.00135264540603701,-0.00753814144035282,0.0326436342007871,0.00576671080992263,-0.00720344983933433,0.00230809210076971,-0.00520005386462024,-0.0193732020984118,0.00572760467124634,0.0024227967054219,-0.00108274757905319,-0.00375172791876649,0.0105829266504967
AATCCTAAGTTGGATC-1_1,0.0185031420481061,-0.00626802922491983,-0.0204505021126609,-0.0115365820164557,0.0113558368675087,0.000150674726843665,0.0215287282670273,-0.0331789919814488,0.0185239929123479,-0.0158142968300327,-0.00197580343487126,-0.0157732408792333,-0.0134282658821715,0.00203608174675834,-0.0193056894634552,-0.0040212216365853,-0.00507991973288855,0.0109671918715369,-0.00439542686667269,0.00650240167835146
AATCGCCCACAGCCAT-1_1,0.0222997784360102,-0.00685895982377779,-0.016681187130205,0.0190646500930462,-0.0003942000773417,0.0161807303452466,0.00751310614708779,0.00591250788483411,0.0117366261114352,0.0040051889161282,-0.0388025311060077,0.00326689812030404,-0.0122919889338024,0.000238999851798493,-0.0102319689046548,0.0117707626324151,-0.0216060462671963,-0.00560882180406807,-0.0184618972919694,0.0242324127529647
AATCTCAAGCACTAGT-1_1,-0.0174035425482076,-0.00155515378110749,-0.00331883117359687,0.0132541355520807,-0.0649315706183235,-0.00301405199959702,0.0172787154075274,-0.00884978211002013,-0.017783748093873,0.0136052878350005,-0.0219826122057634,-0.00128345410493901,0.016778470608487,0.00398607478723901,0.00483204894975312,-0.00350448710025228,-0.00609665652813698,-0.00556032633824389,0.00445883053660289,0.013730109944533
AATGAAGGTAGGTTAT-1_1,-0.0318043423412955,0.0142464614705891,-0.0143861544766055,-0.00191622205661807,0.040158532059439,0.0158826209073097,-0.00288410715555432,0.006461275779482,0.0032174586050845,0.0176413926286741,0.012367206120729,0.010004987155762,0.0190574097776344,-0.0234200824209445,0.0190466596340117,0.00475714837839455,-0.0139225378514526,-0.0155050982811914,-0.00835657253155065,-0.00164605468407004
AATGCAACAAGGTATA-1_1,0.0213582630014761,0.00527154495131015,-0.0090588833815519,0.0226037108646076,-0.00163557700778558,0.00727070861101783,-0.0327092172823234,0.00393182957101451,-0.00630531071222084,0.00610517905764637,0.0328454180185047,-0.00719563966342701,-0.00801730327581746,0.00329748145194897,0.0108588997104032,-0.00834321865062625,0.0259978704286876,0.0503665899184903,-0.0100174763457067,-0.0282823132745151
AATGCAACACACTAAT-1_1,-0.0160439656311621,0.0121723785548435,-0.0182149902696622,0.00913010668554649,0.0145228912263376,0.00988852168288333,-0.00932156349124235,0.0156682950263006,0.0220304130009346,0.0263796165871581,-0.00311491394888868,-0.0171940032770823,-0.0274723799711481,-0.000976292484041089,-0.0121193111752324,0.018356647576972,0.00739638644513895,0.0232276423202489,0.0284515604972603,0.0107756319421575
AATGCAACACCACAAC-1_1,0.0177909657058958,-0.0031260640543942,-0.0182132389438158,0.00830450958044622,-0.0010248219671302,-0.00597765098373498,0.0163515016382737,0.0111100088641572,0.0040256763905763,-0.000786120004444297,-3.93279063185751e-06,-0.0043276337432717,0.0181886242827811,-0.0134384895480649,-0.0106406972500557,0.0217371383998317,-0.00979678610406821,-0.0106259153241903,-0.0144194661304469,-0.00215204202726547
AATGCATGTGTTTCAC-1_1,-0.0147950231896931,0.00349990097809948,0.00394971818242683,-6.53333540323489e-06,-0.0552605144130189,-0.00634532634622086,0.00414413386335842,-0.00267199652799278,-0.0161602398832374,0.029201761015428,0.00901780542121972,-0.00119293968622369,-0.00452521159421249,0.00396849436979614,-0.00360170797544698,0.00415927407801758,-0.0103242200964847,0.0173248581717408,-0.0153160662535651,-0.000968511380234231
AATGCGCGTACCGGAT-1_1,-0.0289206500242841,0.0162399021994986,-0.0135541305374289,-0.00437088143236876,0.0228657583453034,0.0221497757483039,-0.0135101565837856,-0.0119832521344909,0.0154377047148565,0.0331387462101798,-0.0277503743702737,-0.00650164484102899,-0.022266491863425,-0.00204520232312494,-0.0246391690035128,0.0145016757820983,0.0216978456704808,-0.00627360154533257,0.00323195439417243,-0.0002735359181224
AATGGCGCAGTCTATG-1_1,-0.02527021116986,0.0120632146860382,-0.0158855069637996,-0.00302706274743698,0.0222423777857251,0.0148775897776753,-0.0106576542212412,0.00914764070281459,0.0199777581999586,0.0467773870310021,-0.0205346689831175,0.00285019987636268,0.000823724598316553,-0.0245746866017031,-0.0211708329142033,0.0255210749121391,0.00571847053726149,-0.00928744006937954,-0.0145349967701583,-0.037145883489419
AATGGCGCATCACTTC-1_1,0.0187216706571102,-0.00336297304800687,-0.0211308113916046,0.0111830994395015,0.0109016320299136,-0.00251824216398977,0.0354337548270365,-0.00747233274264525,0.00592964089103984,-0.0166784853668928,0.00947119052605763,0.0173241784721114,-0.000557877419640655,-0.0204262126415084,-0.0334121267760085,-0.00686764614409667,0.0120616704125269,0.0062134305179889,-0.00808148285071667,0.0190359394077573
AATGGCGCATTAGCGC-1_1,0.0140379531558758,0.00248610412060634,-0.0072716580467343,0.0108732779041225,0.00151275643051823,-0.00674368132784258,-0.0115425466626874,-0.0187623991712755,0.0150190835929852,0.00602340578137198,0.0195222576805262,-0.00457455958723603,0.00691373395738752,0.022188968492618,-0.00415798126296055,-0.0307821821597861,-0.0208136648070321,-0.00975373516635453,-0.0110458395230136,0.0152629219870093
AATGGCGCATTAGGTT-1_1,-0.0216960606596137,0.0145862531108896,-0.0134024264265971,-0.00200399349852441,0.0235174261251039,0.00215891148335691,-0.000633627251032073,0.00862431853503123,0.0122573499373665,0.0132251297591142,-0.0169111636696069,-0.014874444295695,0.0174450597866046,-0.0225395811022958,0.0134931605537802,-0.00858612605207266,0.0133368575178613,-0.0242446927351796,-0.0222332151931414,0.00363077365797614
AATGTCCAGGTAACGA-1_1,-0.0169431620281491,-0.00216727629119124,0.00413648119888585,0.00335061445338783,-0.0833045928325656,-0.00157886594654782,0.0158792537089407,0.00828677624854474,-0.0320038198101246,0.0229639432658037,0.0239808016622404,0.0101639268702977,0.000506733011505422,0.000586029555259513,-0.00480574490471595,0.0167520728034816,-0.00145174225902172,0.0195754564474243,0.0085449096785496,-0.0019436662654011
AATTACCCACCTGCCT-1_1,0.0208464306561978,-0.000866193227121238,-0.0292855684512982,0.0502204357572371,0.00339239551764003,0.00610530671459546,-0.00212799290777154,-0.0130112530898004,0.0104960562971447,0.00936813780146836,-0.00327806274931802,0.0605819713851912,0.0126650759447305,0.0188691058504493,-0.0371530228128573,0.0139555286334847,0.0242318281037467,-0.0152613059564247,0.00560362149834304,-0.0102902445837318
AATTAGGCATTTAAGC-1_1,-0.0154437460800639,0.00213319407078799,0.00448330074509848,0.000314964227363106,-0.0567305337671782,-0.0144434525796889,0.025996728341543,0.0100125466386885,-0.023352692026633,0.0639434146702155,0.0328667480738688,-0.0103116292307642,-0.0301060372310548,-0.00232384340741585,-0.0219522106462407,-0.00460142651153951,-0.00547502418714846,-0.00244890283388628,0.010634446073787,-0.00847513906976662
AATTCGTCACTTAGGC-1_1,0.00156595065248347,-0.0310598232270408,0.00918025355786248,0.0127618374691747,0.0370057451914193,-0.125426611686686,0.00676223824532209,-0.0401866604309593,-0.0927451304276471,0.00612144981697239,-0.0434762636910088,0.0118897117610949,-0.000311667625292146,-0.00670915378738613,-0.0018751652072363,0.019565640175039,0.00121694058339967,0.0119388831254211,0.022079128611482,0.0186089026095646
AATTCGTCAGCAGGTA-1_1,0.0203044890784354,0.000200789076805119,-0.0150842641183895,0.0044709714981004,-0.00412677376633806,0.00849588650684243,0.0233514563606916,0.0112530691481001,0.0156284421838858,0.011132107023565,-0.0177630181368592,-0.00301545857985849,0.0557573566486597,0.0474802543746329,-0.0286348256821333,-0.012896628190345,0.0171621862013045,0.00223247050779641,-0.0557566175586312,-0.008723498353708
AATTCGTCAGGCTAAG-1_1,0.0172368491261065,0.00255534322437318,-0.00220516767349155,-0.0389048697257769,-0.0109525306535748,-0.00464778399486355,0.00503683235274563,0.0276207426071071,-0.0100703933795401,-0.00461991074870529,0.0286098641560795,-0.0238152261880138,0.00435035514371312,-0.017615049339553,-0.0238456568058217,-0.0224535667410523,-0.00787032101874111,0.055481507819685,0.0176291113664456,-0.0290826815095914
AATTGCCAGGGCTTTG-1_1,-0.0158125388864382,0.00203012159985695,0.00172692458602885,-0.00265679673941224,-0.0474329814018482,-0.0103337379734601,0.00767050115757449,0.000578495906770183,-0.0430480883416292,0.0252112035964912,0.0464814563245018,-0.0106658502118851,-0.00694123288981034,0.00364086957191045,0.0076131329337551,0.00889763096812535,-0.000232396518814498,-0.0110710478336026,-0.0109117299837272,-0.0047818571060638
AATTGGACATCGCTCC-1_1,0.0138315907633448,0.0168866183370637,0.0427004959108096,-0.00520843104255756,-0.00449085846707053,0.00407735383883539,-0.0349154787564711,-0.0464017935091123,0.00944722263430166,-0.0224311565679379,0.000669135739819502,0.00819773853165839,-0.00264901502967689,-0.0416459584609082,-0.0306907747380111,0.0198691495647109,-0.000352651070787203,-0.0075946788741289,-0.0520090717479373,0.012936658769612
AATTGGGAGCCAGGTC-1_1,-0.0257418338029655,0.00426079286962494,-0.00515715729731088,0.0030548382441401,-0.0158006706346357,-0.00670281724715789,0.00141646767630649,0.0022670019359013,0.0226382802743321,-0.00736545776778457,-0.0106943987703073,-0.00452575192189095,0.0255929633613637,-0.00422296618103451,-0.0122853353601585,0.0445278458719279,0.0144056781279289,-0.000136345998642565,0.00142486040472758,0.011318437482263
AATTGTGTCCATCAGG-1_1,-0.0261950222786794,0.00527998609632311,-4.47971911687634e-05,-0.0177016507958678,0.0263062101996979,0.0192478944865384,0.00546787680190388,-0.00958492948369822,-0.0251123001123737,-0.0026126278678464,0.0230347857706068,0.0103645438309661,-0.0007372101939847,0.0049540498522295,0.0349344124479214,-0.00902354517951841,-0.0102038597975525,0.00843349104517877,-0.0168338877928719,-0.0198699540410573
AATTTGGTCCCGAAGC-1_1,0.0197021585700481,0.00656469942218545,-0.0176754273968634,0.0251792483162112,-0.00740337711459665,-0.011747367587636,-0.0269174558047278,0.00360768140567761,0.00667547867243576,-0.00300183962164204,0.0145694389812758,-0.0142531485900055,-0.00532957023052646,0.00720464711758861,0.00717791524507384,-0.0115834948172553,-0.0122987221649432,-0.0172291846390427,0.00590035377815878,0.0206561243432605
ACAAAGGTCCCTGTTA-1_1,0.0107802973789475,0.00422268537555027,-0.00425147344157124,-0.0170257363966796,0.0112604119777395,-0.0149716912148117,-0.00775847547237798,0.068541079785126,-0.0343435300704378,-0.00261084164664773,0.0304267453751467,0.0151308991109087,-0.0380304850367265,0.0085083671352133,-0.000803124701677389,-0.0114010012210367,0.00588695648346148,-0.0141452894977199,0.00180297517520078,0.0248213151271692
ACAACACTCCTGAATA-1_1,0.00474591138040205,-0.0561106475587735,0.0182827080414992,-0.00243148721372053,-0.0061591726106226,0.0159722276716772,0.00440367957475337,-0.00428125981983972,0.0207740726920839,0.0118427262046725,0.0132770387517308,-0.0026939056825588,0.00707954906181152,-0.0178625586274611,-0.0067049640214298,-0.0112639086328178,-0.0484754545018983,0.0036241613214748,0.00272722784114116,0.0194262080542648
ACAACAGAGGTCCTAG-1_1,0.0145305683120042,0.00666091561695389,-0.00122842703016049,-0.051623483917087,0.0161316971719925,-0.0123842142004599,-0.029001666098715,0.0291236534095315,-0.0109984486100723,0.0122287778966048,0.001075303790844,-0.0254583156822143,-0.0349927132400965,-0.00880017782433553,0.030212723323802,-0.0286461216681939,-0.0310124809169259,-0.024677240534573,0.000946620372752774,-0.0100727999135096
ACACCTTGTACGTTTC-1_1,-0.0296165837433969,0.0187943238021905,-0.0112581422112297,3.59188906319998e-06,0.0352599056630148,0.0370462497956336,-0.00625766019061605,-0.00100158410583307,-0.00846303636225168,0.0346801771110356,-0.0277330169637534,-0.00643590720657181,-0.0215442304738035,-0.0104225847023114,-0.0097594301638195,0.00266665738263948,0.00946890814815406,-0.00152185259878953,0.00473872042426132,0.0141012906969626
ACACCTTGTCATCAAG-1_1,0.0212650107975267,0.00599077994619002,-0.0238785250857916,-0.0142933303865896,-0.000203722341459893,0.0151431703380962,0.0244336160957208,0.0168815410032931,-0.00311128820808323,-0.0379452991098994,0.00321780604905961,-0.000594423764727715,0.000787099586255622,-0.0262819134109728,-0.00357063247589652,0.0611366273133291,-0.00448391129751669,-0.012624352495891,0.0181928769711876,-0.0299446247247405
ACACCTTGTCCTAAGA-1_1,0.00456889690599769,-0.0579798663293589,0.0126223047762792,0.00659373395995538,0.00281549959054409,0.019353831867106,-0.00100855548962149,0.00803412617063433,0.00486751659216588,-0.033627047812672,-0.0103366780392743,-0.00378647272821544,-0.0101990121182924,0.00479639255630078,-0.00366610024715165,-0.00856674469985726,0.0179218511495747,0.024864721978972,0.0252683528716206,-0.0274368578920983
ACACGGACAGGCGATA-1_1,0.0116392198665051,0.00820632601463682,-0.00718609555152342,0.0238114019069345,0.015975882230969,-0.0379051207435842,0.00810078115333548,0.00164292917270613,0.00219452482024751,0.011600228712554,-0.00808920630287475,0.0343686939035937,0.03531756660384,0.0520405296447059,-0.0246422245285357,0.00194142158881698,0.0107817463062508,-0.0244848025859842,-0.0474329289085726,-0.00757787096071619
ACACGGACATGGTTAT-1_1,0.0157776388813423,0.00391106941305704,-0.0112254897333059,0.0196504298498712,0.00511123350153687,0.000588640382637277,-0.0138021572250346,0.00800987379458946,0.00167623377635324,0.0037054027833582,0.00796201116056625,-0.00733912825127423,-0.0202827331613897,-0.0127480232248511,0.0346052761480887,0.0171360844299443,-0.0317173977450842,0.0304904026387477,0.00746460421377459,-0.00728193650969304
ACACTAATCGCCTGTT-1_1,0.0143246962819702,-0.00415919483629215,-0.0115658220282117,-0.000186727902237166,0.0122940186824535,0.00283578000705201,0.00325054709778732,-0.00340133737764908,0.0118930717473927,0.00191324916747327,0.0309884347054395,0.00428610541524963,0.00438244196059006,-0.034216282062273,0.0235077596104535,-0.00773097073328327,0.00457529119448361,0.0146569709501861,0.00983826216638141,0.00163484944550233
ACACTAATCGTTAGCG-1_1,0.0167796600390025,0.0322625411241569,0.0675348294497642,0.0335201500121689,0.0128341406749462,0.00583049189336478,0.0534807201432417,0.0296422110505759,0.0109451683954618,-0.00674293773994712,-0.0438255705682951,0.000642189715256258,-0.00468928526255527,0.00385792542178143,0.00739999184571753,0.0290954021615049,-0.0159820837004989,0.0400926110860826,0.0340289635868282,-0.0028560022803367
ACACTTAAGCGCTCAA-1_1,-0.0273607973639986,0.00781903576640076,-0.0101974395859389,-0.00346798050448976,0.0279867812283756,0.036473963736632,0.00679032767609482,-0.0196633868249537,-0.021691654641778,-0.0140771694469374,-0.0110241933520683,-0.00764501388017041,0.0101254380422266,-0.0103221794725991,-0.00176262883056614,-0.0189572896053446,-0.0166598614187899,-0.00913609271581847,-0.0231841661970325,-0.00900438289128576
ACACTTGCACTATGGC-1_1,0.000354069539077634,-0.0549969612260123,0.0170873311336218,0.0046554721205139,0.0100610760956668,0.0108303521976714,0.00153011552566651,0.016091197146426,-0.00360882946475923,-0.0257979913375068,0.014684218145543,0.0200047325611139,0.00533508707925438,-0.0119307222302518,-0.0459256300271589,-0.0141752563901656,0.00867742166534867,-0.00509043990692125,0.037426889656692,-0.0231462428051637
ACAGGAATCAAGCTAC-1_1,-0.0236932796720681,0.0105089408866641,-0.00755182906109828,-0.00064655262870625,-0.00421159138829541,0.0235289453747278,-0.00424105740005898,-0.0176827206727129,-0.0298373889119046,-0.0286121206865861,-0.0256164144131965,-0.000332834364600252,-0.0193466632692375,0.0497064828959472,-0.0152021956433101,-0.0114330077403284,0.00330496712948291,0.0164685244364574,-0.00239925293870416,0.00286877835004044
ACAGGAATCAATGACC-1_1,-0.0226349459709699,0.00370496027724593,-0.00316154349879217,0.000273853237369974,-0.0398444571996007,0.00349285820741517,0.00371941372097782,-0.000477866506742892,0.00587778877959816,-0.0224969403805803,0.0250544170421842,0.00309212164615268,0.0217264725070004,0.0109142655983561,-0.00411993369993292,0.000402487644601677,-0.000131875948301785,-0.0108794139482988,0.0244642247656706,0.0150041393834738
ACAGGAATCAATGTCA-1_1,0.0191794914726656,0.00666742114783424,-0.0281352448257513,0.00725378708021069,-0.00051866326389277,0.0153413631841496,0.0138653146741262,0.0421396530668517,-0.0143694277721275,-0.0258451096650782,0.00455704028669304,-0.00345630869333927,0.0283429405786225,0.0262618786586421,0.00596075551555583,0.0181939755769404,0.0532091856104656,-0.0116755433153018,-0.010374815793959,-0.0139823849203992
ACAGGAATCCAGGTCA-1_1,-0.0275966380297233,0.00320646015249124,-0.00673283580681316,0.00867756437930051,-0.0115732908362069,-0.0127181428741043,0.00752290487470056,-0.00650807881386603,-0.00145778956739878,-0.0374385090711031,0.0112344127875648,0.0126996613220544,0.00492524561356434,-0.000543550217596237,0.0126573390586257,-0.011173030546704,-0.0206311980487642,-0.0234984251271385,-0.00732333647185567,0.000526147292853114
ACAGGATCAAAGGCCA-1_1,0.0198649167849347,0.00562199440664053,0.000843651583151448,-0.0626735292953809,-0.00751478376374484,0.000660968927969073,-0.0235154231632998,-0.0254982146289357,-0.00222507940470135,0.0341772154836988,-0.0104223095627547,0.0479800950143592,0.0330819085858742,0.0362311808922424,0.0313641768631931,-0.017796394206093,-0.0247364556257066,-0.0169957431052534,-0.00373435099186701,-0.0285608313794926
ACAGGATCAAGCCAGA-1_1,0.015870345224869,0.00910369453648315,0.00183042584032666,-0.037880788672121,-0.00413726380693753,-0.000981803504737707,-0.0141178940420471,0.0296299690402133,-0.0329668090438806,0.00294814347243658,0.00726128865129808,0.00632782942224484,-0.0452732519708547,0.00472864163315852,0.0060608433377517,-0.0305312256555263,-0.0219418134868654,-0.0245482901994243,0.0022977767359413,0.0104638489525355
ACAGGATCACCTGCCT-1_1,0.0189841299107027,0.0312429639207478,0.0596470859941025,0.0099562576367603,-0.0149136208401209,0.000484334692443243,-0.0504558325875527,-0.0293193372842718,-0.00490556118716046,-0.0137470674063377,-0.0248985381619591,-0.0458410480833692,0.0310639310057266,-0.0218508881230059,-0.0201763116581433,-0.0142052167082377,-0.00331155445024757,-0.0569670375314894,-0.00978214583036063,-0.00465452277707892
ACAGGCTGTCAATGTG-1_1,0.0122762600127551,0.0228817317629099,0.051194337191872,0.0193672710189124,0.0141915451922165,0.00537657276814901,0.0261525352986771,0.0132318318829992,0.00169726067931976,-0.024207765335788,0.00462414444487667,-0.0167888557300763,0.00618133803591911,-0.00621948488129116,0.00562189127996545,-0.0144241738157994,0.00591722528220434,0.0046851209188431,0.0215870178236457,0.0248705095280527
ACATAGCTCATGACCG-1_1,0.0184136742959901,0.000830833308104604,-0.0213084678129417,-0.00318833186618545,-0.000414756614833294,0.0122204306839236,0.00556271267185199,0.00896275757923306,-0.00586341323099966,-0.00216917220999778,-0.00144436322630115,-0.0294863261166806,-0.0186617276956239,-0.0060066027854397,-0.00325232681674645,0.0124060531308838,-0.0361498127510742,0.0547425562696402,0.00643814370066119,-0.00791080131107261
ACATAGCTCTAGCGTG-1_1,-0.00470343081628803,-0.00327822400898305,0.00939233445416293,-0.00285795152507789,-0.00278481032421692,0.00715995476306326,-0.0117639649394477,0.0130381510085368,0.0082239103627289,0.0144283206341762,-0.0168544977061814,0.0174965192313007,0.00605528398099587,-0.0275556527845832,-0.0102098920518304,0.00151474225348472,-0.0125143923394013,0.0305088281167371,0.00646470724052199,0.00206241805369488
ACATCAATCACAGCCA-1_1,-0.0133888877197168,-0.0161711812949388,0.00164445696518398,-0.00686024978381523,-0.01253004502292,-0.0696725562864586,-0.0146042247737074,0.0160352326844373,0.0968183463768809,-0.0279250981942663,0.00739035019938957,0.00291073313196855,-0.00751801882025781,-0.021124074999977,0.0188702232340497,0.00263796611207896,-0.0138668666280756,0.00910087073515711,-0.0228940353730518,-0.0284226301017457
ACATCAATCTCAATTC-1_1,-0.0282598325720833,0.0126276156787254,-0.0129026663903676,-0.0082026205290018,0.0095817589842843,0.0170445865138449,-0.0135177981533848,0.00403178263249536,0.01423467037951,-0.0180706603079732,-0.0140784314258218,0.00270530227488352,-0.00241753374194458,-0.0159832926613696,-0.000815647860960942,0.0134791086668441,0.00770496412540603,-0.0284136069298125,-0.0150809879574479,0.0166387986535679
ACATCATCACTATGGC-1_1,-0.020491841709329,0.00516272094098355,-0.00547342310613397,0.00715439032021885,-0.00771939804732431,0.0116010144187735,-0.0199627516220322,0.00832830714190621,0.0191567113652006,-0.0226662486042606,-0.0242005305801307,0.00651008952854654,0.0122295417029987,-0.00191146052431039,0.0106647631585419,-0.00375230972119214,-0.00128044478920655,0.021655526241445,-0.00143526413290239,0.00794778918770136
ACATTGCAGGCACAGG-1_1,0.020005659372868,0.00390236073331924,-0.0107805196199596,-0.0154127065229975,0.00460992070925456,-0.00605683703767347,0.0164617918293055,-0.0121602084334647,0.00117103524837139,-0.0100377497514838,0.0420184290968261,-0.00457702428315964,-0.00836706915886666,0.00450878723223932,-0.026559429643902,-0.00498106207473711,-0.013717463948722,0.00553658833021091,-0.0359117478722605,0.00652945487097565
ACCAAACTCTTGGACG-1_1,-0.026716314069386,-0.00116328602934224,-0.00228238005575418,0.00575894612658853,-0.00423715304210924,-0.00233164496886125,0.00579262354835689,-0.0118117396942646,-0.0032149292943208,-0.0246927121682295,0.0137025833653515,0.0295006996761028,0.0233490233775332,-0.00145289398224755,-0.00310600504609046,-0.000230464838072703,-0.00933953666180513,-0.0301258271833239,0.00622173681849503,-0.0177816469892928
ACCAAGCGTTGGCGTG-1_1,-0.0206753158371647,0.00420060983908989,-0.00546969086380625,-0.00973650582477123,0.0126886584813394,-0.0432274135167271,-0.0110858196304799,0.00802426928126563,0.0285159919793083,0.0115738009721666,0.0161971442619484,-0.0170455038093566,-0.0374577826936071,0.026363656415146,-0.0144357350234657,0.0208360326799397,0.00959934513269641,0.0122815207351899,-0.000491759473695659,0.00981604345972344
ACCAATATCCCTGGTT-1_1,0.0175258160252257,0.0235625752888955,0.0413303911796478,0.00479988661958416,0.00189092488921188,0.00791025438351341,-0.00967997611785747,0.00107498061374026,-0.000622872925263103,-0.0267501747681043,0.0024300700609815,0.0117286073351834,-0.00400288290351973,-0.00526464461391494,-0.0202526754216469,0.0234741984301512,0.0158731530772243,-0.0507084552834767,-0.0171990675585389,0.0132913329296129
ACCAATATCTATGACA-1_1,0.0214035030489533,0.00954127672448456,-0.0164366243648623,-0.0290771490640946,-0.00816475051749131,0.00834705794069208,-0.000916959163475795,0.00131211017094219,0.0110158035283944,0.0115495159363864,-0.0146786669057837,0.0470814023479963,0.0451566203765491,0.035855498587028,-0.0235139104611204,0.0453570915016029,0.0463752002193496,0.0029991399503772,-0.0285670717487275,-0.0294526223247538
ACCACACCAAGTAAGC-1_1,-0.0113199023419298,-0.00205416355528608,0.00612351527043384,-0.00916207969529197,-0.00320913260062736,-0.00722441987752331,-0.012687029210553,0.0179876757793352,0.00226229000578169,0.0257853358560954,-0.0127502531347186,-0.0195719368920198,-0.0150053679623916,-0.0108941149727944,0.020677942492209,0.0161670053089735,0.00652979466702492,-0.0123300630689465,-0.000706611492519041,0.0106317465814009
ACCACATAGCTGCACA-1_1,0.0203373494007322,0.001641811226055,-0.0194953279858268,-0.00887989962079311,-0.00151307016067661,0.0126849220311624,0.0435619042227298,-0.0366594668821322,0.0224528833172504,0.0197030322994261,0.018887920449092,0.0333901108741267,-0.0321943345870547,0.00139324761458835,0.0227467773814627,-0.0416569035927763,0.0327167473428347,-0.0354388872440281,0.0297351395776468,0.0295770867932097
ACCACATAGGCTAAGA-1_1,0.0185417624364763,0.000590954776494409,-0.00967086017149846,-0.0106083137382117,0.00481312247558104,-0.00631561904513769,0.00280283246157281,-0.0179030718664493,0.0114334498166471,0.0158254098344092,0.0328758061586506,0.0165283134997637,0.0144798647195011,0.0162046574831421,-0.0208755671012614,-0.00720879505993536,-0.0325177580762475,0.0242149579608035,-0.0148829893153654,0.0134795191994502
ACCACATAGTTATCCT-1_1,-0.0271768010443296,0.0161885300899073,-0.0113137726457944,0.00321659805808479,0.0177974715070155,0.00612277235234795,-0.000889083116564485,-0.00727159094803727,-0.00947628065167805,-0.00404289306542586,-0.0143234949790628,-0.000793150869042029,-0.0202776979705308,0.0380489045416071,-0.021142049273064,0.00368223058685143,0.018576331627201,0.0036115015826486,0.0102268988647866,-0.00682057146916646
ACCAGCTCATGTCAGC-1_1,-0.0293261635510486,0.0111265321525775,-0.0112571388849405,-0.00141384713775614,0.0264813986113343,-0.0110595263734237,-0.0051393833487195,0.000993612459749522,0.00648363800826965,-0.00731357521910384,0.00988078143530736,-0.0225328340348861,-0.00829292241162501,-0.0115534287747682,0.0149722057259094,0.0180712199993951,0.014926445012878,-0.0253955544652724,-0.0454630690773292,-0.034659310142834
ACCAGCTCATGTGGGA-1_1,-0.00873940817507974,-0.0154865073278435,-0.00103197015559803,-0.00658272968503454,-0.0103673612777079,-0.062853685259688,-0.0292605129321105,0.0260678182940362,0.0794022388504776,0.00390167012820534,-0.0259785311350677,0.00357798050757735,0.00359716442380717,-0.034621298227942,0.0273531038231551,-0.0120594624309516,0.00483460735840091,0.0256130239392194,-0.0208692966984528,-0.0152458456360124
ACCAGGCTCCAGCACA-1_1,0.0154772796282997,0.0194109519633044,0.039642976033544,-0.00326923055168297,0.000737528873922833,0.0051175824288261,-0.0131938214272295,0.00757077417287003,-0.00034055584828857,-0.00982909847535586,0.000331893470474454,0.0249178319967619,-0.0102308252238378,-0.0251263731216923,-0.0292055496580557,0.0149582450427231,0.034609411792435,0.00298068182895535,0.00753604261176233,0.00652463847387703
ACCAGGCTCCGGAACC-1_1,-0.024847403589095,0.00493637095429993,-0.00584833630788623,0.00607652552218649,0.0207563236462461,0.015991381356784,0.0101970211280093,-0.0208806914572458,0.000222188914754111,-0.00505920825668938,0.0213696481240685,0.00660230721256656,0.032694169540478,-0.033487208097517,0.00236172502669257,0.00413618563397458,0.0156446690460228,0.00376246856963282,-0.00284329752748288,0.00333217448876075
ACCAGGGAGCGCTCAA-1_1,0.0245515905914235,0.00249760822102954,-0.0223441560034755,0.0273111385611636,-0.0101461458137543,0.00909635752347272,-0.00283379239562194,-0.00478624545563223,-0.014116316521119,0.00542059097359454,0.00547031410869647,0.00205276300744237,-0.0236191048796865,-0.023465081018806,0.0026659731244821,0.0101132670633095,-0.0153487002510111,0.0198452229008552,-0.0527588402733703,-0.029621871552359
ACCAGGGAGGCCAATT-1_1,0.0172282085063179,0.00754892774452882,0.000598658039709856,-0.043903673731341,0.00434339411772116,-0.000458327087424951,0.00752331847916946,-0.00248585402960296,-0.00922818365202746,0.0163863783010174,-0.00931069820173446,0.00766816077497698,-0.00586782060177705,0.00722870816911041,0.0301467036995695,-0.056531489843523,0.0495871702477846,-0.0232988135451908,0.04196213680987,0.0155934721386729
ACCAGGGAGTAACAGG-1_1,0.0181988102989154,0.00418829301352207,-0.0249915536563256,-0.00190095527965108,0.00848137265659377,-0.00742949452430468,0.0332592419021208,-0.0178594567827706,0.012930661778006,4.78224651954777e-05,-0.00138707026255114,0.00367711813005581,-0.00606370886890946,-0.00410941049211491,-0.00327363665209009,0.0289117308201837,-0.00504388925881517,-0.0106015091563717,0.0197024320588425,0.00331796595413134
ACCATAATCTGGTCCT-1_1,0.00953701335072819,-0.00239474966471805,-0.0167054545785766,-0.00361825931476178,0.0127171811730313,-0.00389032818513974,0.00410709581505091,0.00691316604613038,-0.00352456294137463,0.00881552630596809,-0.009924627864558,0.00633678801293882,0.0207205985572621,-0.0276888782378265,-0.00550383457742179,-0.0137246672487871,0.0207508759225334,-0.0107565759457999,-0.000650103792490792,-0.00305869351097856
ACCATAATCTTAGCGG-1_1,0.0233630776174356,0.00106064511639641,-0.0200382925100806,0.0428228069906778,-0.00270394213524797,0.00950423544952085,-0.0174364908496254,-0.00142778233910338,0.0047441052329368,0.0102661128216035,-0.0298429944922466,0.00985732578516602,-7.7725878456752e-06,-0.0186866174781738,0.00587828096272554,-0.0310603693076039,0.00862039165004598,0.0316513021082436,-0.0403748937153753,0.0266848181318515
ACCATTAAGCAAGACA-1_1,0.0213427872362715,6.84440478784344e-05,-0.0184999818593993,0.0159388267178417,0.000669382409271372,0.00263378154875103,0.00622661772140226,0.00920891280808108,-0.00039649341873693,0.00731208410233269,-0.0114329192047403,0.0344904011506017,-0.0343706497990422,-0.00788469822686154,-0.00475551543226381,-0.0142703420580703,0.00869433738816453,-0.0165482784934026,0.0265739374061186,-9.80381696161377e-05
ACCCAACCACCTGCTC-1_1,-0.0216197440680326,0.00546893316624161,-0.00518167365264117,-0.00137773777245486,0.00625822873866092,0.00801535234823401,0.00205764506704011,-0.00704973928808162,-0.00576381196062872,-0.05257397780366,0.00373953673794704,0.00230279134109205,0.0257719993910904,0.00184609729906804,0.0150299126541059,-0.0478524161540331,-0.00609278056998248,0.0059119519105386,-0.0251192162490361,-0.0177060708581308
ACCCAACCACTAGGTC-1_1,-0.0266107385475733,0.0101079194528212,-0.00982849098109379,-0.00122070805205869,0.00146684461630893,0.00771173885722073,0.00566211862752959,0.00169365721848236,0.0178111256471313,-0.00562004469800827,-0.0360141696289886,0.0061197074139985,-0.00610037098406895,0.00453716463503973,-0.0163160206526648,0.014026219522304,-0.00180698351616295,-0.00872000399376106,0.00149504276867121,0.00524889887913258
ACCCAACCAGGTTCAC-1_1,-0.0234659905576081,0.00626881815702275,-0.00323929074978439,0.00872053177280748,0.00259845151192224,-0.0107155994205769,-0.00415881077625864,0.000815072330803442,0.0199774082503259,-0.0321199379252054,-0.0212553776793548,0.00258246224181243,-0.00494430712719448,-0.0200144515912072,0.0123750608010369,-0.0126435330441103,0.0137345323677776,-0.0147597828471731,-0.0264337209933414,0.0107179714565968
ACCCAGGGTACGATTG-1_1,-0.0253520078993042,0.00566609243444681,-0.010996078083166,-0.00156126659129478,-0.00945616695916722,0.00864298495764928,-0.00354814977906399,0.00617362068263249,0.00137456207894459,-0.0435656704172387,-0.0172226117533172,-0.00277291453462128,0.0184026937269722,0.00398303971301985,0.0221182757715978,0.00913314983971746,-0.00263956716037392,-0.0349385361588725,-0.00234681556649896,0.0117917704040395
ACCCAGGGTGAACAAA-1_1,-0.0174755975753554,-0.00606715565381423,0.00130551155890912,-0.00558336728253384,-0.011122919943947,-0.0728054553913375,-0.00467583491493211,0.0246321214922958,0.0625874634752309,-0.0154800107690466,0.0210383798916218,0.0192800880247446,-0.0157253095084502,-0.000552771404044619,0.0152019706504354,0.00270507785848561,0.00605156212222236,0.00622246271925948,-0.0121559443412604,-0.0412641605175776
ACCCAGGGTGAATCGC-1_1,-0.0211125351071699,0.0069319692347187,-0.00303569085839546,0.00166927007574847,-0.037496488417355,0.00158651608802991,-0.00370176264717922,-0.0104161932758816,-0.017654934908815,-0.00507881186658629,-0.0123665353852227,-0.00810983345726668,0.0105947657270067,0.00681550309720898,0.00214965832947893,-0.00359953152009279,-0.0148665757910247,0.0122976416982043,0.00188856677325509,-0.00950504489238197
ACCCAGGGTGCTCCAC-1_1,0.0192161318761644,0.00549080740695236,-0.0229354232645772,0.0277154704770098,-0.000169597120719134,0.00750884817643793,-0.00902267286664191,0.0211701285278769,-0.0131056110252246,-0.0155013532971017,-0.0175260106250335,-0.0080649529939167,0.0175753197604878,-0.0246209515824294,0.0177460668814178,0.0139660166363247,0.0269224185369505,-0.0129486984665034,0.0161332360537505,-0.0261944115820579
ACCCAGGGTTATTGCC-1_1,-0.0011834786145563,-0.0302171202750475,0.00293487076259413,0.00933558324025704,0.038490413151856,-0.110004633480838,0.00283268650488158,-0.0437128851922995,-0.0912052194999292,0.000770419505901633,-0.0232596415718248,0.0025500253234621,-0.0061790410614772,0.0039459418057358,-0.0211036501924259,0.0179874806201145,0.0199199784969117,-0.00351232155914638,0.0324856851007109,0.000959748357603457
ACCCGCTGTTTAGCTC-1_1,0.0245125911951721,0.00360237240142688,-0.0171026262079876,0.0381691945501196,0.00476663717376028,0.00466374071125796,-0.0249059401912168,0.00718513096769454,-0.011115185016087,0.00338887375087828,-0.00325724587358295,0.00275896226284727,0.0151352968944905,0.023638016439532,0.038944050435724,-0.0281472086189982,0.0195952033907584,0.00174821809226315,0.0415331733044305,0.00499430837728736
ACCCGTAAGCAGCTAT-1_1,0.0195818072498155,0.00949566826017376,-0.00971394472643691,-0.045411691332036,-0.0044823967941358,0.00625648307635603,0.0275829251959552,-0.0027342030536106,0.00152679958875948,-0.0177925956721789,0.000407910496445312,0.0321429195212517,-0.033326978783736,0.0149654963782486,0.0120193461728908,-0.00835129250622764,0.00477739370427842,-0.0197963453627703,-0.00869894600813983,-0.00882040623820341
ACCGAAGCAAAGGCCA-1_1,0.011738080757697,0.00738086323111844,-0.00265003700780909,-0.0355226958290306,0.012164695350775,-0.0147127753811493,-0.00456625059971069,0.0548554016075698,-0.0379975051641386,-0.00437914096390515,0.00419883129232704,0.010619881555522,-0.0215132275651918,-0.000194381668352989,0.0273361818576965,-0.0168458687238115,-0.0232768341187338,-0.022529923211433,-0.0201623375305375,0.011179099757128
ACCGAAGCACCTCGCT-1_1,0.0146069934737403,0.00938714757295893,0.0110785786849162,-0.00191236835997567,0.00048494292963416,-0.0168173252081705,-0.0480764168574844,0.0200398383017187,-0.0228929479975456,-0.00758169894538723,0.0298439536794054,0.0203445984038784,-0.00479083947173704,-0.00810856495325658,-0.0563299428763523,-0.00266414415661534,0.00575389109108138,0.0146914052781156,-0.0486281559622571,0.0400803585696312
ACCGAAGCAGCCAGTT-1_1,-0.0163049829879922,0.00113764358600512,0.00487305470245285,-0.0016412448791733,-0.0570641211389596,-0.00276535751371373,0.00294427564251632,-0.00108590496616868,-0.00322725285897337,0.00686854867522989,0.00109924035214487,0.00917857896056634,0.0136995965296028,-0.0109170752039326,0.0152967211017089,-0.00479725352436652,-0.000639487167061157,0.0102073104438866,-0.0101946333396126,-0.00541803753487326
ACCGAAGCAGGCCAAA-1_1,0.0236022274139082,0.00614243675471113,-0.0197621673728504,0.0250315360571254,-0.00407312946623956,0.0146653435633802,-0.032196724216407,-0.00766010718385085,5.82931416635628e-05,0.0161771402162637,-0.0380643944752877,-0.0104506621240786,-0.0452795603290311,-0.0212936468765957,0.00932802254807844,-0.0238452909134949,0.0155330423074569,0.0118855529167139,-0.0209774576128555,0.025293835656083
ACCGAAGCAGTACCGT-1_1,0.0200659565402022,0.00668807984439092,-0.0118825462977698,-0.0224951247886736,-0.00244548613434905,-0.00799881643847846,-0.0102485478513451,0.00717768118658381,8.83843132530002e-05,-0.0102213094250419,0.0111764095730017,-0.0192128846703979,0.0147344888592907,-0.0448935547337099,-0.0145062762007978,0.0188259850966212,0.0315932685738719,-0.00407834583861237,-0.0170275430092982,-0.00659572391017319
ACCGCAATCATGTTTC-1_1,-0.0301067726098251,0.0105655368587793,-0.0152290133705904,-0.00537654684162519,0.0130827127441146,-0.000522720080416164,-0.0153287486218397,0.00139495093036797,0.00624271219772772,-0.0059028628759881,-0.00356350689508412,-0.00536124259547958,-0.0160948948024332,0.0163060084733679,0.0222677856142531,0.0205159901105035,0.0130073192967284,-0.00425680567299288,-0.014360065490112,-0.0053799168049317
ACCGGCTAGCCGCTAA-1_1,0.00354609937309733,-0.0519496618562077,0.0104300317252168,0.0182582834491802,0.010418528068539,0.0134686930338243,0.0136523130024805,0.0274757885866126,0.00924239562950846,-0.00228566084800703,-0.000297411343038405,0.0100840498582888,0.000826589201152024,-0.0204379167848379,-0.058594167041589,-0.0436505127593866,-0.00170674168787154,0.00124801213112032,0.0133683910820665,-0.0210291691764062
ACCGGTTCAAGGTAAC-1_1,0.00539860345068392,-0.0618757785500692,0.0188949356048635,-0.0081606094814871,-0.00385746732057197,0.0262799978095638,-0.0015111019357643,0.000880950771236535,0.00565794649509016,-0.0301747897897654,0.00799331309263725,0.0135179194769548,-0.0132381527007245,-0.0109695264515266,-0.0468779762136767,-0.0476667594210719,0.00560983292704412,-0.0118701430556865,0.0346276170826333,-0.0205518259752659
ACCGGTTCACCTCAGG-1_1,0.0222265640419295,0.00260533551270171,-0.0170862312137065,-0.0109272154167296,-0.000471963314734536,0.0152932364045246,0.0335569756803181,-0.0290783831180143,0.00403983679672728,0.00171252125122084,-0.00879872986159962,0.0127047728180418,-0.00633104627776805,-0.00959507092641703,-0.00591997514412146,-0.0124341982668888,-0.0243303782376762,0.0150616246267459,0.0233767991706711,0.0109374517842163
ACCTAAATCAATCATG-1_1,0.0150344775651886,0.0338628135564887,0.0650704078030986,0.0220364849314025,0.00596100551404698,0.0120023047252114,0.0352704615965084,0.0302280622250449,0.00199285877114906,-0.00931652441968868,-0.0189396020047932,-0.0187283363715701,0.0121714730140883,0.011523797811103,-0.00806540460847597,0.0121299903357803,-0.00279186478013991,0.00766058953229031,0.0255169541670615,0.00657126555683965
ACCTAAATCCAGGAAA-1_1,0.0153668687325038,0.00709947706921899,0.0185632954576777,0.00160291756156591,0.00212524783161106,-0.00477737070047277,-0.0218968156572045,0.0135931364680292,-0.0166343997050095,-0.00369672821190004,0.00477810915700841,0.0100228153009577,0.0149590882382173,-0.00230127024033589,-9.46838925894228e-06,0.0188267682771932,0.00592928117779253,0.0195957104548133,0.0325564275191254,0.00750391695600439
ACCTAAATCCTAAGGT-1_1,0.0149028151020761,-0.00312308255030011,-0.015851114973461,0.000159556679131337,0.00745900904617868,-0.00968479926474012,0.0224028071565338,0.00903720445633325,-0.00597758733695916,-0.00680555720213543,-0.0050188392901023,-0.0213487571498907,-0.00668228260220062,0.00236821575517329,-0.00188829239260071,-0.0343522722867872,-0.0054766151599579,0.00306904460363429,-0.0377438153883067,-0.01244365569937
ACCTAAGGTGGAAGGC-1_1,-0.0335474375649594,0.00609765486128461,-0.0080554526259541,0.00434851708002862,-0.0132703565464232,-0.00923096598421028,-0.0105940847897014,0.00867226153947034,0.00763305577674947,-0.0300436329076643,0.050347391682077,0.00625910642252365,0.00948612898505442,0.0201839968273088,-0.00906306001646292,0.0104276737242586,-0.0147484137132804,-0.0135552493382579,0.00845659209325389,-0.00291844302465626
ACCTAAGGTTCACCAT-1_1,-0.029591575455646,0.0135344934420794,-0.0142827264142637,0.00277613324495673,0.0141521167413305,0.000680655957409877,0.00143214454266851,0.0171668339834117,0.0186366977378444,0.000551202603864769,-0.0201262453722025,0.00627448339797315,-0.0189978437260023,0.0129523283305902,-0.0416345479206801,0.0238494368323264,0.0223112091021688,0.0123246753402927,0.0284604807776286,0.00172643594418318
ACCTACCTCTAACCTT-1_1,0.0123526317531993,0.0292692489834914,0.0615331256714625,0.0225536285545748,0.0145133518654934,0.00552365441231507,0.0544895084690966,0.0205531722889096,0.0101780909179535,-0.00348776925156494,-0.013158107848683,-0.0165375992703964,-0.00368724856050971,-0.000812967278142308,0.00768113127592784,0.0150862356050318,-0.0213301900246497,0.0251616356345838,-0.00136863398334328,0.0223754743852538
ACCTCACTCCCGAAGC-1_1,0.0230066389962689,0.00471242386468071,-0.0271447547968303,0.0558014486511848,0.00266269105846072,-0.0017671296913313,-0.0281406456214047,0.00980593918952452,-0.0120413950486489,0.00084595623289648,0.0183056409120087,-0.0159365316346105,0.00251916174940581,0.0203917079812533,0.00267158232473794,0.0147147861993628,-0.00653470563384407,-0.00957446614921982,0.0223711715147309,0.025882641515687
ACCTCACTCTAGCTTT-1_1,0.0162350058300604,0.00599154361315563,0.00423745064727053,-0.0368244108556467,0.00736531354037825,0.00140705771417108,-0.0233052814059206,0.0420977596023568,-0.00343196641074972,0.00797309832046381,-0.00665110890433212,0.00214161568108003,-0.00833178432042543,-0.00628624951195752,0.0169120279303019,0.0036353678046138,0.0261015810437056,-0.0245168336302325,-0.0373244080149988,0.00621822910270332
ACCTCACTCTTGCTAT-1_1,-0.0279944084607324,0.0117325638034715,-0.00721720599910019,0.00106073479743241,0.0239406178563965,0.025345049369051,-0.000107483824110447,0.0135924929664999,-0.00147931731050915,-0.00210096900577064,-0.0351020592604571,-0.000822073785375583,0.0188916994168208,0.00316567174158495,-0.00985026874620747,0.00253422009817205,0.0087391948389371,-0.0301825033964386,0.00699455417691087,-0.00393825730059788
ACCTGTTGTAGGTTAT-1_1,-0.00250964528021186,-0.028653282974183,0.0128255702089659,0.0112790899487166,0.0388732675450895,-0.118100829292049,0.00207704576828655,-0.0422839637103811,-0.0832226859554775,0.0142581719130831,-0.0360938027200911,-0.00433749852894713,-0.000261956242573756,-0.00496756276675434,-0.0044435771200448,0.0388792263780057,0.011285684262208,-0.00108903379510807,0.0197083458912643,0.00308837200494358
ACCTGTTGTTAGGCGT-1_1,0.0193091856690539,0.00715031016865497,-0.0113396127800779,-0.0501195456620527,-0.00864493376438388,-0.00512771203421844,-0.019457836626397,0.016473103578369,-0.00313473793854069,0.0209962710061287,-0.0158889049338103,0.0115210166504211,0.0308120772328661,0.0451932113162204,0.019452244699048,0.00148219034739084,-0.00980500381797582,-0.00486570695754283,0.0132416336167989,0.00959134041250071
ACCTTCCAGGTGAGAC-1_1,0.0247504403235995,0.00844410506998032,-0.0225349528607184,0.0288968671736831,-0.00223473912675605,0.00832319052211152,-0.0132319795505342,-0.0216946305536894,0.0112367769186609,0.00534201004198924,0.00929480224079985,-0.00140777884434752,-0.0484759362976673,-0.0101775509142386,-0.00783201731453291,0.0195726714916382,0.0184854447403556,-0.00137068575379651,0.0279845614909839,0.0041439823240983
ACCTTCCAGTAACGGA-1_1,0.0172212450251447,0.0129932220884677,-0.00435363015968246,-0.0466887989353216,-0.0122334789286221,-0.00729957274120128,-0.0179675694447665,0.0483680303395217,-0.00146618199154162,0.0164286383141358,-0.0232223752547544,-0.0482155831095685,0.0537379181445811,0.0436147009696754,0.0317001352199572,-0.0114790551130707,-0.020239682037326,-0.00346565420253099,-0.0201316363335436,0.000962149344997279
ACCTTGCTCAGCTAAC-1_1,0.0190243366358657,0.00104980901183102,-0.0117625500278513,-0.0148321881238258,0.00183033078123394,0.01056895442522,0.0102216158399826,-0.00553038093689416,-0.0150508995902826,-0.0175666165518374,0.00173930697973347,-0.0138594770703103,-0.0226628276134433,-0.0205950044112449,0.00167607938429536,-0.0188971061245097,0.00312491807230135,0.0030986252585908,0.0207127451493909,0.00874944248811131
ACCTTGCTCCCTGGTT-1_1,0.00572827389835847,-0.0594509327566037,0.0151047120166536,-0.00545237779933195,-0.0024389762831124,0.0144344568743633,-0.0163263844270993,0.00226163708422332,0.0152275391536279,0.0108264142293193,-0.00932510544396765,0.0102559662382642,0.023863785886413,0.0108987857216121,0.0132587273695827,0.00558085600471429,0.00281976186546075,-0.00135025039662,-0.00452888803477303,0.0359291754651936
ACCTTGTGTGTTGCTT-1_1,0.0157117972528438,0.0277059288453427,0.0543522602846152,0.0237235325567911,0.00187599176817313,0.0108755355026276,0.0474733687454622,0.0238063073231486,-0.00430829972003603,-0.00650460086813661,-0.0205130929244849,-0.00384244458056198,-0.02568426346325,0.0151289331371898,0.0228389065205118,0.0145235480702322,-0.0139806659001813,0.0292802909651807,0.0184481647795197,-0.00155166665973402
ACGAACAAGGCCTGGT-1_1,0.0211966420427549,0.00880238297835616,-0.0111111838895245,0.0210805240436257,-0.00237039194816715,0.00172654625652556,-0.0196044867503305,0.0115012841607236,0.00600592501275717,-0.00443017806954049,0.00343723560081033,0.0229627915728625,0.021164885950994,0.0098452259961145,-0.00177945653153123,0.0128183861685067,0.00921051282060935,-0.0106162255520096,-0.010453172554504,-0.0249744837186663
ACGAACAAGGTGCGGA-1_1,-0.0165459853249631,0.00143565462750565,-0.000283922507030997,0.00775319701399784,-0.0700514754961821,0.00609990687530325,0.0137126678272014,0.00602363246371276,-0.0233968773346576,0.054921060973225,0.0163614540668903,-0.00514584762276621,0.00192603435339092,-0.0335145099398519,-0.0100997101438676,-0.00363889491369147,0.00858791850262679,0.0173837335195904,0.00719158210869231,0.00980104420667532
ACGAACAAGGTTAGCT-1_1,0.0182625685684187,0.00765509384455298,-0.027261826890426,-0.00605346569550836,-0.00426310609429964,0.000411735980104344,0.00238152558763283,0.00376656566599802,0.0193358009185892,-0.00824609667491861,-0.0179882247992701,-0.00738956190113212,0.0120929761520957,-0.0455286586037883,-0.0123365617648815,0.0407623506668391,0.00446876992960312,-0.0367162841526738,0.00520313095739326,0.00067795475027441
ACGACTTAGCCAGTAT-1_1,-0.0135685837169599,0.00847876854848845,-0.0150022708796798,0.0171758097536862,0.0183338395860609,0.0248288722054066,-0.0286684796546875,-0.0112450991708093,-0.0157526908567816,-0.0135076315560706,0.014127909759491,-0.0120539551557273,0.00878869712650033,-0.00430407843811464,0.0157712109647898,0.0208988513910094,-0.00309770346857159,-0.0279794512940091,0.0252732190961456,-0.03108861333883
ACGAGTAAGCACTAAC-1_1,-0.0188719183782209,0.0044388749064284,0.00270275573182841,0.00605058423627974,-0.0691619698380882,-0.0100529276745406,0.013247260819549,0.00721405122416903,-0.0228183013763535,0.0573073091522903,0.0218932268109834,-0.0172100781150561,0.00281721182186069,-0.0128133105651764,0.00208995517150792,-0.00140596937378371,0.00715963911928898,-0.0019485119022965,-0.01428805485381,-0.0287214002439743
ACGAGTAAGGATAAAC-1_1,-0.0248135361456193,0.00970936514449167,-0.0122864150803373,-0.00367321668840862,0.0296288578984825,0.00457036285572464,-0.00810246788460675,0.00405182283971464,0.0119885977404765,0.0521045217642987,-0.0126155042708131,-0.0176708747995748,-0.0463459967621466,-0.0113177723455602,-0.0333349485642897,0.0053197714426755,0.00936928705934792,0.0125781953060433,-0.00718410647623774,-0.0018610585737459
ACGATTCAGAACCTGT-1_1,-0.0217967138807638,0.0157824704567599,-0.0104097097915898,0.000497469854156694,0.00923522676599997,-0.00120362673469116,0.0129400244871169,-0.0132249138226529,0.0102721438480284,-0.0134372233572957,0.00889336676022931,-0.00191487101440474,0.00932026979076255,-0.017505302813271,0.00501226890978147,0.0101091321991836,-0.0129809933718513,-0.0143843483517023,-0.00342211692240853,-0.00473491122041309
ACGATTCAGCATTTCT-1_1,-0.0271387686246034,0.0125387450262286,-0.00731126815845376,0.000869060462020254,-0.000899998709092075,-0.00465047863649144,-0.012563880385143,0.0110411440344276,0.0132415736593518,-0.0017775103949914,0.0188391848014716,0.0106157795201233,0.00778740575656403,-0.007580773941822,0.013622139530448,-0.000254869542182256,0.0121603221486438,-0.0119571453650176,-0.00501080463867218,0.0106186613099059
ACGCACGGTACGGGTT-1_1,0.0170746354044144,0.0316476944898319,0.0449819446180269,0.0215343258881795,-0.0035627132789296,-0.011655491513558,0.0137425613716718,0.0337570983897343,0.00251337605249227,0.0118942055584392,-0.0226090013280867,0.00558828904921107,0.0196650492408881,0.0269279293797545,0.0205726259754777,0.0109054797425882,-0.0047425224421665,0.0155036914762143,0.0272869696430271,-0.01529916446462
ACGCACGGTTAATGAC-1_1,-0.0282193712045055,0.00636543202995252,-0.00623506409271266,-0.00197684216204315,0.0257310520537682,-0.0023668165552705,0.00217219037101949,0.00975855757375322,-0.00689023706192162,-0.0146480483900219,0.0423176434102039,-0.00980623364868144,0.0101971430814754,0.0091510370938739,0.016490136229824,-0.00547332231881726,-0.0165687896598838,0.0130618250021605,-0.0206134044970085,-0.032082748972993
ACGCACGGTTACGCAA-1_1,0.0216713713732035,0.00747946136296799,0.00397340629465386,-0.0115171991297253,-0.00526514157560859,0.0104451311826778,-0.0362773541660207,0.010834625692752,-0.00405780558080626,0.00365450899532533,-0.00833143061629742,-0.0238623260343349,-0.040108023414201,-0.00552198653602721,-0.0167199486501997,0.0281565945801127,0.0278584918221209,0.00165299755485172,0.00281837474639298,-0.0164365233614311
ACGCCTAAGGAAGCTA-1_1,0.016549394398892,0.00185973205526096,-0.0169167811946237,0.022778429468457,-0.000132671153083506,-0.000191049112523883,0.00298383682725899,-0.0100169701114332,0.00513114743650367,-0.000488280005360084,0.0277364012762349,-0.00493226195217401,-0.0112515674066595,0.00788670511560795,0.0197264912030692,0.0276700464637737,0.0205708959229235,0.00139770930608813,0.035228360724715,-0.0233409503194732
ACGCCTAAGGCGGGTA-1_1,0.0140653083744195,0.0241754338739713,0.0450334267665121,0.0106617261509634,0.00572832801666519,0.000869469362473939,0.0252716272946157,0.0152150150395232,-0.00131381706521872,-0.0083509491370638,0.022434583016236,0.00304630395202678,-0.00311818952177651,0.0160281540181667,0.00486338407221082,0.0217747382761862,-0.00801612951004744,0.022600818204312,0.00358711525205492,-0.0181298393333501
ACGCCTAAGTATTGGC-1_1,-0.0214536887201114,0.00926618524593465,-0.00572616590603975,0.00238881994853924,0.0308949815519454,0.0052211248409589,-0.00418688975017414,0.00476203459835033,-0.025311522260797,0.0273560065166307,0.019276240932236,-0.0156434159821027,0.00976283714984313,-0.0148773043305465,0.000198635172030956,-0.00308523547728679,0.0126099241245204,-0.0095969597034333,-0.00420673783561648,-0.022878566374962
ACGCCTAAGTCTATGA-1_1,-0.0223404318406991,0.00185721587439686,-0.00284623479374603,0.00418839828036455,-0.0259299513496106,-0.0145906134949059,-0.000524646769151039,-0.00470154363512291,0.0111588249921007,-0.00626546102496094,0.00387121057326504,-0.017794956415263,-0.0150766491720847,0.038457105895264,-0.0060298940353091,-0.0155213785081902,-0.00167155868056872,0.0107784773673331,-0.000580931948031535,0.0196185013694406
ACGCCTAAGTGAGGGT-1_1,0.0268138874145823,0.0036354085014459,-0.0168000947163638,0.01984505387334,-0.00350393881898463,0.00380844964340501,-0.00668626503575762,-0.00678688849482202,0.0138380089615611,0.0182254549357121,-0.00402228695405848,0.0383153178799443,0.0178309906496292,0.0231852033060269,-0.0358455059488833,0.00818889435625256,-0.0181231941981179,-0.0318550644609897,-0.0152789260614268,-0.00450716255119702
ACGCCTTTCATTTGCT-1_1,0.016764281872245,0.0117194020621987,0.0166512796570135,0.0106132048828677,0.0155887717766803,0.00494289661569188,-0.0352119036011026,0.00326803907123703,-0.0194014141135312,-0.0176861662362779,0.044803342266108,0.00674577062349285,-0.0258873789978787,0.00534180811607549,-0.00725533650281175,-0.00219340959884796,0.00944239463769909,0.0377330614059469,-0.00545383153146168,0.0413103291826174
ACGCTTGAGCTCATAA-1_1,-0.0285246119800971,0.0126431479370119,-0.00759990702925461,-0.00298610168531253,0.0241604904051937,0.00634114032076326,-0.000600565867715455,0.00151256858582629,0.0275883066588091,0.0346409773219098,-0.00830209584480955,-0.00509164407596823,-0.0397765960476222,-0.00563162183568472,-0.0153729505509678,0.0180102475905555,0.0170767071715232,-0.011375493826161,0.0134920660194865,-0.0208064485340541
